{{0.210025,-1.294105,-0.572242,1.073681,0.168287,-1.341211,1.141645,0.186506,-0.476164,1.792160,0.652144,0.975229,0.725329,-1.301721,-0.036937,1.708053,0.541887,0.306508,-1.257696,0.918104,-1.623364,-0.959007,-0.334087,0.000418},
{-1.141118,0.875724,1.481200,-1.234940,0.490866,1.356000,0.528600,0.315319,-0.298768,-0.448206,0.017464,-0.966104,0.597062,-0.959776,-0.365918,1.126784,1.556262,1.111266,1.776744,-0.756104,0.366505,-1.309464,0.056315,-1.870423},
{-1.076655,0.062731,0.233734,1.429799,-0.093540,0.456685,1.505585,0.204119,-1.457805,-1.162562,0.185875,-0.789455,-0.872693,-0.937433,0.278789,-0.472890,-0.614487,-0.405228,0.211854,-1.559998,0.573408,-0.186861,-0.504717,-0.744309},
{-1.037168,-0.418028,0.577467,-1.847026,-0.538225,1.297877,-0.416338,-0.273076,-0.637806,0.130224,0.542751,0.025522,-2.437792,-1.091520,0.259157,-0.927711,-0.255684,1.146058,0.781248,-1.179566,-0.204931,1.384775,-0.492375,1.360636},
{-0.340006,0.434689,2.210392,0.644577,0.480751,-0.426455,-0.049973,-0.996107,0.641855,-0.384592,-0.593237,-0.429280,-1.117144,-0.959554,-0.976238,1.330574,-1.087310,1.098015,1.616019,-0.996628,-0.315637,0.366529,-0.049336,0.100332},
{0.314485,0.823964,-0.338628,-1.929421,0.612119,0.574758,0.510514,-0.294733,-0.227550,1.582120,-0.443689,-0.726051,-1.263951,0.001427,0.175947,-0.021877,2.260579,1.785020,-0.164007,-0.683901,-1.023317,-0.963285,0.127654,0.451222},
{-0.641940,2.092932,-0.294456,0.808930,-1.028658,0.603191,0.881921,-0.417273,-0.049167,0.591275,-0.775988,1.145740,0.769944,-0.740307,2.641214,-0.112296,-1.866967,0.611045,-0.818403,-1.277418,-0.525809,-0.300682,-0.276130,0.105085},
{-1.266988,0.166488,-1.321229,0.254412,-2.320486,1.030749,-0.678668,0.836653,-0.992521,0.496352,0.354242,-0.404134,1.595807,0.939501,0.492581,-1.367100,0.472266,0.047740,-0.074174,-0.645501,0.559299,-2.350090,0.008829,0.740433},
{-0.346656,-1.588340,0.469321,1.203761,-0.656019,0.247173,-0.414205,2.404782,-1.685567,-0.647577,-0.179998,0.731501,0.292672,0.322253,1.466494,-2.654277,-0.382329,1.991378,-1.670186,0.233545,0.381187,-0.453048,-0.265017,-0.228907},
{-0.945557,-1.560788,-0.486466,0.678344,-1.157509,0.528541,-0.102137,-0.699038,-0.834139,0.992771,0.475785,-1.749803,-0.411376,1.134804,0.288947,-0.880891,0.449433,0.718131,-0.972703,0.620271,-1.059835,-1.506254,-1.354568,-1.406314},
{1.388965,-1.254511,-0.752296,1.288683,-0.900627,-1.635826,-0.065598,0.843313,-0.536940,-0.790453,-1.215140,0.845451,-1.009683,0.441009,-0.384718,1.419401,-1.581567,-0.080945,0.154272,0.050317,0.413029,-0.327804,1.918044,0.750322},
{-1.966502,-1.274148,0.653144,-0.594646,0.976582,1.227708,0.310069,0.431178,-0.438519,1.227239,-0.730324,-0.571448,-0.547800,0.642666,-0.206612,-0.493781,-1.785806,-0.427387,-0.179157,0.618446,-0.451114,-0.961854,-0.352065,-0.774658},
{-1.151787,-0.685101,-1.320227,-1.538961,-0.797122,-0.553920,0.379846,0.152114,1.062315,-2.197100,0.979637,-2.233398,0.509514,0.491754,-1.377024,-0.810318,0.266300,-0.276908,1.675303,-0.882676,-1.274040,-0.230300,0.411554,-0.852860},
{-1.357778,0.947710,-2.579898,-2.005329,-0.110845,-0.681460,-0.373781,0.750126,-0.302294,1.487511,0.303263,-0.618157,-0.029344,-0.966907,-0.776939,-0.353003,1.971188,-0.252910,0.771298,-0.607260,-1.307521,-1.451866,0.303490,-1.597594},
{1.302758,-0.606090,1.676569,2.028888,2.872106,-1.664839,0.212754,0.472205,1.297632,-0.703724,1.463209,-0.266792,1.880181,-0.708523,0.835014,0.700293,0.485704,-0.789251,0.167286,-0.381400,-0.997051,-0.232684,0.562053,-0.242491},
{0.888971,-0.703662,1.318333,1.127742,0.040672,0.139293,0.916586,0.143707,1.541228,-0.158651,1.062033,1.004412,-0.798731,-0.068636,0.558837,-0.781916,0.651044,0.008755,0.478223,-0.782908,0.527287,-0.073237,0.214447,1.972037},
{-0.845138,-1.620076,0.673107,0.763083,-0.994894,0.078018,-1.199357,-1.289186,0.148565,-0.143768,-0.006661,0.411928,-2.695591,-0.171929,-0.176249,-2.387553,-0.729378,0.597042,0.317201,-0.358203,-1.496367,-0.172131,0.457238,0.085307},
{0.108525,0.526416,-1.842087,0.517677,0.235123,0.431652,-0.467925,-0.806295,-0.567867,0.296174,0.519832,-0.538648,0.336944,0.890254,2.770704,-0.733283,0.348974,-0.022121,0.313095,-0.182914,-1.050172,-1.001921,0.379648,-1.158068},
{1.457963,0.325203,-0.442666,-1.064798,-1.474600,0.734218,-2.281307,1.390605,0.100842,0.298915,-0.077044,0.162301,-0.662505,-0.171196,1.732341,1.038060,-0.651684,-0.940325,0.050705,-1.133174,-0.150606,-0.664540,-0.129815,-0.459721},
{-0.128362,-0.465210,2.283448,0.157527,-0.763511,-0.336339,1.246977,0.820974,-0.384892,1.633858,-0.305834,-0.257522,0.391826,-1.127974,-0.030447,1.351798,-0.681162,-0.645119,-0.925562,1.845570,-2.283045,0.815575,-1.445499,-0.023030},
{-2.733958,-0.010057,0.818670,-0.266644,-0.546094,1.073993,1.004019,0.469655,-0.225212,-0.082244,-0.956165,-0.069503,0.149692,0.344860,-0.138795,1.155722,-0.905365,0.505527,0.776649,1.336953,-0.704430,0.273751,-1.057832,0.590296},
{-1.994589,-0.481730,-0.720073,0.455153,0.011821,-0.453051,-0.493552,1.323262,0.712909,0.252172,0.634454,0.831327,1.525242,0.260969,0.670096,0.467634,-0.348103,0.757967,0.243463,1.368443,2.015394,-1.279831,-0.242320,-1.259571},
{-0.511127,0.603433,-0.559263,-0.565548,1.207166,-1.209694,-0.490121,0.447652,0.778703,0.561620,0.715344,0.692068,-1.836844,2.486532,-0.531811,0.179356,0.861247,0.759248,-1.127790,0.901198,0.186645,-0.491842,1.577742,0.209466},
{1.182329,2.126109,-0.360616,2.472319,0.155969,-0.411495,2.165388,0.077139,-1.286002,0.261752,-0.217200,-1.555828,0.455724,1.391314,1.087546,-1.065910,2.228296,-0.808685,-0.720206,-0.807942,0.525701,0.344714,0.838423,2.954926},
{0.575590,0.358293,-0.215173,-1.206556,-0.273330,-0.682152,0.230699,-0.304535,-1.085584,-0.218610,-0.132356,1.308401,0.744084,0.545923,0.307407,0.744872,0.198489,-0.483438,-0.262108,0.405159,1.442888,0.108302,0.454720,-0.214664},
{-1.037124,1.149254,-0.983518,0.783823,0.228142,0.159352,-1.590829,-0.509345,1.257114,0.600111,0.212877,0.998420,-1.301251,1.071616,0.496126,-0.765692,-0.158579,-1.253419,-0.915146,0.118622,-2.952920,2.357128,0.112369,0.008994},
{0.589817,0.508519,1.999038,0.657481,-1.200888,0.428914,1.233529,-0.079462,-0.496783,-0.924359,0.825391,-0.106201,1.061056,-0.247085,-1.193047,0.473431,-1.419382,-0.388690,0.210325,0.498395,-1.141843,-1.281235,0.516376,-0.383020},
{-2.067278,0.314498,1.077738,-0.153117,0.625321,-1.321012,0.243999,-1.474025,-0.640015,-0.486189,-1.316691,-0.943549,1.717067,-1.628703,0.229193,-1.256592,1.016231,-1.232228,-0.087808,1.640861,-2.107349,1.066466,0.189545,-1.016514},
{-1.180337,2.229745,0.383253,3.061355,-0.628487,0.294406,1.230573,-0.286185,1.519629,0.506632,-0.112147,-0.210598,0.199501,1.118748,0.329490,-0.118830,0.592568,-1.169162,-1.036784,-0.587859,1.659768,-0.768760,0.680208,0.591282},
{0.158487,-1.665176,1.530551,-0.443896,0.487788,-0.508716,1.315674,1.373405,0.779095,0.030661,0.551032,0.208433,1.065049,0.141125,-1.364876,1.249467,-0.880192,0.737998,1.847816,1.074999,-0.780592,1.198078,-2.039744,0.479706},
{-0.432971,-0.498844,-0.945292,-0.128566,-0.355846,0.906334,-2.353677,-0.170626,1.239316,0.642185,0.564105,-1.487374,0.192347,1.596955,-1.211452,-0.309097,0.849896,-1.988060,-2.001897,0.566521,-0.054241,1.419358,-0.589131,-0.228553},
{-0.174163,1.366575,0.047975,2.185423,-0.908241,-0.731186,-0.253332,0.176608,-0.515100,-0.507128,0.792631,-0.411232,-1.517536,1.006780,-1.116367,0.407222,1.329110,-0.270423,-0.466140,0.508617,-0.247700,-0.042375,0.411177,0.382157},
{-0.978868,-0.251074,0.102060,1.694327,-1.723144,-0.086612,2.390952,0.274155,1.633421,-0.822017,0.302702,0.005617,0.571419,0.847704,0.732594,-0.067716,-0.493818,0.631931,0.834314,-0.150676,-0.591468,-0.154623,-0.422036,-0.493143},
{0.282270,0.659494,-1.199173,-1.560675,0.129230,-0.526376,0.013129,2.206242,-0.429691,0.045408,-0.301760,0.595993,-0.411765,-0.275041,0.694884,-0.484063,-0.052447,-0.026763,1.660757,-1.300125,-0.061672,0.292393,0.272381,-0.536926},
{-0.727876,-0.434259,0.673963,1.116121,0.464124,-0.258462,-0.556282,-1.047529,0.118948,-0.206171,-0.571996,0.962505,-0.338310,0.879400,-1.785790,0.254943,1.495527,0.223257,-1.050331,-0.427201,0.910446,1.828704,1.277281,0.236935},
{-1.083476,1.446595,-0.197613,0.425343,-0.580170,0.525129,0.076015,-1.360763,-0.855515,-1.448260,1.333945,1.216851,0.484415,-0.394348,0.122774,-0.502312,-0.265647,0.337602,-0.609771,-0.898976,-0.207931,-1.072422,-0.818151,-1.844849},
{0.956799,0.892462,1.273124,0.543110,-1.365220,-0.736508,1.306825,0.640337,0.156922,-0.028193,0.658449,1.747720,0.788325,0.270836,-1.623264,0.572222,0.567958,3.018776,1.787450,-0.359497,-0.187005,0.772662,1.249138,1.500247},
{-0.011102,-0.533712,0.696735,-0.559191,-1.167081,-1.383213,-0.083778,0.820912,-0.290836,-0.078567,0.945297,-0.872695,-1.656028,-0.064448,0.021184,-0.700529,-0.399686,-0.614409,0.349637,1.783647,-1.375128,-0.659898,0.570237,0.695291},
{-1.267553,-0.274897,-0.574059,-1.318081,1.030657,-0.982083,1.569772,-0.543960,0.464384,-1.545890,1.395046,-1.047796,1.626201,0.324814,0.398514,-0.805749,-0.002072,0.593151,-0.951643,-1.562270,0.917697,0.275098,-0.240741,-0.332865},
{1.063447,-0.585509,1.452266,-1.382651,-0.772705,-1.437801,-0.857932,-0.916960,-1.170285,-2.101334,0.142136,1.366554,0.590602,2.364437,-1.954061,-0.443966,-2.062744,-1.261615,0.233018,-0.705836,2.648558,-0.552726,-0.203591,-0.797756},
{-0.785606,0.673972,1.160433,-1.175327,0.283199,0.474888,-1.308062,-0.189250,-1.151471,-0.525901,-0.310345,-1.478400,-0.238657,-0.143951,1.329670,0.975667,-1.038910,0.995411,-1.581705,0.949579,-0.698885,-0.727593,-2.154601,0.326311},
{0.093545,-2.367602,0.903356,-0.606760,-0.015975,0.203861,-0.739008,-0.713665,-0.925593,1.630379,0.241005,-0.820715,0.964753,-0.400892,-0.068172,0.487632,-0.050321,0.733964,-1.566943,-1.239340,0.608659,-1.845261,0.802274,2.185521},
{-1.122636,0.886365,0.877378,-1.179738,0.996638,0.736707,-0.564669,0.497225,-0.757507,0.422367,0.629462,1.068306,-0.963915,1.315506,-1.205598,0.912433,-0.735133,0.995348,0.586200,1.186270,2.191755,1.444939,1.476930,0.332258},
{1.958705,-1.662519,-0.383692,1.007916,-0.551678,-0.782006,0.207799,0.201161,-0.855923,2.000552,-1.766886,-1.588333,0.054158,-0.673502,2.435626,2.172708,-1.895411,-0.400703,-1.836953,0.678665,1.432160,-1.119335,0.840062,-1.199800},
{1.958772,-2.108065,-1.469321,0.246803,0.019720,0.345770,1.930024,-3.331763,-0.557742,-0.985174,0.867203,0.750381,0.877596,-0.035148,1.917193,-0.359525,0.609254,-0.426676,-0.380981,1.048846,0.490391,0.866261,-1.113909,1.690301},
{0.185274,-0.188176,0.773440,0.330755,1.806550,-0.531829,-1.306707,0.135948,-1.597610,0.047875,-1.742242,1.039039,-0.286130,-1.183291,0.464049,-0.453884,-0.409615,0.935148,1.218832,1.651929,1.545317,-0.458138,-0.515185,-0.768826},
{-1.416968,0.971093,0.616608,-1.371400,0.704047,0.538903,-1.941845,-1.023576,-0.884244,-1.085381,-0.032881,-1.047199,-0.502743,0.131549,-0.394953,0.718490,0.718359,0.435762,-1.023676,0.868904,-1.878517,0.545708,-0.944289,-0.869145},
{0.986112,1.671134,1.010124,0.729602,2.190645,0.568222,-0.807689,-0.751127,-2.082277,1.703615,-0.228526,0.837719,-0.880271,0.514929,0.995285,-0.183607,-0.980343,1.556547,2.313211,-1.867791,0.084719,0.451896,-1.500611,-0.258600},
{0.353197,1.371236,-1.048329,-2.511052,0.234525,0.194509,-1.657282,0.222708,-1.633125,-1.218463,-1.947936,-1.767383,0.287393,0.569382,0.885440,0.590386,-2.237366,0.837472,1.162183,0.078235,1.727353,-1.223551,-0.678473,-0.352305},
{-0.079009,-1.422246,-0.584156,-0.643250,0.691141,1.921669,0.168886,-0.620371,0.425501,0.177847,-0.455493,-0.657616,-0.292252,-0.004017,-2.424218,0.736755,1.510831,2.645923,-1.624485,0.847980,-0.903138,-0.141118,1.117483,-0.321894},
{1.612374,0.928461,0.805059,0.595505,1.108448,-1.063641,-0.092378,-1.338493,-1.150584,0.486343,0.498487,-0.026477,-0.193424,0.611754,-0.915170,0.827560,-0.409612,1.486484,0.985134,-2.902380,-1.193306,-1.167534,0.196491,-0.677488},
{1.213008,-0.542572,0.733842,2.002306,0.977994,-0.214013,-0.908952,-0.198232,-0.134857,-1.054334,0.834723,-0.300706,1.715310,-0.490172,-1.443312,-0.124017,-0.061888,-1.344390,-1.479912,-0.705364,-0.879502,-0.730559,-0.420883,-1.350671},
{0.076615,-2.504447,0.861476,-0.419707,-0.945294,-0.024831,0.548368,-0.745845,-0.747065,1.155840,-0.960617,0.358066,0.467710,-1.720425,-0.514590,1.950517,-0.683275,-1.524438,-1.150922,-0.134127,-0.895440,0.172860,1.135789,0.469637},
{0.557756,1.141263,-0.868835,0.865975,-2.062106,0.171377,-1.438470,-0.433996,0.800955,-0.666113,-1.305288,0.163279,-0.583069,-0.553822,1.109876,-0.141277,-0.370630,-0.493633,1.911140,-0.055790,0.250224,-0.698986,-0.669570,0.315069},
{0.454964,-0.935161,0.811897,2.198542,0.578762,0.776496,-0.200347,-1.663975,-2.359239,-1.299613,1.374608,0.830038,0.647447,0.899954,-1.516976,-1.548675,1.368994,-1.253103,1.063954,1.273561,-0.469714,-1.041467,0.946832,-0.478966},
{0.160897,-1.380859,0.455358,-0.569079,-0.865097,1.426914,0.232359,0.869775,0.003996,0.025144,0.004918,-1.132085,-2.015479,1.432957,-0.399637,-0.580624,1.082690,-0.288230,1.999106,-0.469037,0.315699,-2.005163,-0.779714,0.892492},
{0.791131,-1.724097,0.703698,-0.701376,2.155417,-0.659613,-0.225561,-0.234960,1.550152,-0.227717,-0.627725,-0.497394,-1.817528,0.915375,0.658197,0.790809,-0.692501,1.161232,1.244262,-0.451921,-0.468184,-0.319984,0.227335,2.566584},
{1.278420,-0.281075,-2.462226,2.300924,0.535048,0.163379,0.081844,0.108240,0.896377,0.040044,-0.317865,1.412315,-0.576781,-0.531816,-3.005820,1.390468,0.465244,1.227813,0.271846,-0.394477,0.611302,1.425664,0.746308,-0.120376},
{-0.872391,1.315749,-0.907481,0.117880,0.705080,-2.014762,-0.437578,-1.204533,0.669560,-0.468343,-0.623169,0.459427,-0.998403,0.348651,1.487195,-0.356666,-0.391063,-0.659447,1.539548,-0.284150,-0.511507,1.340633,-0.701137,-1.208903},
{0.115388,-1.448235,1.540957,1.140576,0.727787,-1.650676,-0.588211,-0.157431,-0.409595,1.093640,0.282001,0.255555,-0.453022,-1.088383,-2.098546,1.727848,-0.277063,1.335363,-1.701646,-1.900177,0.352504,-0.222329,1.118780,0.290917},
{0.676006,1.853207,1.116041,0.307821,1.154988,0.133948,-0.275512,1.283404,3.384882,0.076461,0.666644,-0.011713,0.847963,0.600643,-0.115961,0.141953,-0.485391,0.590015,0.516729,0.805031,0.480291,0.452472,1.250670,1.504484},
{-1.306771,-0.545604,-1.683495,0.749511,-0.300536,-0.021940,0.015547,-0.082462,-0.097385,0.606235,-1.651512,1.448359,0.331427,0.413025,-0.237479,-0.528280,-0.517031,-0.137805,-0.435196,0.014221,-1.338512,-0.214657,0.660428,1.591746},
{-0.109162,-0.211289,-0.738346,0.657652,-0.065825,-0.627369,-0.563375,1.124397,1.031826,-1.468214,-1.962366,2.096941,-1.835073,-1.524290,0.136955,1.021184,1.743057,0.812172,0.059370,0.266807,0.765693,-0.660957,-0.489311,0.381981},
{-0.898103,0.575082,-2.350143,0.403074,0.181671,-1.675995,0.025799,0.580019,1.692417,1.154828,-0.019091,-1.208818,-0.423303,-0.267871,0.690858,-0.380694,-0.198669,1.274199,1.070827,-0.013800,0.274827,0.262714,0.301875,-0.171588},
{-0.141949,1.599159,0.229540,-2.784570,1.018521,-0.361908,0.898201,0.182931,-0.254876,-0.539993,-0.397016,0.247972,1.910520,1.633765,-1.526612,-1.204568,0.728803,-0.296300,1.640476,-0.635652,1.193861,-0.263217,1.410256,-2.029128},
{0.267050,-0.849298,-0.119775,-0.531639,0.493448,1.097431,-2.179653,0.017205,0.027304,1.225594,1.403966,1.258989,-0.761160,-2.002658,1.227758,-2.904456,0.206268,-0.023251,-0.490687,0.118632,1.057649,0.697764,-0.016477,2.006766},
{-0.721885,1.848680,-0.695843,-0.453651,-0.521490,0.358980,-0.484605,-0.284064,-0.359886,-1.083733,-0.222299,0.429454,-2.790185,-0.656133,-0.034931,0.738447,0.637949,0.174920,-0.946289,1.952229,1.852076,0.850118,-1.442586,0.110539},
{0.556977,0.546479,-0.864702,-0.887067,0.928833,-0.909143,0.036926,0.974945,-1.031256,0.090795,-0.276562,-2.653749,-2.285842,-1.564095,0.193008,0.538077,0.076863,-0.439503,-0.261029,0.432886,0.579199,-0.277503,-0.091446,-0.408531},
{0.156141,-1.390992,-0.861082,-0.779267,0.278939,-0.041102,-0.072461,0.542825,0.730151,-2.468806,-1.046260,-0.772272,-1.238996,-1.051146,-1.188976,-0.986916,-0.394388,0.479909,0.729126,-0.015760,1.196565,-0.646014,-0.971103,0.185848},
{1.511503,-1.510382,-1.781714,-0.517457,-1.004169,1.077370,1.854467,-1.330179,-0.081278,-0.626724,1.469671,-0.455051,0.679379,-1.663898,-0.059790,-1.205970,-0.105029,0.493403,-0.150747,1.472103,-0.591409,-1.175487,0.736361,1.233973},
{-0.330262,-0.827818,-1.436022,-1.201914,0.025089,0.654773,0.867837,1.404137,-1.868835,0.788497,1.111319,-0.252039,-0.722219,0.322429,0.336033,-2.224597,2.103650,1.240217,-0.119986,0.781142,1.328447,0.436678,0.037061,-0.069377},
{-0.351090,-0.606426,0.476708,0.049770,-1.117397,-2.291019,0.544348,0.025952,-0.048910,0.253831,-0.336999,1.272163,0.203848,-0.944944,0.102495,-0.832010,0.180259,0.082641,0.716723,-0.236515,1.633953,0.310786,-1.546788,0.357307},
{0.253119,1.919215,0.227395,-0.787783,-0.749016,0.241097,0.738319,0.729241,1.106847,1.160576,-0.369386,2.037900,-0.182345,0.093193,0.480105,-0.572765,-0.652199,-0.758237,-0.677768,-0.533735,-0.607454,0.490826,-0.216185,1.235005},
{0.397691,-1.565636,1.107877,-0.747943,0.605295,0.788693,-1.038118,0.514278,-0.188803,0.483178,0.736378,0.483896,-0.529810,0.595875,-1.230383,0.926921,-0.302081,-0.087327,0.896816,-0.651628,-0.315164,1.636411,1.349257,-1.051666},
{1.128174,2.996578,0.522120,-1.633065,-1.907924,-0.161042,0.658316,1.257542,0.435156,-1.242351,-1.194453,0.927679,1.471046,-0.321484,-2.254737,-0.160116,1.772477,-0.101218,0.686017,-0.558616,1.873009,0.962701,0.762460,-0.541381},
{-1.083969,-2.762415,-0.133395,0.878226,-1.430076,-1.145090,-0.309799,-0.949817,-0.169932,0.430246,-0.448235,1.237858,-1.465134,0.627564,-0.093387,2.093242,-1.196427,-0.441721,-0.242802,-1.759992,0.287732,-0.575817,0.553265,-0.040225},
{0.550180,-0.276587,-0.322016,-1.847698,1.401678,0.155521,-1.961946,-0.187982,-2.040491,-0.042124,-0.551738,-0.512305,-1.363855,-0.211628,-1.116369,-0.671968,-0.152216,2.590957,1.794547,-0.422434,-2.336909,0.534765,-1.590976,0.759531},
{-1.339436,-0.382608,-1.363327,0.796593,0.423753,0.440059,-2.152943,-0.308676,-0.527052,1.800645,-0.118793,-0.688475,-0.315795,-0.288022,-0.110825,-1.114445,-0.784578,-0.353420,-1.835132,-0.933881,2.413018,0.634561,-0.613791,-0.289813},
{0.699380,0.268616,-0.633659,-0.003132,0.646294,-0.471869,0.746149,1.473924,-0.205972,0.529771,2.515453,0.139952,0.921608,0.342103,0.362049,-0.258076,-1.606368,0.060357,1.461885,3.848187,-0.623825,0.817018,1.064411,-1.274118},
{-1.157979,0.430231,-0.173669,0.634586,1.046725,-0.316693,-0.649754,2.321890,-1.513102,0.985475,-1.267808,0.540047,1.139572,0.979721,-1.446262,0.182196,0.654676,-0.653712,-0.028469,-1.536865,1.863993,-0.009674,0.519053,1.223528},
{-0.011538,-0.891342,-0.359268,-0.651625,1.254821,-0.010802,-0.023672,-0.359200,-1.905276,0.488328,-1.508117,-1.191593,-2.025012,-0.342678,-1.790841,0.163680,0.627527,-0.007896,-1.268951,-0.221560,-0.314005,0.877791,-0.128210,-0.716752},
{1.542171,0.415901,-1.820943,0.536954,0.301823,0.442260,-0.336011,0.440982,0.751622,-0.443087,1.635447,0.785022,0.559963,1.647245,-0.965113,0.166758,0.759193,-0.369657,0.305534,-0.702702,0.564393,0.169856,0.592657,-0.480816},
{0.182738,-1.727794,-0.838704,0.943741,0.842934,0.361158,-1.035183,-1.399935,0.391800,0.720050,-0.054511,-0.211565,-0.814005,-1.248760,-0.868527,0.433560,0.826794,0.079322,-1.175688,-0.152473,1.783730,-0.464706,0.397158,1.204116},
{-0.690204,-0.855444,-1.100237,0.224176,-0.749217,0.635582,-0.540936,-0.121971,-0.783926,0.791644,0.627186,-0.595945,-0.306191,-2.124367,-0.228695,0.577931,-0.482900,0.256088,2.393388,0.289781,-0.054181,1.097984,-1.061877,0.970752},
{-0.570872,1.515707,0.335361,0.163325,-0.296690,-0.296530,0.416152,-0.931237,-1.702424,0.933262,-1.085807,1.026071,-1.962259,0.225550,-0.285145,-0.331644,0.345531,-0.294129,0.626903,1.272957,-2.341458,-1.228572,-0.426815,0.233709},
{0.012922,0.914187,-0.078859,0.035411,-0.324757,-0.867300,-2.242924,0.464597,1.080854,-0.230019,-0.738953,0.113330,-0.418075,-2.332606,1.016334,-1.069665,-1.443431,0.290594,-1.898963,1.461683,-0.033389,-1.305781,-2.156237,-0.013680},
{0.526815,-1.038809,-0.549555,-0.133178,-0.682729,0.807721,0.305987,2.021194,0.959587,-1.422274,0.164975,-0.333222,-0.892472,-2.897502,-0.148506,0.094336,-2.163897,2.691032,-0.752093,-0.747699,0.129633,0.398223,1.576507,-1.722744},
{-0.745757,1.525148,-1.047625,0.162717,-0.524811,0.665141,-0.909488,-0.033478,-0.597016,0.636899,-0.446685,-0.324665,-0.779006,-0.162563,0.736774,1.140573,-0.172733,1.205836,-0.008935,0.135661,0.239893,-0.272601,-1.260698,-0.780308},
{0.435004,-0.182094,-1.015744,-0.359156,0.449572,-0.902526,0.910249,0.387592,-0.071981,-0.520587,1.550499,-0.348967,1.443652,0.114269,-0.266828,2.166494,1.494112,0.787481,-0.468363,-0.553304,0.245012,0.284306,-0.679431,-0.133635},
{-0.744058,0.035141,-2.267766,-1.729320,-0.224099,0.485144,-0.062098,0.988059,0.479597,1.219455,0.545399,1.005464,1.140116,-0.423206,-1.311492,-0.141702,-1.447995,-0.936644,0.504481,-0.817396,0.253700,0.111973,0.460601,0.025305},
{-0.393891,0.404983,1.436053,1.104729,0.122819,0.561372,-0.232270,-0.987431,-0.282387,-0.531336,-0.470609,-1.735827,0.374972,-0.401268,0.758477,-1.328024,-0.510667,0.609113,-2.023270,1.243326,-0.172168,1.932028,-0.804305,0.274916},
{0.933234,0.416834,-0.965421,-0.714882,-0.438320,-0.637249,-0.944674,-1.604181,0.155750,1.399086,-0.681599,-0.501993,-0.977149,0.594294,-0.728287,-1.680558,1.603114,1.146051,1.048661,1.379324,-0.669987,-1.442037,0.048567,-0.058492},
{-0.305276,2.315382,-2.482996,-0.099058,0.062917,1.391087,-1.124629,-0.035814,1.876254,1.789798,-0.389162,-1.947049,-1.242233,-0.477552,-1.586732,-0.705872,2.126163,-2.269869,-1.606617,-0.157597,-1.532520,-1.223957,-0.733999,-0.187947},
{-0.663485,-0.358945,-0.482712,-0.080601,1.070957,0.277024,1.192383,-0.824548,0.087857,-0.937239,0.721603,0.963704,0.070223,-0.125734,0.401441,-1.218494,1.639794,0.394431,-1.039531,0.043243,1.477244,1.885800,0.140324,0.016865},
{1.007588,0.185016,0.552890,0.612035,-1.730347,-1.384730,-1.035707,1.350804,1.261908,0.568131,0.602558,-1.409195,-1.897033,-0.392174,0.584724,-0.357160,0.667934,2.644693,-0.744314,-0.726390,-0.825535,-0.546477,-0.063561,-0.953237},
{-0.512788,-0.250119,-0.940408,1.479832,1.418358,0.281481,0.981820,1.428911,0.883587,0.982941,0.813316,-0.840356,-0.168099,-0.462687,0.413580,-1.386865,-0.376847,-1.001868,2.501234,0.489029,-1.331502,-0.517394,1.220627,-0.149292},
{-2.104628,-1.433523,-0.276329,-2.185419,0.571687,1.146366,1.051364,-0.676604,-0.749300,0.340110,-1.140188,-0.987854,-0.770149,1.751871,-0.748593,0.421044,0.610485,-1.096743,-0.436377,-0.999492,0.839339,0.104124,-0.883618,-0.976186},
{0.601351,0.387598,0.094796,0.288468,1.424634,-0.726282,0.091613,1.285934,1.263724,-0.924325,-0.375437,1.048475,0.366613,1.881204,0.020081,1.632116,-0.596888,1.346543,1.345332,-1.706283,-0.471332,0.550825,1.168708,0.438409},
{-1.109776,0.555987,0.082015,-0.406008,1.060374,-0.249585,0.506268,-1.315881,-0.614774,-1.336339,1.133133,-0.064383,-1.211231,0.180392,-0.787960,1.207684,1.112913,-1.537383,-1.012515,1.093081,1.133532,-0.741952,-0.196605,0.173245},
{0.392433,0.547808,1.130611,-1.370843,-1.247670,1.365683,-0.395075,0.386101,0.441164,1.225647,-1.485738,-0.237345,-0.186730,0.796307,0.113641,0.148284,0.204938,-0.462241,-0.101968,0.431553,1.352830,0.068046,1.200057,-1.311926},
{-0.549693,0.620886,-1.502078,-0.359221,-0.129012,0.785492,-0.523777,0.058906,-0.029795,0.371191,0.458659,-0.590864,-1.798427,1.254321,-0.456741,0.382269,-0.926745,0.359751,1.573760,0.051645,-2.033846,-1.618790,-0.296617,-0.551047},
{1.055077,1.003894,1.243735,-0.161028,-0.469316,-0.247709,1.293057,-0.027168,-0.356444,-1.578985,-1.025168,0.838976,0.066485,-1.585317,0.686678,-0.232247,0.110897,-0.342454,-0.528489,0.900073,0.809484,0.303242,1.665359,1.085797},
{-1.489703,-0.773690,1.455398,2.231081,-1.437714,-0.416732,-2.638776,-0.563015,1.127186,-1.124568,0.844326,-1.401285,-0.237118,-2.420266,-0.197424,-1.112475,0.893055,-0.104551,0.787854,-0.130165,1.533426,-0.545282,-0.056466,-0.973484},
{-0.670513,0.559143,0.544753,-1.464903,1.596567,0.436430,-0.409722,-1.032214,0.508790,1.023370,-0.322929,-0.664794,-1.747300,1.185455,-0.482324,-1.261366,1.590527,0.098524,0.818792,-1.070839,0.898784,-0.012195,0.126653,1.749654},
{0.251784,0.618670,-0.910557,1.925906,-0.363743,0.444098,-0.250250,-0.307033,-0.167062,-0.627906,1.775269,0.614783,-0.244528,0.053047,0.207806,-0.682948,-1.437205,-0.546360,0.477803,1.277989,0.833714,-0.150980,-1.466442,0.641486},
{1.506955,-0.180363,-1.204200,-0.009341,-0.225098,0.401778,-0.714657,0.469214,0.762283,0.934396,-0.190940,-1.627164,0.405677,-1.291170,-1.281093,0.201385,-0.736723,0.071030,-0.902588,-2.231224,0.549318,0.829236,0.153942,-1.316049},
{-0.107035,-0.033592,-0.479536,0.834885,0.923735,-0.718871,1.372588,0.319330,0.637254,0.975608,0.667271,0.018536,-0.915554,0.686887,-0.215506,-1.734505,0.332216,-1.116795,-0.330867,0.124265,0.486171,1.579242,-0.905425,1.618797},
{-0.496597,-0.813271,-0.431032,-0.430170,-0.134460,0.079906,-0.047411,1.037079,0.739249,-0.785585,-1.125230,-0.476332,0.806476,0.731834,-1.175899,-0.389246,0.804481,-2.063162,0.603347,2.276579,1.306313,1.394458,0.681112,-1.988584},
{-1.159406,0.389357,0.289849,-1.053528,-0.126842,0.507328,0.529390,-0.632677,0.002744,1.133106,-0.400628,1.745316,-0.692586,1.891626,-0.533593,0.193449,0.273710,1.086139,-0.374239,-1.377757,0.211716,-0.665134,0.071521,0.907869},
{0.165042,-0.346607,0.939055,0.661118,0.457157,1.467675,-0.459781,-0.927100,-1.854054,0.797377,0.349738,1.135734,-1.882211,-0.220238,1.086289,0.412416,-0.376447,-1.951406,-0.405634,0.006263,1.421121,0.903280,-0.530312,0.481939},
{-1.273008,1.917178,0.960555,0.785046,0.660576,1.355075,0.313150,0.176140,0.350106,-1.540221,-2.558602,0.014732,-0.382573,-0.208948,0.231292,0.614214,3.656274,-0.529032,1.948772,-0.625209,-0.964702,-0.540915,1.585198,0.452979},
{2.286045,0.466107,1.013724,0.919479,0.815713,-0.143317,-2.448463,-0.443944,1.173777,0.324298,0.020755,0.341819,-0.981895,-1.138784,-0.446093,2.146484,-1.743638,1.619670,0.722200,1.674920,1.313295,0.085711,-0.270291,1.934852},
{-0.244803,-0.305379,-0.047575,-0.238113,0.589903,-0.275153,1.239921,0.946064,-0.448487,0.814569,-0.726327,-0.258937,-0.722377,-2.585435,0.391189,-0.583429,1.725392,-2.259550,0.343438,-0.058134,-0.034649,-1.694884,-0.786762,-0.823433},
{0.658935,-0.707021,-0.037606,0.993801,0.700617,-0.359235,0.770233,-1.432335,-0.623338,0.938581,-0.444102,3.194693,-1.492530,-0.698399,0.371082,0.557549,-0.288674,0.098736,-0.891347,0.481332,1.620362,-0.240600,-0.123519,0.392437},
{0.587407,-2.664907,0.155062,-0.199120,-0.399052,1.921389,-0.731739,-0.516928,-0.097418,-0.439462,0.200602,-0.194892,0.810931,1.137865,-0.406647,-1.611490,-1.232191,0.994650,0.548699,-0.378344,-1.216339,-0.474283,0.209904,-0.047628},
{0.885555,0.242889,0.450777,1.312655,-1.761128,1.093363,0.948423,0.089895,0.520844,0.936084,1.850772,-2.015893,-1.364433,-1.070132,-1.260951,0.933883,-0.404720,1.791729,-1.681433,-0.220360,-0.424984,0.409373,-0.749331,-0.607816},
{-0.444334,-0.779595,-1.007802,0.142584,1.973819,1.820087,1.014336,-0.564418,0.340288,-1.304916,-1.199854,-0.593985,-0.128504,0.234865,1.791836,-0.515485,1.077914,-0.071844,0.776148,2.043024,-0.999109,-0.343206,-1.070446,-1.718406},
{1.723681,0.232353,0.674031,-0.248959,-0.593558,0.142660,-1.256755,-0.986347,-0.418156,-1.006493,-0.328351,-0.454380,-0.297690,-1.482294,0.050034,0.771146,0.885605,-0.241415,0.650249,0.865623,0.060235,0.472645,-1.421074,1.134926},
{0.510185,-1.419127,-0.055531,-1.716941,1.567811,0.776161,0.682698,1.063907,1.504916,0.126169,-0.565325,-1.596239,0.625031,1.498432,1.645015,2.729555,-1.953668,-2.024557,0.203853,1.724558,0.573826,1.065286,-0.118506,0.468776},
{0.728263,0.987360,-1.750885,2.250464,1.512282,-1.687447,0.295239,0.866464,-1.356844,-0.178454,-0.470389,0.260258,-0.802742,1.395030,-0.027457,-0.869344,0.780586,0.265912,1.560584,-0.071819,-1.610432,0.937397,-0.857863,0.530196},
{0.325426,-0.656534,-0.613986,0.725045,0.920098,-1.255814,-0.511948,1.694941,-1.401341,-0.443733,0.335815,1.397454,0.419916,-0.855697,1.234345,-0.333376,0.443223,-0.770691,-0.773229,0.097900,-1.289454,0.198138,-0.334142,1.079104},
{1.140800,0.406042,0.076255,-0.414688,0.682545,0.137590,-0.089483,0.639241,2.487624,0.941259,0.769212,-0.515756,0.899456,-1.056562,0.594676,1.762026,1.052340,-0.764327,1.817120,0.911886,2.023947,0.499694,0.286209,-0.248637},
{1.201714,-0.765287,0.439978,0.203475,0.200397,-0.926814,1.858112,-0.553347,0.343793,0.800386,0.082491,-1.295777,-0.245768,0.966733,-0.007403,1.427783,1.684306,0.324789,-0.025350,0.513040,0.707797,-0.793562,1.063412,0.357127},
{0.110256,0.024068,0.627044,-0.343971,-0.203442,-1.570068,-0.174910,-0.284117,1.037579,-0.618157,-1.004572,-0.745146,-0.342109,1.118248,-1.594449,0.416118,-2.464610,-0.158636,-0.506052,-0.730468,0.380175,-0.786130,1.198416,0.746170},
{-2.000998,1.210369,0.356404,-0.626751,-0.433029,-0.215936,-0.709739,0.359186,-0.849053,-0.595383,-0.739002,0.328444,0.441906,0.913014,-0.738384,-0.418033,1.291838,-0.610984,1.637469,-0.893651,-1.731375,-1.519315,-0.063314,0.229683},
{-0.891614,0.068395,0.765864,-0.821407,-0.635949,1.028667,0.604824,1.177444,-0.152043,1.303457,0.799910,-0.128448,-0.115425,0.026659,-0.350709,-0.786977,-0.719195,-1.225189,-1.876121,-0.082532,-1.130193,0.353267,0.638947,1.423272},
{-1.743207,0.323482,0.226391,-1.557956,-0.585829,-0.543263,1.041152,-0.191211,1.750566,0.519209,-0.111612,-1.957930,1.881118,0.312381,0.982639,-1.017036,-0.754506,0.101943,-1.160896,0.373809,0.590948,-0.029115,-1.825223,-1.277936},
{-1.427125,1.251133,-0.412545,1.373410,1.699922,-0.252134,-0.056547,-1.678346,-0.077994,-0.477383,0.348430,0.562071,0.125529,0.467924,0.912010,-0.822009,-0.879128,-0.875028,-0.069854,0.300788,-0.288037,-0.442217,0.487953,0.355391},
{0.597392,-0.453718,1.050145,0.874912,-2.038370,2.327497,-0.196068,-1.008673,-0.512034,-1.289629,0.953276,0.566230,-2.002346,-0.435834,0.267503,0.287796,0.236975,-0.728978,1.350395,0.340049,1.113870,0.070132,0.260286,-1.023172},
{-1.040465,0.557575,-0.073913,-0.196269,-0.006594,1.743153,1.014848,0.666173,0.075041,0.251597,0.693014,-1.890957,0.633821,2.010712,-0.169072,0.285062,-0.157915,0.406545,0.477577,1.834992,1.823615,-0.730508,-0.357651,-1.255825},
{1.352187,1.066655,-0.080012,-0.383592,-0.398396,-0.772720,1.686136,0.004743,-2.222755,-0.524505,-1.523122,0.165221,0.666750,-0.933775,0.514342,1.664682,0.368446,1.285183,0.467253,1.646073,-2.533812,-1.408643,0.804186,-0.847203},
{0.663291,1.141310,-1.165869,1.001284,0.914679,0.020748,-0.222964,0.931983,0.897326,-1.099992,0.850142,0.754998,-1.075804,-0.737938,-0.547681,0.045401,-0.779391,-0.359400,-0.425377,1.256370,1.077586,0.762001,-0.948229,0.705383},
{-0.659729,0.633543,0.804029,-1.848061,0.262536,-2.237798,0.723806,0.428634,-0.569020,-0.104320,-0.521361,0.565286,-0.661095,0.029368,1.028392,0.530306,1.675535,0.160409,-3.169046,-0.080366,-0.317624,0.231938,0.509057,-1.226242},
{-0.037999,2.679064,-0.765615,-2.856016,-0.963320,0.507300,-1.892323,-1.416171,-1.005583,-0.001976,0.590000,-0.421460,0.804916,0.081715,-0.722265,-0.692527,0.171527,-0.478282,-1.615662,0.839380,-0.780197,-0.295900,-0.391722,1.136564},
{0.378929,-1.416494,0.787251,-0.825733,1.407377,0.065548,-0.818780,1.232669,-0.477984,0.067997,-0.646474,0.914628,-1.197037,-1.165582,-1.533791,0.191107,-1.013457,-0.017133,-0.037631,-1.871596,1.108024,0.682849,-1.836486,0.244081},
{0.352176,-0.876306,-1.304584,-0.962854,1.598079,0.418370,-0.630186,-1.247330,-0.310466,-0.627776,0.324441,-1.316540,-0.546541,-1.297252,-0.142499,-1.243715,0.218498,-0.955602,0.026245,0.505930,-1.229189,-1.998280,0.713221,-0.830746},
{-0.709232,0.294163,0.231121,1.404499,0.284838,1.342867,-1.387100,-0.082454,-0.695827,0.105712,-1.288971,-1.972755,0.215493,-0.733536,-1.494082,0.720726,-0.116645,-0.900778,1.136980,-1.038739,-0.039199,0.333067,0.091912,1.104333},
{1.658466,-0.453448,-0.400884,-0.853427,0.118386,0.572809,0.040294,0.131337,-2.006729,0.051537,1.543592,1.010067,-1.172700,-0.368814,0.310255,-1.474887,1.077756,-0.389797,0.528089,-1.280769,0.759603,-0.012304,-1.255025,-0.575710},
{0.238034,0.491683,-0.089722,-1.714064,0.379677,-1.410055,-0.839333,0.420950,-0.805357,-0.089165,-1.469218,0.109152,0.230031,-0.023297,1.253520,0.125411,-0.682883,1.399756,0.814684,-0.566256,1.602029,-0.168627,-0.203724,-0.380569},
{1.777800,-1.374790,-1.398569,-1.528007,-0.452431,-1.618990,-1.028715,1.443010,-0.072025,0.088917,-1.473409,0.682613,-0.059156,-1.300071,-1.402580,1.031804,0.925876,-0.770928,0.406008,1.802116,0.738300,0.556524,-0.012599,0.318533},
{1.200891,0.079565,-0.559835,-0.493628,1.391794,0.184551,1.110307,1.047174,-0.977598,-0.360826,-1.055455,-0.894224,1.740560,-0.706813,-1.683661,0.392913,0.501754,-0.469453,-0.354339,1.578054,-0.775073,1.703523,-0.146976,-0.084619},
{0.197303,0.855053,0.958701,0.697867,-1.856547,-0.629316,0.090191,-0.987304,-0.577288,1.337367,-0.049049,1.613545,0.431751,-0.474873,-0.244326,0.592386,1.785432,1.409421,0.462040,0.429842,1.865868,0.732219,0.834814,1.675980},
{-0.320570,-0.993281,2.291180,-2.582521,1.489007,-0.953976,1.131525,-0.959427,-0.355001,0.540198,0.866381,-0.592992,-0.644105,-1.056998,-0.096001,-0.492060,-0.056175,-1.036976,0.622526,2.000992,0.407209,1.183200,-0.512220,-0.545555},
{-0.949081,-0.341464,0.694459,-0.523765,-0.777203,-2.246945,0.304025,1.022211,0.149849,-0.800587,-0.001332,0.664245,0.877179,0.994551,1.165001,-2.692608,1.367307,0.587352,-0.405958,0.659413,0.370362,-1.306823,1.157017,1.444083},
{1.423661,-2.021191,-1.852633,-0.768465,-0.821682,-0.736674,1.856162,0.628662,0.072028,1.532458,0.263420,-1.126214,-0.500965,0.515045,0.320093,-0.482045,-0.213904,-0.821083,0.287528,-0.648043,0.505602,0.390316,0.927383,0.447075},
{1.376144,-0.833694,-0.467792,1.165553,0.161559,0.852354,0.618597,0.180160,-0.613611,-1.848522,-0.981714,-0.996626,1.050924,-0.349511,0.427068,0.395622,0.897607,-0.059482,0.890079,0.064665,-1.339505,0.070040,-0.872954,0.536394},
{-0.092211,0.280840,0.414193,2.081821,0.360416,-0.667062,0.622629,-0.055026,-1.186221,-0.486455,-0.360885,-0.904933,-1.597086,1.571552,-0.779366,-1.528414,-1.229358,0.205688,-0.333713,-0.079006,0.480480,-0.180284,0.037326,-0.348338},
{-0.443891,1.279075,-0.697683,0.547523,0.562522,0.030859,0.959060,0.592352,-1.222025,0.812494,0.495335,-0.293129,1.080975,1.151343,-0.022628,-0.814341,-0.449847,0.686260,-0.802442,-0.105458,1.929696,-0.291421,-0.032411,1.182535},
{0.338363,1.377102,2.094900,0.721678,0.581927,-0.666367,-0.899146,-0.494565,0.358345,1.732620,2.237629,0.437639,0.484322,-0.068401,1.085433,1.634964,0.017569,-0.209538,1.947346,1.303821,1.102600,0.493165,-0.806287,0.204106},
{-0.737240,0.255847,-0.060603,-0.638498,-1.341951,0.225941,-1.050413,2.150119,-0.477706,-0.597674,-0.577453,1.017891,0.603058,1.026312,0.697357,-0.109419,0.607788,-0.667742,-0.801339,0.189244,-0.333026,0.670869,-0.097115,0.132440},
{-0.384962,-0.603804,1.285024,-1.027636,0.702637,-0.136448,1.076009,-0.043820,0.605897,2.084927,-1.587774,0.998784,-0.422328,-0.219546,-0.261011,0.071411,-0.828747,-0.219838,2.982229,-1.693748,-0.583433,0.508387,-0.207620,-0.522893},
{-0.298922,-1.432668,0.285664,-0.087277,0.683793,1.227318,0.903194,-0.031840,0.540679,1.550930,-1.142200,0.599903,0.737023,-0.476462,-0.319812,-1.504340,-0.459138,1.178826,0.141263,1.906158,-1.996871,0.656901,-1.374933,0.939826},
{0.568030,0.991009,0.089482,0.694467,0.656478,-1.109941,-0.834430,-0.398131,0.894389,0.914803,0.487263,0.579752,0.083801,-0.735626,2.415209,-0.099584,-1.228060,1.884024,-0.831672,0.549130,0.809670,0.247951,2.317249,-1.363611},
{-0.452441,0.443584,1.830220,2.188884,0.174392,0.256937,-0.186994,0.224733,0.574707,-0.219021,1.063168,-0.231467,0.171420,1.374182,0.378158,0.927313,2.687028,0.217741,-0.695639,1.528130,-0.643103,-0.433117,0.367428,-0.788324},
{1.408617,-0.329931,-1.072676,0.342553,0.338687,0.173851,0.028191,0.165715,-0.316042,0.016890,1.267118,-0.640664,-0.542622,1.677827,-0.524021,-1.701134,-0.725200,1.142309,-0.827932,0.433039,-0.922162,-0.359362,0.038037,0.657074},
{-0.932753,-0.259899,-0.503728,-0.974168,-0.830925,-1.755532,0.563714,-0.911942,0.060950,1.800829,1.106491,-0.077517,0.722901,1.064447,-0.437638,-0.391751,-0.190748,-0.835288,0.321940,0.233497,0.703467,-0.059945,1.002693,0.585836},
{1.184605,0.071739,-1.570533,-0.974447,-0.011120,0.314559,0.342838,0.930680,0.292504,1.389037,0.306806,0.537799,-0.075925,-0.137587,0.168582,-0.313863,-1.735596,0.287057,-0.312777,1.744095,0.366709,-1.027301,-1.924373,-0.216993},
{1.132407,-0.765477,0.276974,-1.123199,0.800335,-1.053134,-1.466746,-0.679549,-0.085424,0.315818,1.225938,-0.595233,0.782327,1.349498,1.363635,0.383014,-1.076627,1.148154,-0.404432,-1.605459,0.029045,-0.259627,1.862762,-0.695800},
{0.575881,-0.680239,0.430380,0.643343,-1.494293,-1.343913,0.952980,-0.885048,-1.006807,0.188319,0.721959,1.671768,0.725154,-0.105169,-0.277743,1.346807,0.046368,0.086094,-0.149667,-0.730497,0.817596,0.250958,-3.094331,-1.545209},
{0.307349,-0.283808,0.533410,0.381768,-0.393433,-0.080492,0.096188,0.472822,-0.470656,1.558881,0.396603,1.575978,-0.961984,0.211190,0.162118,1.713987,-0.831795,-0.383709,0.741289,0.484835,0.697894,0.108144,-0.821350,3.643516}};

{{-0.788628,-0.710451,-0.327664,0.372823,-0.092216,0.900575,1.786948,0.250110,1.985031,-0.371404,-0.901540,-0.799559,-0.752907,0.216613,0.591012,-0.806372,-0.024240,-0.159563,0.707951,0.478173,-1.161693,0.002387,1.859582,1.013448,-1.592128,-0.499006,-0.659280,-0.626369,-0.060319,0.654022,-0.860239,-1.072675,0.298671,-0.432562,0.579182,-0.716502,2.017790,0.033061,0.309812,1.267769,-0.653839,0.498141,1.249203,0.062342,1.315436,-0.999676,-0.177783,-0.714043,0.081640,1.421319,0.474426,-1.026629,-1.333031,0.176603,0.528231,0.148537,0.924228,0.265023,-1.219188,-0.406470,-0.579672,0.959353,-0.238719,0.923923,-1.767934,-0.693191,1.007454,-1.111343,-1.212696,-1.320847,-1.033111,-1.748188,0.702525,-1.082091,-0.707371,-0.581079,1.209822,-1.392051,-1.246430,-0.135981,-0.428569,-0.602401,-1.365076,0.513153,-1.036611,-0.861636,-0.182735,-0.823815,-1.156494,-2.799041,0.262637,-1.175481,-0.464998,0.306786,1.021368,1.743317,0.087363,-1.915835,-0.315798,0.372326,-0.334991,-0.395358,0.043992,-0.381266,1.772471,1.789626,-1.889885,0.378910,0.200977,0.796545,-0.544890,1.968588,0.088289,-1.854995,0.443133,-0.057393,1.297300,-0.241405,0.123011,0.435093,-1.288436,-0.086756,-0.528564,-0.895038,-1.542350,1.252073,-1.045762,-0.486765,0.010676,1.379409,-0.831396,-1.848705,-0.153008,0.808997,0.016647,1.225608,-0.486889,-1.016866,1.010281,-0.115591,2.350521,-1.219116,1.115969,-0.561294,0.729018,0.470903,-0.543454,-0.489438,-0.357672,-1.006293,0.629048,-0.452477,-0.116849,0.147977,-0.554848,0.449122,-0.675358,-0.663402,1.036152,0.478006},
{-0.459308,-0.442060,0.728546,-0.393816,-0.535805,-0.372521,-0.655732,1.276834,0.884510,-0.563036,-1.370326,-1.257832,-0.103396,-1.095560,-0.784824,-1.213053,0.459555,-0.882609,-1.550189,-0.471100,-1.043546,0.953755,-1.575644,-0.111510,-0.681490,-0.592347,1.423833,-0.938275,-0.502683,1.570969,0.286193,-1.107122,1.444281,-2.074755,1.940545,-1.397997,1.284284,1.933181,0.454189,0.824562,-1.550466,-0.658010,-0.439659,1.196755,-0.906113,-1.297269,-1.902310,1.117732,0.234760,-1.952360,-1.175320,-0.748148,-0.558855,0.218177,0.304983,0.556645,1.018042,-0.725840,0.608198,-0.736583,-1.686892,-1.557623,-0.125489,-0.029090,0.313522,-1.988968,2.121717,1.826634,-0.888326,0.165158,1.799277,-1.209289,-0.318128,0.331495,0.847494,0.618443,-0.188930,-0.282818,-0.501662,0.960344,0.040726,-0.942263,-1.604891,0.574415,0.661344,-0.191790,-0.819176,-1.087647,-1.220723,0.736157,-0.284727,-0.294430,-0.590796,1.159174,-1.169815,0.069964,-0.743139,-0.948009,0.243497,-0.798541,-0.547380,-0.595664,-1.379727,0.375740,-0.169978,1.114639,0.875709,-0.298882,-0.139286,-0.386398,1.320009,1.280266,-0.803398,0.107390,-0.418483,0.125563,-0.304022,2.702919,-0.676993,0.446926,-0.988301,0.890273,0.534769,-0.356213,-1.373772,0.980601,0.373937,2.867948,-1.101328,1.560599,0.428532,-0.507982,-1.118007,2.015749,-0.002709,0.995373,-0.779486,0.014761,-1.073740,1.369055,0.039636,-0.363100,-0.845691,0.116027,1.711625,1.244294,0.606416,2.473970,-1.009329,-0.782698,1.295902,1.122843,-0.868876,0.489353,0.124082,-1.014008,0.956337,-0.811430,1.719897,0.349791},
{-1.907285,0.491976,-0.054490,1.348238,-0.703777,0.007984,1.336295,1.117161,-0.515557,-1.614574,-0.497995,0.110312,-0.024456,0.845564,-1.215500,-0.034257,-0.269816,0.502858,0.304305,-0.934553,-0.314347,-0.713975,-1.344026,0.403830,0.384737,-0.759107,2.108600,0.635852,0.112492,-0.528240,0.463071,-0.227097,0.056613,0.759130,1.088774,-1.349640,-0.110406,-0.425658,0.067536,0.335324,-0.829473,0.368308,-0.388976,-0.300156,0.083435,0.807161,2.235023,0.607160,0.799786,-0.081665,-0.171564,0.108813,0.939539,-1.799954,0.215359,-1.765812,0.609857,0.470226,1.057330,-1.891724,-0.304010,-0.503931,-0.176538,-0.303822,-0.884502,0.695050,-0.448883,-1.207386,-0.158825,-1.044449,-0.853794,0.562528,0.714215,0.608740,-0.532032,0.240707,-0.451602,1.494915,0.931170,-1.046011,0.513671,0.524555,-1.050242,2.371209,-0.124332,-0.751151,2.622821,0.756199,-2.037811,-1.445920,-2.673000,-0.731991,-1.322729,-0.328037,1.385832,-0.321038,0.241559,1.267753,0.074125,-0.455243,0.142591,0.393312,3.025374,1.393210,-0.420230,1.403162,-0.506252,-1.003636,-1.853426,-0.352161,1.026697,0.598951,1.268212,-0.427447,2.061941,-1.330739,0.601825,0.805784,2.025104,-1.051538,-0.052879,1.938491,-0.192382,-0.159403,1.215142,-1.713346,-0.246609,-1.368510,-1.371491,0.957345,-0.186849,0.331603,0.449478,0.369771,0.965288,1.844791,-0.083125,-0.389805,-2.455286,1.218958,-0.415000,-0.955028,-1.884083,2.031293,-0.742851,-0.429636,-0.687407,0.926348,1.312101,-0.271259,-0.732566,-0.945390,1.149826,0.065013,0.882702,-1.745619,1.605983,1.221051,-0.380386,-0.933962},
{-0.043242,0.894479,-1.544927,0.102378,1.420420,0.831208,-0.787855,-0.587516,-0.584382,0.350513,-0.546404,1.894610,0.071213,-2.498564,-0.381249,-0.162072,-0.523205,-0.277381,0.099218,-0.017673,-0.085375,0.242672,0.897105,-1.123731,-1.502612,1.973587,-0.113504,-0.338500,-0.685010,-0.922557,-0.414965,0.549398,-1.698765,-1.284713,-0.607068,1.357379,0.007349,-0.268834,-0.828029,0.992180,0.265214,0.864749,0.732212,-0.714701,0.515734,0.017763,-1.751724,0.427043,-0.976235,-0.033430,-0.514786,1.335561,-0.531199,-1.182119,-0.553542,0.741594,0.862908,-0.432072,1.341663,-0.194587,0.142549,0.165026,1.497857,-0.698919,0.672073,-0.466656,-0.001326,-0.264743,-0.290141,0.537772,-0.452711,0.860499,-0.234507,0.705400,-0.352720,-0.628633,0.536828,1.064132,-0.797685,-0.211284,0.084672,-0.327251,-1.266867,1.139240,0.353037,-0.266387,-1.054929,-2.661495,1.006326,0.377636,1.863767,0.352267,-0.646359,-0.606946,0.611943,-0.642866,-1.802679,-1.587903,0.434846,1.041206,-0.456265,0.710259,-0.852188,-1.265315,-0.756293,-0.797402,-1.618365,0.421429,-1.203252,-1.071117,-0.401183,0.930590,-1.238241,-0.893589,1.259654,0.952396,-0.608502,0.727197,2.154960,1.364442,-1.183354,0.179069,1.057897,-1.817292,-1.445937,0.542758,-1.318526,-1.312080,0.193581,-0.614192,1.222898,1.710027,0.593672,-0.457159,-1.231190,0.638273,0.511592,-1.082882,0.908789,1.692306,0.212029,-1.710829,-1.595730,0.670431,0.258330,2.121051,0.573765,0.982271,-0.110276,-1.403317,0.053255,0.607504,-1.634443,0.188031,0.453517,-0.215175,-0.886785,-0.837684,0.597205,-1.257881},
{-1.007491,-2.347100,0.385225,1.571395,1.618752,-1.478817,-0.751838,-0.777711,0.736678,1.132689,-0.612899,-0.521596,0.848576,-0.841914,-0.849795,1.657720,0.650438,-2.404637,-0.448771,-1.306937,-1.059173,-1.480611,1.942681,1.422590,-0.034485,-0.086715,1.070947,0.693506,0.669336,-0.257098,0.930693,0.486389,1.863371,1.493151,-0.012775,-0.697487,-0.250749,0.270325,0.816978,0.553646,0.467274,0.740178,1.638022,-0.752030,-1.069900,-1.889612,0.071154,0.859003,-0.864172,-0.247821,1.086586,2.227495,0.177158,0.350397,-1.617568,-0.925485,1.451157,-1.242590,-0.189734,0.685155,-1.633001,-0.916087,0.366699,0.254335,-0.090709,-0.191536,-0.197291,-0.510045,-0.066981,0.658422,0.186685,0.203048,0.571221,0.488053,0.501802,-1.558988,-0.343322,0.222058,0.392075,0.729874,-0.483682,-0.609088,-0.671923,-0.007141,-1.087795,-1.531665,0.791607,0.139701,0.784962,0.651626,-1.059541,2.393002,0.766815,-0.388820,1.856809,-1.543121,-0.790600,1.766648,-0.257292,-2.052527,0.670792,-0.236329,0.564059,0.006678,0.007007,-0.989559,-0.692791,-0.827904,1.067719,0.829121,1.497197,-0.720489,0.761244,-0.228340,-1.111250,0.309156,-1.533574,0.688944,0.246005,-0.458844,0.082504,0.603449,-0.027691,-1.899559,-1.724789,1.142887,-0.443640,0.758581,0.552331,-0.022032,1.214009,-0.285036,-0.613495,0.311565,0.085283,0.635644,-0.041405,-0.696919,-0.425194,-0.477164,-0.322864,0.714428,0.931825,0.342902,0.603004,-0.394823,0.080602,0.868307,-1.915146,0.030808,1.447458,-0.626950,0.827149,-0.627875,-1.298455,1.536007,1.135984,-0.188892,0.278541,1.534514},
{0.505685,1.711076,-0.998597,-0.237102,-2.196757,-0.304236,-0.062731,-0.261924,1.561164,0.368107,-0.893411,2.168092,-0.616739,1.088193,0.394763,-0.567830,-0.904949,1.330384,0.309532,-0.887468,0.448517,-2.248361,0.147324,0.279117,1.848517,-0.425950,-0.089627,0.621644,-0.720023,-0.671190,0.064257,0.343271,0.253300,0.261778,0.479965,0.014999,-0.055590,0.853909,1.982916,0.239921,0.628895,1.363917,1.198123,0.612703,-1.232750,-0.799775,0.087099,1.530618,0.929335,-0.043402,-0.315328,-0.407393,1.372860,0.066506,-0.446168,0.622745,-0.298453,1.361152,0.011824,0.658737,0.082121,-0.369874,1.207360,1.505875,-0.339986,-1.697411,0.712527,0.476709,-1.149274,-0.882294,-1.478285,2.151500,1.313412,-1.639431,-2.048396,0.193862,-1.338145,0.941899,-0.854957,0.779485,1.179264,0.317465,-1.347042,-0.298684,0.312251,0.149813,0.148403,-1.402664,-1.482523,2.393670,0.188321,-0.922171,0.824616,1.551052,-0.297781,-0.200801,0.953294,-0.373323,-0.946988,0.815565,-0.107879,-0.183377,-0.357545,0.515298,0.014340,-1.846171,1.207817,-0.047545,-0.112771,0.452555,0.185344,1.572470,-0.880652,0.459658,-1.159327,-0.592764,0.108773,-0.699353,-0.894781,0.378849,0.440977,1.896056,-0.178756,0.395819,0.803840,-0.465087,0.330363,0.893535,0.035028,-1.031904,0.077792,-0.270424,-0.751689,-0.159582,0.525980,-0.361128,1.605739,0.108514,1.831183,0.266610,1.110588,0.693127,-0.370518,0.183377,1.877660,-0.515121,-1.050529,-1.169380,0.700162,0.060725,0.592564,0.252163,0.566694,0.397808,-0.621546,-1.285350,0.477767,-1.270717,-0.525900,0.221808},
{0.306242,0.744585,-0.745638,-0.359963,0.474003,0.580546,1.442153,-0.460989,-1.474908,0.334178,-0.483915,0.417466,1.106576,-1.162847,-0.283103,-0.719789,-1.379496,0.185689,0.969883,1.639968,0.034784,0.100189,0.170601,1.293064,1.174912,1.332832,1.164244,-0.318655,-0.299474,-0.452544,1.080988,-1.163206,0.475342,-0.985828,-1.102958,-0.778116,1.215229,1.362385,-0.067684,1.460359,-0.236930,-1.226408,-1.420730,1.257964,-1.524205,-0.769973,-1.698756,-0.211037,0.062420,1.256134,-0.212422,-0.879374,-0.029753,0.696737,1.446495,1.047647,-1.807367,-2.909646,0.421622,-0.052288,0.460584,0.005480,-0.517428,-0.519101,-1.416164,1.105219,2.043572,-1.133408,0.006029,-0.047273,-0.850142,-0.345250,0.700282,1.386514,1.235077,0.042209,-0.661913,-0.165254,1.832766,-0.836078,-1.092728,-0.680990,-0.156897,-2.838660,-0.515173,-0.709287,-0.223671,-1.581065,-0.934401,0.264609,0.795868,0.299141,-0.145471,0.741679,0.614818,1.646801,-0.608081,-0.584183,0.271416,1.113080,-0.728377,-0.272110,0.133429,-1.694698,-0.356900,1.029518,-0.480796,-0.732003,-0.192765,-1.077468,0.661159,1.723923,-0.193217,0.040490,0.835072,-1.340810,-0.295231,0.629697,-0.157700,1.518844,0.687322,-1.865638,0.471273,-0.228975,0.581552,-0.792023,-0.302159,-0.551075,1.037299,-0.729066,1.338934,1.074224,1.085837,1.292669,0.396584,-1.363513,-0.038647,-1.978619,-0.941340,2.030698,-1.432009,0.467474,0.495734,1.792755,-1.184229,0.814660,-0.139407,-0.778182,-0.306177,1.269660,0.089372,-0.806007,0.324840,-0.386011,-1.651968,-0.156349,0.908327,0.923955,-0.260288,0.109373},
{0.335546,-1.595656,-0.875789,0.655450,-0.297005,0.571663,-1.228994,-1.157493,0.961574,2.043652,2.035520,-0.229840,0.148003,0.351956,0.223959,0.213858,0.110745,0.767509,0.212925,-0.408169,0.041908,0.802302,1.160881,-0.385201,0.115404,-1.485193,-0.596645,-2.036264,0.550094,0.696221,1.085472,-1.210095,0.687158,0.643161,-0.231543,0.792084,-0.772178,1.076584,0.800668,-1.628719,0.362104,1.850656,-2.042149,-1.624753,4.054391,1.350911,-1.117793,-0.080605,-0.671379,-1.412210,-2.008126,-0.562413,0.735509,-1.283321,0.298447,0.094398,-0.305553,0.119329,0.945568,-0.427282,-1.091584,-0.749151,0.264760,-1.061248,-0.236465,1.386992,0.613692,-0.281368,1.280063,0.016986,-0.884315,-0.501075,1.641196,0.021933,-0.112011,0.513915,0.534946,0.260714,0.526418,-0.334378,0.097367,0.028261,-0.342265,1.075215,0.270849,1.855806,0.692336,1.193299,-0.568484,-1.489892,-0.532806,-1.578040,-1.424991,-0.913969,2.230450,1.073646,0.891084,0.247607,-0.851490,0.476391,0.257675,0.022382,1.866638,1.103243,-0.147014,-0.777181,1.343958,-1.732591,0.000700,-0.656952,-2.199019,-1.309389,1.107039,0.827418,0.402020,0.550825,1.041766,-1.146891,1.223443,0.608639,1.663705,-0.305818,-0.145471,-2.246250,-0.090034,0.402575,-0.967409,-0.329204,0.540205,-1.754237,-0.602130,0.087386,-2.191945,0.376117,0.539845,-0.468380,-0.924919,-1.503874,-0.111048,0.600337,-1.092022,-0.446872,0.468089,-2.411267,1.387216,-0.521627,0.399240,-0.145742,1.782586,1.881939,-0.040950,0.073235,0.722315,0.317159,-0.007600,0.014325,0.615693,1.167554,-0.601011,-0.218684},
{0.167809,0.485728,0.114691,0.961654,-1.662091,-1.071287,-2.453165,-1.042740,-1.271208,-0.541723,0.391445,-0.268555,-1.353879,1.025617,0.441877,0.855456,-1.164395,-0.264228,-0.602575,-0.452812,1.751965,-0.682614,0.479604,0.972187,-0.195402,0.631209,0.082615,0.796888,-0.560649,-0.070520,0.121658,1.192027,0.074836,-0.087585,-0.427453,0.187425,0.093586,-0.975555,-1.208416,-2.084048,-0.203740,-0.932217,0.773473,0.218785,-0.032942,0.532250,-0.349934,-0.519627,-1.087752,-1.950744,0.758026,0.386075,0.447005,-1.767485,0.326153,2.141463,0.080379,-1.866207,1.073891,0.271745,-0.119144,0.806216,-0.152310,0.240430,1.272715,1.435335,-0.467909,1.530276,-0.907125,-0.502533,-1.258667,0.404066,-0.714760,1.006753,0.652998,-0.816070,-2.200937,-0.106301,-1.204026,0.272517,-1.390014,0.139988,-0.442205,-1.560940,-0.779601,1.191878,-1.534396,0.949718,-0.685886,-0.623016,1.064863,-0.462596,-0.426275,0.406981,-0.214807,0.712339,0.733335,-0.376697,-0.470044,0.742278,0.685017,-0.669069,-0.722900,0.318185,-1.232166,-0.879901,0.312994,-0.578802,0.180403,0.502936,-0.597728,-0.728202,0.295690,0.606548,0.263496,0.099952,-1.433937,1.990282,0.618199,-1.763664,-0.445146,1.601903,-0.347587,0.291985,-0.707071,-0.251867,0.532792,-0.443049,0.190346,-0.301308,1.011274,0.312155,0.889116,0.181493,0.313979,0.387658,-1.020880,1.048222,-1.530274,-1.009690,-0.076639,0.830312,-0.898648,0.120023,0.197944,-1.091131,-0.750930,0.888557,1.223123,1.071804,0.553379,0.767043,-1.748369,1.598447,-1.036124,-1.248826,1.788231,-0.966741,-1.421484,-1.105198},
{0.084648,1.045404,0.296752,-0.331282,-0.114275,0.004059,-0.648157,1.931783,0.183360,-1.090619,-0.970168,-0.357779,0.641135,1.614887,0.607858,1.337800,-1.527404,-0.611623,-1.137100,-0.557047,-1.492030,-0.210707,-0.441398,0.056764,-1.041340,-0.069962,-0.397010,0.146107,-0.949076,1.274161,1.723376,0.019777,-1.690264,0.416072,0.353514,1.247646,-0.351601,0.553434,-0.026898,0.645627,0.426004,0.132619,0.070518,0.386885,-0.421740,1.448468,-0.160830,0.009708,0.668420,0.579531,0.006903,-0.071182,0.043087,0.529313,-1.024216,0.285683,1.691717,-0.828498,1.224359,0.239499,0.014774,0.345077,0.910916,0.103861,0.783675,-1.073423,-0.256099,-0.736981,-1.513763,0.240179,-0.778800,-1.132968,-1.672652,0.525082,-0.362568,0.603246,0.124969,0.248193,1.105376,0.335742,0.231088,-0.184018,0.466741,-0.287367,-1.462653,0.562835,0.080075,-1.035138,0.465142,1.675352,0.711692,0.505279,-0.482214,-0.895717,0.395642,-1.317444,0.399629,1.208977,1.058686,0.469423,0.721984,-0.262486,1.099272,2.421080,-0.682962,-1.153634,0.553774,-0.053393,-0.153949,-0.875497,-0.712677,1.585814,-1.839014,0.895211,0.247966,0.605382,1.134391,0.841378,-1.306148,-0.031705,0.736652,0.245091,-0.157348,0.616439,-0.939131,-0.434645,0.395887,-0.580510,-1.098657,-0.086741,-1.743317,-0.478509,-0.722525,0.983366,0.174292,0.915144,0.225408,0.048061,-0.625036,0.767085,-0.597174,0.396804,0.106667,-0.491510,-0.657817,-0.516041,-0.055604,-0.683152,-1.918240,-0.015249,-0.058070,-0.178024,0.796670,0.572578,0.139666,0.538727,-0.059169,2.321359,-0.871461,0.538559},
{-0.406033,1.065774,-1.724292,1.162912,-1.101001,0.297631,0.012603,1.340983,0.626510,-0.024952,1.074778,0.101005,0.925686,-0.363688,0.108777,-0.542363,0.104080,-0.491767,0.348808,1.435089,0.692908,-0.459364,-0.622218,1.254967,-0.053783,-0.722609,0.773626,0.227637,-0.420151,-0.730235,0.452827,-0.153584,0.325495,1.028216,0.321129,1.092741,-0.497023,-0.044201,0.684458,0.244134,-0.185392,0.017596,-1.043327,0.633878,0.676143,-1.263404,1.980740,-0.669473,-0.214874,-2.275197,-0.596235,-2.310059,0.397259,-0.546313,-0.121871,-0.874313,-0.303223,0.571170,-1.207017,-0.967475,0.289449,-1.705524,0.739389,-0.553269,-0.227837,-0.754005,0.805839,0.978092,-0.661470,0.009695,-1.196047,-0.462887,-0.291146,-1.831076,-1.198332,1.303719,0.881497,-0.802007,-1.346523,0.910502,0.106730,0.057644,-0.193363,0.901760,-0.257272,-0.814970,-0.467888,-1.548719,0.101270,0.254819,-0.945099,-2.130149,-0.687197,1.441510,1.623966,1.281281,-0.319001,-1.187464,-0.544423,0.998267,1.515050,1.076357,1.684119,0.845496,-1.134683,-0.237427,-1.325921,0.210574,0.743796,0.610207,-0.158288,-0.118949,-0.804498,0.047592,-0.579150,0.245439,-0.754379,-2.102752,0.222395,0.128403,-1.214949,0.906633,1.299870,1.049833,-0.726445,-0.332043,-0.780401,-0.351646,-1.183720,-1.603161,0.354969,2.174295,1.786319,1.885025,-1.402303,-0.793823,1.258793,2.456493,0.099531,1.007781,-0.222284,-0.732000,0.763609,-0.972089,-0.718994,1.166753,-1.639877,0.058569,0.798580,0.161802,0.574622,-0.524260,-0.576426,0.405747,-0.655124,-1.469978,0.951760,-0.291506,-1.592843,-0.185476},
{-0.831167,0.091185,-1.420742,0.024756,-0.013121,1.827749,-1.369358,0.527056,-0.990990,-1.434700,0.727204,-1.377045,-1.405164,2.265912,-0.230906,-0.408406,0.555043,-2.330252,-1.219176,1.932701,0.149458,0.348189,0.423464,0.414718,0.089897,-0.872434,0.056270,2.044542,-0.454871,-1.940212,-0.646693,-1.272864,-1.020772,0.971402,0.732832,1.031804,1.022698,-0.185938,-0.034092,-0.172962,-0.480656,1.321831,1.063865,-0.732486,-0.089504,-0.316870,0.730245,-0.830448,0.043764,-0.270847,0.386611,0.067400,0.324121,-0.271905,-0.659043,-0.697851,1.802941,0.333878,1.027168,-0.636561,1.584264,1.206058,0.627200,-1.653598,-0.234769,0.780894,0.928021,-0.321102,-0.074259,-0.330694,-0.479252,0.343006,1.228850,0.068067,0.166223,0.220250,0.780802,0.646152,-1.642652,0.780039,-0.126417,0.173961,-0.426663,0.202396,-0.794046,-0.314668,0.170723,-1.599755,0.027541,-0.346759,0.818306,1.033202,-0.545751,-2.251293,0.781936,1.213668,0.726623,-2.148774,0.305120,-0.081638,0.988507,-2.788285,0.763430,0.792370,0.112822,-0.563063,-1.008120,0.792391,-0.389468,-1.697487,0.389593,-0.352523,-0.894704,-0.881888,0.217213,1.496447,0.739296,0.357792,0.543345,0.211843,0.814515,-1.230711,-0.052272,0.531846,-0.051227,-0.449947,-0.167070,-0.224581,-0.690864,0.705909,-0.231657,1.845780,0.640655,0.459140,-0.341391,-2.109777,0.329882,0.389181,-0.534579,-0.465903,-0.065442,0.555073,-0.128161,-1.413241,-0.701578,-0.165178,-0.207110,0.635965,1.364286,0.686856,-0.907483,0.737017,0.722465,-0.741230,-0.340702,0.822249,0.469240,-0.282801,0.428676,-1.057062},
{1.686026,0.195866,-0.336988,-0.233383,0.160209,0.577457,-0.563954,-1.053595,-2.328237,-0.513645,0.534236,-0.849887,-0.148948,-0.478455,-0.563155,0.255739,-0.590231,0.521541,-0.939600,-1.157041,-0.737766,0.334543,-0.521396,0.617030,-0.396701,0.076430,-0.504266,-1.306168,-0.308322,-0.203794,0.421070,0.649626,1.065545,0.451514,-0.607282,0.823308,1.075756,0.964906,-0.035110,0.206846,-0.143201,0.482908,0.411049,2.557414,0.188774,-1.167834,1.941430,-0.682542,-0.945130,-0.786925,0.902213,0.097864,-0.347903,-1.554993,-1.346011,-1.562977,-1.613300,0.415912,0.341594,0.329756,0.649925,1.577219,-0.651695,-0.209454,0.586970,-0.246016,-0.363608,0.329673,0.125477,0.764855,-0.330327,-0.439560,1.297143,1.724563,-0.676676,1.388949,0.395089,-1.629140,0.560941,-1.416044,0.803770,-0.390349,-1.896933,0.309113,0.342747,-0.522961,1.162478,0.547897,0.947461,0.751113,-0.294279,1.185048,1.825831,-1.530113,0.142620,1.218958,0.141804,0.714527,-0.235059,-1.081322,-0.275152,-0.446832,0.715077,1.545641,0.839475,0.187611,-0.273564,-0.517201,-1.235250,0.821338,0.059849,-2.291291,-0.914610,2.142700,2.024888,-0.364230,0.598310,-0.345624,0.857081,-1.078896,-0.097121,1.571311,-2.093894,1.105420,0.538401,-2.104069,-0.509043,0.700011,0.540922,0.541866,0.403247,-1.208712,-1.021468,-0.670140,0.033096,0.520712,0.256260,0.645862,1.180098,-0.711298,1.313181,-0.959029,0.216979,-0.180899,-1.167620,-0.270101,-1.394363,1.336708,-1.309787,0.119115,-0.150293,0.757009,-2.410465,1.302411,-1.324884,-0.648276,-2.256847,1.029395,1.421558,1.820198},
{1.326920,0.877062,-1.411311,-0.427135,0.533017,0.746131,-0.673690,0.306294,0.875764,1.597464,0.141279,-1.282548,0.873450,1.607325,-1.602296,-0.007005,0.435208,2.383432,0.044063,-0.523144,-0.923359,-1.019276,-1.416315,1.471546,-0.213745,1.001307,-0.915098,1.658342,0.267723,1.084150,-0.472053,0.061019,-0.901966,0.306195,-0.145561,-1.516776,0.755940,0.015207,-0.910895,-1.462105,0.415027,-0.046921,-1.419318,0.126564,-1.161658,1.131967,-1.393458,-0.801527,1.823820,2.090392,1.655486,1.379275,-0.081124,-0.218783,0.853065,-0.431123,0.647194,0.087175,0.637477,-0.717505,-0.017378,1.034167,-1.751475,0.236868,0.933604,0.705824,-0.506747,0.438978,0.984358,-0.553073,-0.665035,0.043185,0.936537,-1.023475,-1.307829,0.174519,0.712954,-1.089539,-0.476211,-0.479430,-0.973843,1.446296,-0.134637,-0.667419,-0.467877,1.012323,0.989443,-1.849450,-1.137945,-1.070003,-1.737881,0.518968,0.168401,0.828066,2.056981,-0.977502,-0.236386,-0.949212,-0.683095,-0.287501,0.269768,-1.494402,1.244300,-0.306849,-0.525987,-1.027960,-0.262029,0.204899,0.606235,-0.563996,-0.942771,0.050664,0.431547,1.730063,-0.153489,-0.300321,0.284783,0.515582,-0.941137,0.569048,-0.095349,1.115981,-1.064469,1.247178,-0.562583,-1.083246,-0.932186,0.948447,0.128662,0.144908,0.238954,-0.217409,-0.916756,1.458425,0.930723,0.834163,0.227509,-0.728345,0.094537,0.383948,0.761887,-1.283944,-0.115906,-0.199018,-0.314942,0.637002,0.763326,1.287487,1.437014,0.319510,1.179503,0.050676,0.568009,-0.002475,-0.353214,-0.896106,-1.101079,-1.640471,-0.332655,0.275631},
{1.531788,3.253951,1.907094,0.874346,1.862018,0.334834,0.628503,-0.979458,-2.032799,-0.758078,-0.444918,-0.134743,-0.710941,-1.732482,-0.071050,-0.550409,-1.354103,0.084906,-1.913931,2.180279,-1.820988,2.823935,0.176277,-0.173796,-0.730755,-0.378610,-1.761385,-1.049936,-0.751768,1.155721,0.124955,-0.168608,1.280115,1.366915,-0.518243,-0.417115,-0.648148,0.456286,-1.380684,0.535649,1.743451,-1.425838,1.121196,0.208069,-0.233092,-0.251255,-0.178736,1.813068,1.015015,0.454528,1.056077,-0.073909,-1.379225,-0.906895,1.437442,1.179533,1.355155,1.556433,-2.508121,-0.426272,-1.087678,0.310084,-0.667180,-1.356871,0.907746,0.580201,-0.572516,-1.980712,0.494881,0.744404,-1.752645,-0.687949,-1.515676,0.218718,-0.263155,1.476502,-0.447838,0.607318,-1.024074,-0.034030,-1.634728,-0.627638,2.364848,-0.583847,0.875592,1.438262,-0.578134,-1.419626,0.516350,-0.719284,0.565710,-0.659353,-0.500880,-0.390232,0.758225,0.910420,1.240822,1.424951,0.012104,1.085054,0.576496,0.529575,-0.368911,1.175044,-1.050035,-0.311742,-0.196916,-0.400091,1.570301,-0.405986,1.728159,-0.487276,0.205588,-1.203942,-1.234515,0.089361,0.211325,0.060672,-0.651633,-0.340815,-0.229430,0.992542,0.082019,-2.281801,-1.604165,0.440634,-0.835285,0.242222,0.467544,0.509042,-0.303351,-0.266576,0.820360,0.007725,0.205187,-0.399939,0.188906,1.526444,-0.621637,0.752010,-1.231298,0.043948,0.915130,-0.444379,-0.674553,-0.673219,-0.207272,-0.704862,-0.184702,-0.690866,-1.595396,-1.183581,-2.165055,-0.807557,-0.600112,-0.835494,-0.986109,0.225509,-0.687110,0.220552},
{0.435939,-0.303567,0.971217,1.157274,-1.216670,-2.641794,0.247294,-0.074587,0.793193,-2.241407,-0.500292,-0.073221,-0.016558,-1.206170,-0.487536,0.664247,0.001917,0.573875,-0.153391,-0.335406,-1.158373,-0.184875,0.502880,0.451953,0.597102,-0.891792,0.066591,-1.306279,0.733174,-1.362829,-0.332437,1.310445,-0.259256,1.952031,0.380266,-0.487063,0.876256,0.867558,0.691438,-0.354409,0.348359,-0.482921,0.871508,-1.216299,-0.921757,0.661146,-1.137127,0.661080,0.128418,-0.054081,-0.558862,2.886796,0.440907,1.968665,-1.360327,-1.100857,1.967317,0.305064,0.564004,-0.318450,-0.675331,3.293934,0.978870,0.079007,-0.320733,-1.053269,0.166837,0.174018,0.429189,-0.198823,1.789522,1.284571,-1.936368,0.429773,1.701959,-1.500478,-0.303072,-0.013487,1.087499,-0.479251,1.353499,1.268604,0.528209,-0.211967,0.212952,0.670122,1.052477,0.344120,1.898254,-0.606369,1.861418,1.326548,2.011167,0.395324,-2.137598,1.845471,1.315159,0.373895,-0.147879,0.537374,-1.188712,1.065530,-0.230847,-0.141939,-1.049067,0.149600,1.113884,0.115513,-0.512255,1.038660,0.724597,-0.509375,-1.321671,0.194297,-2.361071,1.525760,-0.791622,0.706919,-1.569118,-0.162510,-0.236731,-0.485604,1.422469,1.162357,0.026679,0.019862,-2.021108,0.100283,-0.011368,-1.514179,-1.304433,0.963690,-1.305163,0.707375,-0.621218,0.868695,-0.838794,-0.141256,1.020201,0.459434,-1.012899,0.286026,-1.058034,0.383421,1.597549,1.506667,1.287282,-0.181118,1.378798,-0.448274,0.549859,-0.386722,-0.305989,-0.679229,1.157392,0.529268,1.150970,0.681996,0.382652,-0.875374},
{-1.000388,0.582796,-0.166971,1.083678,0.376188,-0.763524,1.235170,1.275833,-0.696559,-1.136370,-0.867126,0.433782,-0.636785,-1.547241,0.477237,0.176644,-1.159897,1.235631,-1.826721,-1.757328,-2.063410,-0.503423,0.584824,-0.563557,1.077794,1.088881,1.160460,-1.114349,0.698550,-0.734638,0.163950,-0.572287,-1.738752,0.585430,0.398492,0.922045,0.145510,0.370801,-0.617467,1.301861,-1.216055,1.267990,-0.323500,0.076440,0.217859,0.686343,-0.121491,-0.368545,0.391912,0.415868,0.972678,0.652192,-2.501325,0.703608,0.270755,0.507007,-1.550812,0.088080,0.249716,0.151956,0.446240,-0.503015,1.994207,1.326881,-1.723378,1.004143,0.490765,-0.178081,0.975857,0.102626,-1.680822,-0.097164,0.241300,-0.228596,-0.944343,0.268338,0.232721,-0.054541,-1.176582,-1.016242,3.296688,-0.260702,0.704072,0.854169,-0.456852,0.867953,-1.419687,-0.112324,0.486654,1.875684,0.496230,0.175713,0.220552,-0.470064,-0.106470,1.849877,2.657050,-0.224092,-0.708049,-0.529705,0.990975,1.248395,-0.504094,0.587949,0.607813,1.674394,-0.755213,-1.424940,0.934733,-0.784929,0.501979,-1.441588,3.353460,-1.791284,0.807312,-0.238127,0.683934,0.068017,0.398190,1.022655,0.775420,0.298792,-2.178161,-1.032309,-0.734857,0.776821,0.386885,-0.696154,1.244909,-1.975820,-0.534554,-0.469423,0.297529,1.083924,-0.065597,-0.235815,-0.508712,-1.641312,-1.948088,-1.525705,-0.292541,-1.225277,0.981462,-0.519960,1.255397,-0.784447,-0.879804,-0.627106,0.102861,1.171311,-0.833070,0.243473,0.907178,1.035019,0.737262,-0.098094,0.251674,0.278757,0.356159,0.652843},
{-0.557773,-2.188883,-0.945268,-0.039845,2.198126,2.430627,-0.882124,-0.997383,-0.154196,-1.412562,-0.791460,-0.279966,-1.179513,-2.292883,0.618161,0.808884,-0.943828,0.306569,1.777539,0.359241,-0.296773,-0.939960,1.309347,0.180918,-1.874150,0.095031,2.249933,0.689673,-0.372722,1.161289,1.392414,-1.181251,0.021523,2.306744,-0.314787,-0.155007,-0.060933,-1.419642,-1.898601,0.523757,0.133368,0.204554,1.922026,1.095274,-0.437287,-0.477253,-0.746153,-0.896416,0.676164,-1.163099,-0.171392,0.083535,0.412617,-0.075535,-1.836323,-1.492707,-0.633945,-0.256894,-0.216229,0.537583,0.695843,0.629115,-1.003438,0.469672,1.299650,0.130671,1.641920,-1.345675,-0.043427,0.014215,1.203055,1.685717,0.881210,-1.156399,-0.817179,-0.382277,-0.459097,-1.482443,2.473611,-0.514120,-0.483706,-0.591320,-1.357065,-0.668429,0.156249,1.771638,-0.401686,0.671106,0.915893,-0.061444,-0.413608,-0.607661,2.099195,0.153899,-0.755194,0.293572,1.034083,0.478373,-0.598335,1.378073,-0.622764,0.369184,1.050345,0.150918,0.235801,1.221905,0.642301,0.557926,-0.175444,-1.104370,1.265681,0.532157,0.122993,1.180490,0.098392,0.097488,0.270143,-0.845345,0.378799,-0.474933,-0.762825,-0.036320,-0.978386,0.213638,0.311990,-2.232307,2.863750,-1.408722,-1.405417,0.587603,-0.664039,0.663694,0.017597,-0.508671,-0.724511,0.478616,0.313434,-1.613157,0.043544,-0.275784,2.069171,1.671375,-1.003221,-0.078026,0.000004,1.342661,1.684706,-0.584718,-1.176144,0.280667,0.220077,1.585628,0.755962,1.011762,1.167848,0.989683,-1.816394,0.383270,-0.908591,-0.128492},
{-0.173391,0.859328,0.019245,-0.252209,1.924257,-0.069892,0.170889,0.416530,-0.851330,0.282663,-2.160543,-0.346752,-0.137035,0.529008,-0.478863,-0.174955,-0.920607,1.146957,0.205616,-0.921957,0.282642,0.790412,-0.276646,-3.055206,0.345800,1.520287,0.553598,-0.867609,0.354747,0.448143,1.434263,-0.031354,1.395526,-1.016494,2.186801,-0.830462,-0.349886,0.824642,-0.318746,0.520198,0.406574,-1.610264,-1.523821,0.383750,-0.682538,0.713888,-0.157233,-0.194198,1.387936,-0.557530,-1.706626,0.135964,-0.791883,-1.444357,0.790848,-0.485543,-1.111566,0.157762,-0.514113,0.019477,1.282318,0.502047,0.664803,0.741413,0.136415,-0.893902,-0.152600,0.319850,-0.963765,0.297256,1.234898,-0.777396,-0.499699,-0.260415,-0.742672,0.421293,1.127174,-0.865521,-0.072688,-1.226744,0.328089,0.547879,0.083616,-0.071547,0.290185,0.250315,0.190259,-0.771915,1.115348,-1.218131,-1.112028,-1.267733,1.223809,-2.206796,-1.005304,-0.364911,0.261548,0.095970,1.422747,0.164750,1.590640,0.932234,0.859768,-0.284854,0.262887,-0.283206,-1.110799,-0.116463,0.005906,1.373316,-0.229592,2.895830,-1.861527,0.050462,0.337612,0.321167,1.356260,0.056316,1.179964,-0.383218,0.535375,1.464058,-1.799852,1.327236,-2.202344,1.707250,0.313990,-0.180089,2.950326,-1.689085,-0.567063,-1.260075,-1.235991,-1.218715,-0.044547,0.155245,1.957941,-0.493800,0.600897,-1.378697,-0.703596,-0.327694,-0.721152,0.952303,0.226281,1.416100,-0.328207,-0.162810,0.638971,-0.663453,-0.315443,-2.271857,-0.417633,1.111756,0.795610,-0.419797,-0.162595,0.790976,-0.213088,0.315607},
{0.168436,0.483765,1.078248,1.098652,-0.196341,1.583696,-1.342490,0.628975,1.073109,-0.016449,0.661604,-1.939704,-1.699001,0.434501,-1.119818,0.760980,-2.298386,1.368077,0.247202,-2.092064,0.301425,-0.073263,0.540410,-0.927137,0.652503,0.528615,-0.784433,0.752425,-0.168128,-1.589617,0.939833,3.049251,0.608699,-1.381923,-1.598214,0.773365,-1.368335,-0.518416,0.196941,-0.898221,0.702182,0.532653,-0.197782,-1.064736,-0.406672,-0.121060,-0.437119,1.061523,-1.471694,-0.807914,-0.480341,0.365885,0.014858,0.781416,0.074133,-0.502701,1.480498,-0.031141,-0.157182,1.430623,-0.377715,0.966424,1.987019,0.990692,0.993357,0.711164,-0.182577,1.060529,-0.741063,1.822133,-0.478621,-0.531876,1.429689,1.051405,0.595473,-1.256628,-0.580967,1.119977,-0.555002,-1.421254,0.558255,-3.167575,-0.734614,-0.408520,0.736855,-1.033748,-1.637527,0.127466,1.395982,-0.310095,0.073056,-0.310085,-2.394288,-0.758493,-0.657187,-1.259124,-2.532961,0.423314,0.677482,-1.481860,1.666157,0.148491,0.872352,-0.995996,1.135048,1.568027,-1.096812,-0.166582,0.402964,-0.848118,-0.007597,-0.523440,-0.180940,-0.968548,0.047119,-0.050736,-0.407153,1.024628,-2.639965,-0.702490,0.464827,-1.126442,-0.014544,-0.713375,-0.815580,-1.082677,0.714923,-0.917370,0.099638,-0.048551,-0.203294,0.079878,0.664293,-0.259643,-0.357846,-0.497745,0.972973,0.297392,0.653969,-1.262037,-0.494630,0.846825,0.059574,-1.149664,0.458603,-2.380005,-0.739569,-0.523487,0.306220,0.376858,1.187888,1.145603,0.630481,-0.897290,1.256014,0.121042,-0.299797,-0.218760,0.806336,0.586282},
{0.418132,-0.261823,0.250156,-0.372193,-0.915177,1.860246,-0.383237,0.233542,-1.463037,-0.015053,-0.750486,1.356027,-0.433424,0.301367,0.474527,0.734632,0.724417,-1.058711,0.083497,0.120513,-0.694853,0.031345,-1.034864,0.155351,-1.371991,0.420511,0.033896,0.044385,0.535640,-2.293889,0.317701,0.094989,-0.859292,1.530922,-1.518393,-1.003135,-0.507153,-0.245125,1.693157,-0.437372,-0.672030,0.623123,0.119439,0.054082,1.003760,-0.236170,0.132731,-1.150610,-1.501123,0.684755,-1.360383,0.781041,-0.096772,0.979672,0.134170,0.419947,-0.460218,0.143231,0.306170,1.126705,0.196982,0.816495,-2.286293,0.901772,1.213643,-1.043319,1.826503,-1.005047,0.083194,-0.502368,-1.122241,-0.226910,-0.141610,0.483130,0.864884,-1.276294,-0.264143,-0.125144,2.066133,-0.668746,0.775221,-0.781513,0.458602,-0.859516,0.012202,-0.345494,-1.883397,-0.094987,-1.147566,0.553815,-0.705104,0.273045,-1.714178,0.025057,-0.382292,0.201895,-1.136579,0.365062,0.660204,0.443759,-0.361094,1.292298,-1.531068,0.000928,-1.481261,1.008450,0.213124,0.849776,-0.516521,0.583985,1.536278,-0.043989,-0.595668,-2.898875,-1.326850,-0.065340,1.130189,-0.082828,-0.282163,0.278441,-0.272299,-0.064160,-0.288846,0.347863,0.489489,0.510543,1.451144,-1.426422,-0.930357,0.253149,-0.227853,0.412374,-0.205302,1.639187,0.038309,-0.934468,1.051944,-2.277282,0.707850,0.765912,-0.478153,-0.081006,-0.816164,0.403450,1.073077,-0.593980,-0.777760,-0.968022,-0.449833,0.325726,-0.171344,0.689478,-0.646457,-0.712731,-0.355026,-1.030651,-0.155762,0.035373,0.867299,1.446050},
{-0.810354,0.989888,0.586143,-0.712360,1.608704,0.653524,-0.106092,-1.117564,-0.097439,0.632657,0.139592,-2.051216,-0.020350,0.219451,-0.251376,-0.274403,-1.743607,0.561055,1.370199,0.509137,-0.204920,1.684163,2.668876,-1.261043,0.002667,0.039384,0.502773,-0.838055,-0.415825,0.906787,-0.867811,-0.925926,0.560015,0.078439,-1.546752,-0.374756,-0.530268,0.544658,0.297969,-1.663793,-0.869096,0.489780,0.243143,1.353358,0.596713,-1.244862,0.543696,-0.674681,-0.667184,-0.811039,2.027700,-0.890868,1.100446,1.928743,0.319925,0.140118,1.197118,1.411825,-0.859847,1.452737,0.931994,0.574929,0.403043,0.921036,0.634025,0.149870,-1.242213,1.040873,0.244175,1.761390,1.398171,0.601856,-1.288553,-0.319595,-0.143609,-0.471736,0.866729,-2.293113,0.757326,0.930692,-0.782267,1.563250,-1.471122,-0.947783,-3.021867,0.160079,-1.859339,1.740341,-0.169680,0.381699,-1.023124,0.991240,-1.805400,-1.468333,1.203431,-0.111823,-0.915943,0.237807,-0.382333,1.166993,-1.232771,-2.577086,-0.643304,0.114572,1.344052,-0.856571,1.945534,-1.154332,0.573818,0.615556,1.271098,0.401285,-0.810151,-2.252520,1.194241,-0.685290,2.154827,-0.540203,1.695507,-0.307276,-1.476710,-1.685672,0.849704,0.509388,-0.966523,-0.312304,-1.170449,1.285103,-0.558855,-0.613972,-0.699827,-1.302538,-0.029571,-0.272361,0.592871,-0.671207,0.741897,-0.792446,-0.147946,-0.127520,-0.236798,-2.065713,0.446920,-0.447829,0.856371,0.079803,-0.754381,-0.229007,-0.305842,0.624900,0.839114,1.755007,-0.153591,-0.345525,-1.009843,3.070215,0.722620,-1.305303,0.492282,-1.133123},
{0.309524,-0.146052,-0.071762,-0.991886,-0.049562,0.835050,-0.573320,0.254078,2.748001,1.454624,-0.693709,2.168487,-0.144459,-1.956745,1.369466,-1.310741,-0.030054,1.146581,0.043475,-1.027942,-0.376119,-0.338360,0.482581,-0.548645,-0.502400,-0.231959,-1.069909,0.737512,0.384763,-0.397382,-0.129068,-0.724908,-2.666322,-1.164238,0.113864,-1.276041,1.526890,-1.089404,-1.079942,-1.138667,0.775755,-2.160996,-1.783107,-2.034929,-0.493789,-1.681313,1.000452,1.158931,0.077983,-0.297491,2.716607,-0.113464,0.166546,1.605403,0.470059,0.043476,-1.196986,0.833892,-1.336614,-0.606319,1.055884,-0.725418,0.156081,-1.226675,-0.661769,-0.724126,-0.108403,-0.712929,0.532702,-0.923678,0.569379,-0.397239,0.280530,0.852404,-1.154330,-1.201002,1.373134,-0.059671,-0.709825,-0.340276,-0.511891,0.407143,1.206916,0.012401,0.780236,-1.905735,-1.385886,-0.445247,-0.831760,1.145786,-0.602162,-0.629839,-1.026327,-0.217558,-1.538547,0.475829,-0.727647,-1.063257,-0.258839,1.532526,-0.607941,-1.806687,-0.768014,0.046601,-1.585998,-0.592330,0.892142,0.778277,-0.554665,0.310477,-1.498210,-0.699383,-0.857584,2.124376,2.064621,-0.793322,-0.392217,0.231143,0.046425,-2.139915,0.237432,0.288408,-1.844921,-0.337470,1.429410,-0.253818,-0.607286,0.413706,-2.963659,-0.554103,1.372148,-0.456797,-0.049041,-0.181169,-1.362476,1.481898,-1.409021,-0.419208,0.948821,0.106990,-2.404167,-1.759296,0.803087,-0.225826,-2.680967,1.439172,-0.140582,-1.301274,-1.142114,0.169246,-1.200832,0.551270,0.487705,-0.754204,1.341937,1.387060,-1.056963,0.224948,-0.590021,-1.048507},
{-0.630782,2.180869,0.474229,1.210485,-0.279539,2.303326,0.753847,0.602881,-0.478724,-0.843318,0.052088,-0.659213,0.343220,1.204622,0.899380,0.414075,0.325275,0.008660,1.151125,-1.754333,0.952280,-0.950334,-0.481347,-1.109147,-0.005590,-0.127029,0.115817,0.998743,0.228285,-1.425822,-0.223247,0.266583,2.431168,-0.196358,-0.696839,0.756542,-2.703719,-0.952400,-0.484494,0.599288,-1.093004,-0.015405,-2.032550,-0.267261,0.389714,0.893417,-0.350615,0.469301,0.086198,-1.494027,0.638850,0.042871,0.467751,-1.725826,0.832836,-2.105588,0.542308,-3.591823,1.363608,1.564759,0.750447,0.299765,-1.466433,0.817417,-0.707053,0.827739,-1.426858,-1.260792,-0.655118,-1.419244,-1.079042,-0.968616,-1.086610,0.486176,-1.402721,-0.064621,-0.203189,1.018368,0.941909,1.341095,0.307424,0.531728,-1.233699,0.450743,0.796113,-0.175656,-0.482944,-0.857202,-0.656140,-0.357762,-1.692950,0.387537,0.175604,-0.288722,-0.966796,-0.359692,0.761122,0.486818,-1.644410,-0.147887,-0.385058,-0.617542,-1.591864,0.026318,0.999662,-0.313338,-2.099081,-1.064414,-0.339520,0.446653,2.101229,0.544252,1.292655,-1.795334,0.257138,-0.442119,-0.450679,-0.920275,-0.232889,-0.722414,1.794381,0.551774,0.369755,-0.600938,0.745276,1.317210,-1.962919,1.841571,0.906960,1.586119,-0.615795,0.913196,0.745452,-0.938579,-0.233912,-1.301382,1.165737,0.597056,-0.048699,-0.646124,0.748147,1.082491,1.566973,0.471283,-1.351540,0.355630,-0.115985,0.862195,0.534239,-1.027920,-0.302230,-0.353832,0.610383,-0.507105,-0.672549,0.162151,-0.380698,0.257683,-1.130757,0.983452},
{-0.268579,-0.100502,-0.516493,1.219710,-0.187371,0.632418,0.912106,0.803371,-0.416950,1.047180,0.862592,-1.139412,-0.754893,-0.896481,0.015956,0.031554,-0.917571,0.436961,0.906284,-2.109863,-0.205054,-0.585603,-0.539631,0.415948,1.610031,-1.691893,-0.451217,1.373298,0.448107,0.112709,0.364024,0.782499,0.991722,0.046484,-1.177545,-0.345995,-1.183194,0.431776,-2.274040,-1.016247,-0.200281,0.375510,-1.219478,0.281458,-0.269427,-0.778441,1.123851,-1.711475,-0.389194,1.246016,-1.229351,2.867112,-0.126402,-0.653461,0.498377,1.644947,-1.215643,0.537731,-0.765999,0.948156,1.134996,-0.603160,0.782945,2.055342,1.039119,0.084659,-0.611521,0.737458,-0.807538,0.374703,0.104880,-1.381419,-0.372449,1.062059,1.676582,-0.555963,1.343116,1.313918,-0.238147,0.132140,-0.741698,-1.050306,-0.874386,-1.815919,0.243024,0.582344,1.705583,0.155329,-1.680996,-2.208328,-0.156067,-0.876175,0.276968,-0.459692,-2.148352,0.181017,0.313368,-0.096594,0.447697,-0.670644,0.670514,0.583288,-0.250572,-0.215573,0.354711,1.532686,-0.671406,0.305286,0.246008,-0.857091,0.292061,0.163255,0.366471,0.742327,0.582771,0.095193,-0.116668,-0.297171,-0.067923,0.559623,0.403608,-0.456837,0.431732,-0.848477,-0.827136,0.153175,0.755808,1.184755,0.399499,-1.254726,-1.247565,2.248990,-0.217986,1.119765,-1.213502,0.571771,-2.728970,-0.116549,-1.835351,1.216821,-0.957308,-0.890335,1.050061,0.305721,-0.355175,0.258778,-2.287738,0.006199,1.651799,-1.626239,-0.688482,1.177101,-0.594395,-0.832664,1.033769,-0.051494,1.715234,1.072732,0.213251,0.520493},
{0.947907,0.051041,-2.603432,-0.009477,-0.732137,0.622043,0.470498,-0.752554,1.436166,0.536719,0.402633,0.563030,1.345472,0.410253,-1.623215,1.260519,-0.036071,1.056890,-1.974489,1.305515,-0.185984,-1.267691,0.689326,0.229776,1.065568,-0.474224,-0.288936,-1.814038,-0.693057,1.104238,-0.222798,-1.214232,2.139983,-0.312732,0.293871,-0.634388,0.732527,0.260417,-0.068838,0.912675,0.276056,-1.164997,0.110064,-0.553402,-0.157895,-2.758017,-1.092028,-1.286722,-1.469788,1.047642,0.505386,-1.594282,-0.593072,1.182984,-2.155361,-1.453108,0.252740,-1.190463,-0.666514,-0.960400,-0.201553,0.964753,0.360536,1.028070,0.596153,-1.205383,-1.344234,0.569361,-0.565118,0.456994,-1.656292,0.189126,-0.698942,0.692319,-1.340389,0.263825,-0.903125,0.026835,0.780273,0.298346,0.761758,-0.448237,1.462522,-0.697364,-0.597303,-0.013221,0.130606,-0.072744,0.565687,-0.772683,0.265887,-1.086985,1.099969,0.062592,1.639267,0.980710,0.471814,-0.985350,-1.102522,-1.298040,0.245995,1.107530,-0.280053,0.577131,-0.457528,-0.196946,-0.784840,-0.228666,1.809250,0.980529,-0.492706,-0.493899,-0.005801,-0.827105,0.199283,0.538276,-0.090837,-0.398298,-0.151112,-0.009190,-0.870146,-0.307841,1.536704,1.113216,0.111632,-0.133705,-0.601046,-0.758189,0.314064,1.289894,-0.126009,0.614253,0.914981,0.004923,0.126649,-0.342026,-0.347543,-1.455253,-0.040643,-0.820569,1.135761,2.431313,0.753829,0.311095,0.961310,-1.008110,-0.478337,-0.292704,-0.825265,1.154457,0.073166,-0.117385,-0.155822,-0.553789,0.427110,0.679239,-0.159229,0.804733,0.561749,-0.456719},
{0.474676,-1.378411,-0.006246,-0.292363,0.015914,-0.379962,0.787065,-0.607992,1.678721,-0.602237,-0.180197,1.315500,0.212795,0.546688,0.250830,-0.249907,2.164913,1.145066,-0.138164,0.633361,0.260378,-1.716212,-0.910179,0.314466,2.138141,-2.266469,0.087811,-0.786721,-1.486081,1.421548,0.274610,0.583799,-1.459151,0.420715,-0.956648,-0.320745,-1.944845,-1.047861,1.032985,1.373158,0.930660,-0.731388,0.102432,0.885506,-0.567768,-0.352635,-0.320790,-0.260902,0.748799,-1.610848,-1.128393,0.161061,0.191036,-0.140056,-0.604659,0.642487,-0.608671,0.297579,-1.186263,-0.931266,0.676808,-1.258341,-0.169376,-0.532136,-1.044936,-1.189603,0.790493,1.036305,0.330351,0.060294,1.889094,-1.254374,0.175641,-0.078443,-1.215941,-0.661847,-0.370377,-0.066908,1.054428,0.910060,1.203808,-0.464131,0.617020,0.632579,-0.307599,-0.235144,-0.809942,-1.218246,0.164956,0.081575,0.186548,1.158314,-0.715835,0.004961,-1.675241,0.771478,0.135098,1.165424,1.117908,0.300074,0.598878,1.366384,0.735301,0.745795,0.660904,1.292526,-1.246246,-0.463595,0.046352,0.810570,-0.234404,-0.036328,-0.115754,0.348605,0.545991,-1.352538,-0.662113,-0.501723,0.170673,-0.028337,-1.007413,1.256149,0.267199,0.071135,-0.035264,-2.285031,-0.055321,-1.346758,1.870771,1.044099,1.869849,0.194755,-1.196980,-0.965019,0.215849,0.068159,0.601619,0.102184,-0.785928,-1.835331,1.175345,0.002104,0.578091,0.548349,1.047542,0.247562,-0.364549,1.790377,0.618931,0.093233,-0.228250,-0.973133,-1.697058,0.111684,0.603556,0.471820,2.224496,-0.863188,-0.422193,-0.289731},
{-0.346772,-0.597646,-1.665256,0.599505,-1.263598,-0.523858,0.462658,-0.366122,-1.224148,0.706807,-1.934792,0.979154,1.595544,0.203421,-0.778723,0.290931,1.015128,0.031611,-0.725377,0.974519,0.352152,0.805635,-0.164819,-0.180774,0.867790,0.529542,-0.332186,0.087016,0.160905,-2.236998,1.173961,-0.344636,0.524115,0.066445,-0.800881,-0.552494,1.636515,1.120000,1.229069,0.922336,0.363511,-0.906094,0.841560,-0.212833,-0.344062,-0.778619,0.428450,-0.661584,-0.485566,-0.463207,0.842241,0.091843,1.740498,1.436186,-0.817690,1.765102,-2.234545,0.341822,0.007169,-0.033179,0.151285,-0.462672,-0.279624,0.915588,-1.262183,0.757546,-1.496027,-0.146109,0.119483,0.199661,0.569448,0.852243,0.927422,0.215434,-0.925203,-0.900243,-0.201032,-0.705759,-0.107879,-1.112512,1.544053,-1.008340,-1.258840,-0.784325,-0.396208,-0.301734,0.511137,-0.191840,3.098561,-0.622462,0.260127,-1.546944,1.046704,-0.871604,-0.898493,1.632397,-0.132607,1.887773,0.174117,0.473437,1.527727,-1.932448,0.938628,0.846471,0.896570,-0.196246,1.303998,0.654094,-0.932967,0.367136,-0.499793,0.602689,0.051733,1.106299,-0.418807,1.516808,0.452658,2.425624,0.035783,2.281906,-0.460362,-0.311138,0.164316,0.217501,-1.332296,-0.268045,-2.173618,-1.147756,0.675022,-1.223400,-2.081216,1.305693,-0.004021,-0.094476,-0.403961,-0.791594,0.191786,2.069653,-1.041719,0.309571,-1.940625,0.869586,0.382424,0.523444,-0.843009,0.625661,1.737128,-0.368760,-0.163152,-1.405122,-1.595614,1.053780,-0.239524,0.181149,1.228644,-0.635553,-0.541450,0.419766,1.127987,0.656974},
{-1.810132,0.605177,2.920131,-0.595820,-1.073143,-0.996740,0.137840,1.432894,0.180835,1.571901,-0.157802,0.465173,-2.144858,0.728068,-0.456332,-0.083773,-0.431898,0.468149,1.657701,-1.004132,-3.444070,1.262720,-0.633519,-1.031630,-0.205375,-0.390638,-0.834762,-1.195839,0.199230,1.971497,1.763330,0.730609,0.962773,-0.999379,0.001917,-0.124101,0.121680,0.333414,-0.761141,-1.521834,-1.297717,-1.828959,1.650495,1.523401,-1.496009,-0.406700,1.437392,-1.384435,0.035702,-0.567866,0.576320,-1.485277,1.834794,-0.793810,-0.055263,-0.920314,-0.207642,1.025042,-0.273069,-1.263370,-0.816726,-0.671533,-0.848064,-0.958415,-1.425203,2.711077,-0.365618,-0.358736,0.881001,0.833062,-1.446565,1.010254,-0.213149,0.804420,-0.204446,-0.322866,-0.312765,0.704887,-0.044377,1.118634,-1.094145,-0.045047,1.636263,0.520491,0.446824,1.169855,0.332303,0.005002,0.589543,2.066546,-1.061395,0.816857,0.154951,0.050548,1.816113,0.827070,0.407951,1.288324,-0.190714,0.761608,-0.059178,1.224487,-0.943989,-0.021695,-0.299565,2.053927,0.020420,0.905064,1.232106,-1.982797,-0.632956,-0.934866,-0.407787,0.704200,-0.990160,-0.243126,-0.193054,2.124566,-1.048439,-1.587056,0.703993,-1.140572,0.972995,-0.595628,0.167986,-1.281508,1.446379,-0.758114,2.024006,-2.247804,-0.792247,0.230873,-1.082545,-1.980017,1.476365,0.945808,0.490112,-0.349640,-0.394821,0.504036,1.249639,-0.380055,0.149914,0.934196,0.357173,1.744012,0.692763,0.721317,-0.865201,-0.384726,-0.505752,0.170349,-0.309694,-1.908363,-0.660525,-1.973641,0.693020,1.211024,0.751021,-0.079585},
{-0.454625,-1.495522,0.833019,-0.370788,-0.707938,-0.306626,0.554942,-0.232837,0.531494,1.845015,0.247709,-0.048089,-0.915296,0.126003,-0.539763,-0.533528,-0.722898,-1.600346,-1.242897,0.793047,-1.837768,0.348191,-0.123331,-0.057388,2.090391,-3.105773,-1.142837,1.164023,-1.665084,0.083845,0.534666,0.231049,-0.779772,-0.641713,0.124326,-0.149989,0.990385,0.864637,-0.448518,1.775562,-1.182272,-0.223637,-1.244189,0.076585,-0.799439,-0.430693,-0.547928,0.020707,0.399241,0.329806,-0.920956,0.074871,0.165975,-0.368604,1.364670,0.846749,-0.586180,0.192225,1.556020,0.920493,-0.254998,-0.398941,-0.548575,1.612078,-2.536661,0.191990,-0.945271,1.042733,-0.745361,1.493624,1.711486,0.834614,0.457640,-0.071184,0.525309,0.222548,-0.916773,-1.115842,0.769521,-0.005092,1.400916,-0.283583,-1.049770,0.716945,-0.312913,0.521447,1.316214,1.370892,0.033990,-2.011053,-1.203522,1.186960,-0.094899,1.042918,0.238454,0.885246,-0.272794,0.502982,-0.016601,-0.355110,-0.096975,1.887982,0.237950,-0.510564,1.013016,1.669751,-1.555479,0.745814,-0.112456,-0.621934,1.046616,0.186096,-1.027333,1.124488,0.511962,-0.126569,0.410869,-1.033250,0.655152,0.308569,1.079452,-0.537627,0.083481,1.426822,0.409500,-0.332593,0.781174,-1.568818,0.468401,1.330677,-0.745485,-0.803491,-1.432088,-0.351379,0.663904,-0.393140,-1.028862,0.108025,-0.742537,-0.003056,-1.107957,-0.729315,0.780656,-0.296401,-0.260504,-0.509649,-0.846781,-0.276763,0.477489,-1.329687,0.516171,-0.097726,1.424968,-0.057907,-1.589676,0.689863,0.310349,-0.889353,-0.099119,1.714719}};

{{-1.492750,0.107813,-0.906024,1.511683,-1.355317,1.400143,-0.869811,-1.299662,1.672243,1.336413,0.666714,-0.755329,0.861201,-1.187584,1.139509,0.521082,0.389279,0.681866,-1.087784,0.277266,-1.590429,0.159035,-0.398190,-0.154084,-0.084313,-0.633622,0.979692,-1.405308,0.753855,-1.153841},
{0.646097,-1.035434,0.613362,0.332884,-1.155292,-1.018795,-0.210531,-1.552654,-1.698184,-0.190165,-0.774869,1.573751,0.389133,0.760164,-0.382484,-1.796829,-1.021576,0.987737,1.134932,0.848570,0.894455,-0.436768,1.031267,-0.598981,-0.567346,0.122860,1.047148,1.447547,-1.902595,0.699779},
{0.743418,1.759756,1.110449,-0.420936,-0.293002,-0.788963,0.461341,-1.258954,-0.596929,-0.257392,-0.356420,0.398124,0.618158,-1.472848,-1.164370,0.308082,-1.249785,0.864881,-2.550483,0.569076,-1.749888,0.012881,0.396376,-0.483130,-2.718826,0.908091,0.868376,0.362609,-0.742402,1.207817},
{0.008864,0.280211,0.834455,-0.057666,-0.344987,-0.936012,-1.535655,-0.459472,0.170697,-1.335338,2.824552,-0.171804,0.596941,0.375898,-1.590031,-0.459583,1.524720,-0.106982,1.439036,-0.420901,-0.806953,1.901519,1.020777,0.419631,0.851970,1.150900,-1.991816,-0.506670,0.047804,-0.484849}};