#include <math.h>
#include <stdio.h>
#include <string.h>
#include <stdlib.h>
//global Declarations for 2D Arrays
int layer1_row_ar1 = 160;
int layer1_col_ar1 = 24;
int layer1_row_ar2 = 24;
int layer1_col_ar2 = 1;

int layer2_row_ar1 = 30;
int layer2_col_ar1 = 160;
int layer2_row_ar2 = 160;
int layer2_col_ar2 = 10;

int layer3_row_ar1 = 4;
int layer3_col_ar1 = 30;
int layer3_row_ar2 = 30;
int layer3_col_ar2 = 10;
//Weights
double  w1[160][24] = {
	{-1.31098470792547,0.821601196538568,1.41030221650330,1.32332138475298,-0.553018646940438,0.498518539957497,2.30641186684945,0.216561139610333,0.0313453453181602,0.00554264943286358,-1.44643089967007,1.55122307910415,0.283092555991793,0.0293971960124096,1.70866205306016,-0.392423711515492,0.631792823115680,1.50723029325352,-0.0542008494821949,-1.91818578994117,-0.460919810835877,-0.0346682645919215,-0.601909185926499,-1.06179549525133},
	{-1.40841070944380,0.415048678912737,-0.896397350056484,-0.154255864551275,-0.586538284645643,-1.32495509131876,-2.51316089080140,-0.145632383746725,-1.34930480300291,0.00897758475930151,-0.0786721007183061,0.299310465324076,-0.247027449455550,1.59568326688525,-0.499773159276027,1.34501142149778,-0.926886718744797,1.15399539408547,0.869930043759189,0.238178453146655,-0.0839843736114304,1.07317799944627,-0.0451840437454499,-0.997517162872383},
	{0.471403240469744,-0.763748150877594,0.417907639857939,0.252208622284236,-0.379983402544105,-0.862579105218896,0.0270578534521981,1.06014975564292,1.08770767192834,1.78399402722466,-1.00983438481055,-0.287094799934125,-0.100096212625147,0.320474616829964,-0.544723309478927,0.395505165772668,-0.683837971109257,0.457006037484314,0.848624763831363,-0.589289402775293,-0.763077266853821,0.0990323674989052,0.907878422761754,0.192808084497580},
	{0.939492501544837,-0.652372773911394,1.19687249280748,0.0458290747479813,0.491080427511222,-1.36750502137277,-1.57536799422079,-0.0679660415314758,1.04172237304597,-1.10786981791318,0.489729066646832,-1.10349539197083,-1.01758993346971,0.974273132358221,1.89496263440189,0.000295800628995503,0.464186546665894,2.64097792083672,-1.39323869172684,0.604705215006885,0.771821785020740,1.50700169729338,0.657187896825339,1.27968789997498},
	{-0.0260840658832646,0.566472509236231,0.692489586739634,0.978527360116796,0.0153863186240454,0.206255209884927,-0.196090083910415,-1.36175341984060,1.17015808482186,1.41600164204900,-0.944779575387219,0.671366323160032,-0.222172835343632,0.794186504538071,-0.334760151147048,-0.741456247282825,-0.0705394570544191,1.41234705532857,-0.738614528461405,0.342399271901349,-0.601643832670379,-0.573084633100575,1.16786104003155,1.10395259534762},
	{-0.808790169375147,-1.25362231028522,2.09874311505157,-0.351308062929302,0.919332085272412,-2.21088422728687,-1.12051010302625,-1.01704067794679,-1.89400193757102,-2.21183613997636,-0.746957796690415,1.98190819906675,-0.587988160449673,0.0600691733839888,1.18685853988663,0.859602300695562,-0.0242862899413251,0.140854520799137,-0.161011734063994,0.265618720717884,1.53477553897779,-0.573624359760379,-0.841753361642284,0.369493481884034},
	{-0.258428016136359,0.307374229466022,0.726022569647554,-1.77372260668967,0.690482186209951,-1.70201522158020,-0.568233592366075,0.0725617672759681,0.652616831603729,1.08231015584910,0.0304205840539156,0.265863455671302,-0.0450668798604303,-0.108446562312020,0.638674759893046,1.66603018698636,1.37940876962082,1.97989949035979,-1.60583838929902,1.60110783272348,0.294733916313492,1.47928292489889,-2.45699524207044,-0.193873024042332},
	{-0.186537513944512,1.69734179423942,-1.11288636525920,-0.148923603193632,1.29583504944705,0.770601044529116,-0.831621768324915,1.26614758755803,-0.284544167794816,0.550422382656263,-3.57931067017194,1.58465181495767,-1.14934158866926,0.479419089096956,1.63814434842346,-0.238698602178349,0.0556109906430061,-0.426645399522091,-1.29224465151586,-0.413151341773662,1.27967613023365,-0.742507243289731,1.04524803211557,-0.685031799528997},
	{0.970561281694700,-0.107475420060084,-0.0852482932138779,-1.46655896494307,0.422844591419611,0.486568463568740,-0.898422729712241,0.302799884462149,-2.00019986038886,1.69758814076273,0.110576070091914,2.52080219639768,-0.922173237310810,-1.03043022059044,-1.17911951531366,-0.356975463577286,-0.279318276299975,0.706248488318022,-0.506161235533978,-1.19502013183517,0.856737107783894,-1.49235118034905,-1.23424882836056,0.327267729017713},
	{-0.825179849013050,-1.42440805609890,-0.774045495822360,0.126249471724314,-0.539729986236261,-0.0350682949521093,-1.06818655702559,0.0828158173499155,0.578322418304771,-1.61566549206190,-0.911330264892405,-1.90880676869087,-0.212855646781204,-0.0123734479863858,0.460111136700962,-0.342172405940819,-1.05004924630345,0.770145628089464,0.340981265179539,1.27440227077912,2.58611522115677,1.24080030177845,1.94645172321974,1.96038702574399},
	{0.968390235447959,0.536991706311429,-2.03947629553865,-0.133687515970912,0.00657116954533791,0.203057774330479,0.406295850803362,0.0732259344922193,-0.645741842297268,-0.588578577343538,0.0694063107654336,-0.785695013009188,-0.609378999179127,1.08660947208002,-0.634769289452070,-0.726655699134566,2.01566200967871,-0.839212255269633,-1.01837703598239,-1.52507014161305,0.842475898478662,-0.549487485626802,0.546309277161328,0.421740561882668},
	{-0.127474543997572,-0.183132591850744,-0.446538590348560,1.24830659884480,1.51383423725225,0.356227751737002,-0.950566647144083,0.246059867131344,-0.818380337383706,-0.669621124450670,0.625062892088837,1.57377540190222,-0.349303827063864,0.991796899327798,-0.828674040813837,-1.19156643112021,-0.320075581178706,-0.250325950767246,-0.388981422483076,0.819972453335173,-0.108856960283629,-0.147861216920261,-0.940034784281363,-0.368506217043054},
	{1.00001580412728,2.74376806744532,0.198348800375947,0.191058971820412,-1.31392207889198,-0.922850721763392,-1.13559238975070,2.71644941068981,-1.22389548607724,-1.61707655179393,-0.393089274838406,-0.309083174663598,-0.206092000652071,0.324241100084335,0.218603100368347,0.0268457004643267,0.157096583022409,0.480108837007205,-0.293604220600776,0.112546994271111,-0.760874451273897,-0.690788480041541,-1.78879266853646,0.588127868991309},
	{2.32895570832727,-0.393846855461248,-0.207475885743726,2.09635464097429,0.818805281235037,1.44641418666735,-1.33851692486652,-0.191186653421509,-0.00734737073071501,-0.725050952740332,0.721966774055235,1.50781766816201,0.319756939407790,0.0995168967912313,-1.96012335779457,-2.36696041044840,-1.40779614780274,1.58898356564115,1.31334283939131,0.272407644449243,0.463276338049564,0.392534071096992,1.11424760483754,-1.23186683754272},
	{-0.0529433960031122,-0.561029889190599,-2.13826591421295,-0.109487041953513,-1.00825596127070,-0.801726046457287,-0.0815700305750364,1.33687712756566,-0.243153756099086,0.366947517268931,1.73964274583034,-0.985857024150810,0.981011797486459,-1.41987399757675,0.433662245717105,0.437307641281532,2.07161581597244,0.248021018700850,-0.474304509666437,-0.341332144002084,0.598857836306540,-0.653322251121505,1.12514702753972,-1.52462678588475},
	{0.829999538627260,0.592200776899034,1.20131502722767,0.00366551186646320,-0.682629937876162,1.21417738722690,-1.16902290004282,0.100297986110566,-1.91066641160158,0.837075109489327,-0.690215157198067,-0.109176057858896,-0.932024803857536,-0.280837535242641,2.26504803938622,0.400090575133511,-0.0393545490974543,0.855661224825440,3.34169255895810,-0.0173146174994806,-0.382481132336283,-0.171565982075348,0.562977299063106,-0.769455352229999},
	{-1.68291054716526,1.35504698861401,0.573849443490208,-0.124663053644581,-1.37574939247375,-1.05386227091650,1.31801652598118,-0.0608943479733746,0.0978499129192394,0.283169292344310,-0.619760395932057,-1.44775415923389,0.225518694272184,1.73902273617995,0.511370736629031,-0.723088021583302,-0.0386586302100685,1.45266967903745,1.15414502914668,-0.461555179894505,1.72275744761879,0.779378469288716,-1.23495455527379,0.430627011739729},
	{-0.0159893568422075,0.811199221846943,0.259783182577654,0.100990788016571,-0.0263957144992176,-1.60578214975805,-0.734741918762956,-1.12839256837637,0.467666039514590,0.411245496355350,-0.0296388702776358,-0.180910182284065,0.758738792440045,0.300628072748007,1.32218284331599,2.71318420589614,0.128678097849353,-2.73261977955926,-0.0111169843336103,0.00809149158285338,0.999421956407488,-0.683301644329008,-0.830502910737840,1.38236110063492},
	{0.579889130762392,-0.149280741047184,-0.284770995890637,-0.769157042501169,-0.941996168265432,-1.31763589385896,1.26774798971457,-0.611324514799514,0.453065744875548,1.40624719426866,-0.631490193842568,0.179981712600471,-1.58052032799902,-1.10961287498944,-0.941921474101928,-0.812729787062058,-0.565126694414316,-0.550064796166977,0.854953675282512,-0.844285325564636,1.11624718007037,0.449355719096784,0.631217376051711,1.22119341809919},
	{0.842334231644150,-1.43527890070004,-2.13829903291312,-0.683523513249450,1.16056858580115,-0.241227438942382,-1.04999800328509,0.857116888092958,-0.0809443176545306,-0.725529977432226,-0.0515340608277010,-0.0747203024915647,-0.437481787619156,-1.35634982589108,-0.936036378540475,0.112150472740488,-0.298836784249636,0.854747516848429,-0.164296933388646,0.00889237882436105,-1.53955071307535,0.219631479955824,1.39993578079781,-1.52844050456055},
	{1.32031931967773,1.09997027864978,0.0208115194632999,1.48504670628728,-0.216236642650015,-0.475588302522790,0.798177111141499,1.62283908368347,-0.279626662424053,0.0632361699653339,0.572823274151919,-1.20287188669825,0.355906087962540,0.221509384897882,1.70326736984328,-1.63837229803191,-0.0598211910792187,-0.508505593313148,1.13658576103587,2.20334203361517,0.0470613267703922,1.02395033104942,0.374324092758442,0.743791210284305},
	{-1.20198428028829,0.820022444949388,0.492302583513873,-0.886870863428185,2.00091736371732,0.880303583628728,-1.16014081125303,1.34539959466578,-0.127167633094123,0.118726596784785,0.642685441030906,0.481289764693624,-0.0298849074262425,0.813361486101021,1.44167637597871,-1.85764521395797,0.750695697784989,2.37809165999352,0.693310422072442,0.510121209288291,-1.13507794018972,-2.17812665437094,0.267314464779924,-0.181018284424864},
	{1.47869473129398,-1.88545047812932,-0.0813970467746926,0.615595368754282,-1.04572042601351,-0.763159106339544,-0.978596684320429,0.739448405272696,-1.46495305144023,1.21926475129437,-0.00899392796149321,1.07463055049781,-0.966122837417301,0.852238405905143,1.26196798414107,-0.267242342374099,-1.39577064321443,1.01048701251749,1.38599777101080,-0.520168753012894,1.93503495665607,1.18677136534804,0.455977792018702,0.675926288122755},
	{0.775536509769034,0.744290224438857,0.566238685655462,1.22947768256616,-1.58337099569795,1.68608392830665,1.53729145625035,-0.206956336684046,2.05174182434915,-0.189003674920325,-0.0151618569335105,-0.893972193724645,0.372168822822347,-0.288126919242843,-0.107613448478125,1.62711464050034,0.0700769845040800,-1.10979650584575,-0.0773220209900217,-0.321566979548746,0.219409531845606,1.00046433035920,1.61628887552637,1.20818951089771},
	{1.88165286889271,0.277835218322606,-1.05252091932437,0.970994476057427,-0.373269527275873,-0.702063691279340,0.768426514901842,0.204465538516491,0.929642495430930,0.519689844933559,0.163755490072022,-0.912183650218678,-0.934093884700311,-0.599221971852182,0.413673503367367,-0.692499313660713,0.708854939989781,-0.331424651050463,-0.109307747672118,-0.630731864853687,-0.700043338371946,-1.63274753248016,0.300739106763851,-0.474993954467514},
	{-0.741280657184841,-0.226916224335160,-1.17723428018358,-0.375043361985206,-0.565713119989232,0.334576574336965,0.991287439455892,1.26816524718503,-0.469887920332312,-0.362396357986338,-0.456340579274086,0.101636638020978,0.743753577682598,0.578619215896567,0.219227892511625,-0.452624026310848,1.39782845754788,1.59796111877539,0.379499326298836,-0.364489535986110,0.776503045745492,0.846462628199273,-0.0502119949107061,0.800917170595459},
	{0.439637784349230,0.688999594845896,-0.677723898927719,1.40867767592858,-0.0930956260318697,0.896008837159362,-1.03562934915026,0.117774792895295,1.31474959520891,0.990680294853882,0.781100068644830,-3.10110517407373,-0.357421744582543,-0.667264167964398,-1.35385324500506,0.730126026920874,-0.115813199486716,-1.25815348623478,0.290365035833267,0.412231930702102,-0.985235957679018,-0.879781298330776,-0.446980274072429,-0.0128076622008641},
	{-1.10261752659618,-0.908749144385069,0.838109934737114,0.133573694555648,0.562123935430126,1.23909176761620,-1.13579181908419,-0.642329156322238,-1.24390251168472,0.931498647360942,-0.666150186857284,-1.42621097499958,-0.196917508896404,1.39763754483750,-0.299094837034111,-0.496928418996896,-0.550898224335906,-0.140794557409738,0.608139475623093,-0.708400857101654,0.296487167102037,-0.992268799719951,0.480444407159101,0.888994117263472},
	{0.870645016773537,-0.0905899679933599,0.0901512176527088,1.32325399722991,0.640937542363159,-0.264308055240383,1.18277406729729,1.64952193170731,2.01984568567557,0.580860120058549,-0.589464433881926,1.11216394988398,-0.332218865200875,0.593252592464950,-0.00658994004605764,1.17870508787383,-0.155788174094180,-1.39311114953479,1.27046128969774,1.23707951842643,0.434193644075836,-1.42124466402710,0.0694009873908014,-0.595932919033787},
	{0.478061280116045,0.426712958593760,-1.08275745070695,0.828467812970028,-1.22215461981237,-0.573602752076130,-0.189432408418256,1.09784830806541,-2.37113863839733,-0.194433296242624,-0.184846668096394,-0.0521988955680625,-1.21941279207248,1.70285735185194,-0.525284523384400,0.291016247344308,-0.577141976210156,0.359114252456639,-0.311417303562068,0.175336015971827,0.963358158436338,0.112505041475310,-0.551445682807773,-0.673522452330338},
	{-1.85021974470059,-0.708000293934556,0.372757512858858,-1.49730660843535,0.471306852220266,-0.884045754727498,-0.138830913282043,0.256776741217537,0.574487009728137,-1.35969397633963,0.279470513851228,0.0646324605826496,-0.219950482924136,1.04998876796094,1.03131304239861,1.39188523413121,-0.392294637692802,0.136436542391818,-0.618962967953592,1.48368120396777,1.56008805679656,0.799190254833102,-0.408281851808842,0.0363096294952269},
	{1.89682612922249,-0.642473045197849,0.0791924876407023,1.70155123054350,1.18633280455833,-0.601408952483295,0.163587564481667,0.598876668142473,-1.03763052091822,0.388014122041489,0.971976007126396,-0.598094248421393,-0.344999126459138,-0.0875127246289016,-0.881078924227093,-0.472284104088186,2.36565210565502,-0.572859768939217,0.926880471758325,-0.901796522406783,1.19985247481031,0.837731395683475,-1.06580407576751,0.0313442348405649},
	{1.33940280784167,0.147061700703026,0.495452128302417,-1.13507208496084,-0.270109472570089,-1.42831809321365,-0.230018487898262,-0.303524362897147,-1.94565944785569,0.809507217937471,2.37731197446058,-0.316360366968783,-0.172353627450944,0.412099791484200,0.284362040663348,-1.01716149172100,-1.95787801982404,0.0733796141386082,0.0106506831437175,-0.245346587727408,-0.711219426026796,-1.63417999679793,-3.07007725858299,0.437998980679276},
	{0.834912459769904,-1.54345410609173,-1.14328896604117,0.0343850908806732,1.40652156021802,0.803523678485422,0.978903056651109,-0.408793247656276,-0.660672494763325,-0.244562224570586,-0.472795449627627,0.994420968032790,0.301298646951532,-1.17395835893662,-0.0663116647273581,-2.13349582254739,2.17774089566850,-0.515483125752149,1.76745337198053,0.679567568361760,-1.64405925637272,-0.739163160072146,-0.311798212943801,1.41360127276384},
	{-1.11982366189007,1.18891080587719,-2.49141439610068,1.32414135922970,-0.628598792935445,1.78788687722027,-0.225219865636651,2.10378456104981,2.17289701973228,-0.771816785532100,0.958603428225617,-0.490500313638707,-0.821074940464913,0.280754912747091,0.932882332144690,0.180423717438731,-0.385306158361352,1.79345223620620,-0.669060925003687,0.333410937471628,0.656466209122064,-0.189502790223640,-0.176454944242012,-0.154900656830136},
	{1.86432785608916,0.474889705662374,1.03122920588595,-0.392247757839318,-1.00002703209522,0.305597212796933,-0.00423811125719149,-0.0512764963498619,0.895584769510965,-1.46963897925918,0.420910626780283,0.210496851314776,-1.65985478949769,-0.270320567398821,1.25730135719678,0.721912130679509,-1.81039927051135,1.78431650081625,0.559552709408398,-1.82817334088894,0.153095962997568,-0.428217791370233,-1.21912626957080,0.616843107242987},
	{1.69963838554968,1.34972838004697,-1.20232133307424,-0.138448059248919,-0.553381913910328,0.975399080611046,-0.342333457072712,-0.155009146613112,0.0755726941653877,-0.140250086702463,-0.890831464324785,-0.248364950460555,-0.103535625983007,-0.298265374462417,0.584363237704535,1.95605708840908,-0.0940763319140738,1.01761290694391,-0.000129271282182470,0.428993721932266,-0.480455625088654,-0.314086186030785,0.304654392599413,-0.553522030100011},
	{-0.981711840385121,0.961354259362962,-1.64217155952403,-1.23555973071314,0.819965965957975,-1.96356334028664,0.827321137416025,0.561076678604771,-0.516267901227068,0.984588656632676,-1.47096161031635,0.564590413033644,-0.359787572971066,1.30867432339321,-1.70506226018414,0.152433036709129,-0.387350854068096,2.26912220987340,0.0831108330076296,-0.550281147854583,-0.959686722213419,-0.947802688515890,-0.723194893312780,-0.269051627642761},
	{1.04253128184570,1.10946772110685,1.53921503849724,0.162337183799957,0.126305344983417,1.46835656426994,2.38111900451799,-0.318570610313196,0.211865425638875,-0.168207631121562,0.0910902495165170,0.252180242768158,0.0326977413228814,-2.79135339915141,1.20476958662480,0.107784170504020,0.735730878058435,-0.121470083076582,-1.22924144522736,-0.0694638357216309,0.296556413530964,-1.07302435667360,-0.496373717011673,0.725981724249060},
	{-0.608574632412355,0.652685583780621,0.387010217884241,1.15031908279316,-0.296011959241192,0.329616446934707,-0.778225431519372,1.94829625636015,-1.32881022771414,0.117939020945663,-0.966410053325438,-0.892251313556542,1.25566145930211,0.219115774690173,0.523204413716126,-1.22430156860748,-0.553654542428334,-2.09120103791032,0.763109533703760,0.620294180344409,1.86967727802638,-0.310472865473589,0.589113820320943,-0.104256773011925},
	{0.959427568072172,-0.281660446736193,-1.05603310781408,1.57680064451672,0.516490087409914,-2.24168259112993,0.0881215700245692,0.235359980832740,1.04321524161377,1.23355195547392,-1.10759921357221,0.474100060182107,-0.966654099211863,-0.413899181575873,1.27023536450733,-0.747665485300664,0.263269553847496,1.01971558819016,0.776383475987200,1.22144647499263,0.315299795010692,0.830435698897684,-0.613127611282866,-0.865984487440142},
	{-0.590702260811153,-0.731921382492355,-1.46535023121628,-1.85115346589201,-0.634847444521404,0.0792905565167670,-0.586002806694299,-1.42838035567258,0.0538877438282886,1.60529052737376,0.163238559198553,-1.35645103426779,0.531443544210390,0.360900973730114,-1.51029305189081,0.561374645192112,-0.849548967566752,-0.272873041214980,1.80858246282480,0.969557565358787,0.439613209520279,0.442953167446133,2.02084155939857,2.01300311459148},
	{0.739009987589272,-1.11054570087009,0.0219968778260701,-0.725214387937777,0.468410684500442,-0.836990165636550,-1.34807653718490,0.581076066023832,-1.51119378213360,-0.597865471524523,1.60240275969782,0.298432928782473,1.47217219751222,-0.636892641784603,0.0728112143187199,2.24075808812043,0.473152876977141,-0.686015838208309,0.665489834406149,-0.209218056669272,0.134107006809172,1.84615249650275,-1.61178971333589,1.50004453231996},
	{-1.59805457640664,-0.440714050551579,0.358376075512871,-1.44887249513945,1.52436859733141,-0.498405892624118,-0.246448047589523,1.43021200160681,0.0285590766872634,0.242804104180296,-0.270740342063096,-1.05735873771508,1.23984667969895,-1.19984129174018,-0.328120985785059,0.174359872757514,1.54307060506166,-1.25359674772759,-0.0909955583355975,-1.02171653699468,0.00610664023067022,-0.0862480812997322,0.304910294804248,0.203597720728446},
	{-1.47239139178493,-0.991255742281430,-0.700447715566861,-2.00635604710710,0.0578306352927628,-1.61760922480197,-0.126575240859061,0.655390160314695,0.000880647761901655,-1.77785020654887,-0.485021673572416,-0.0255724312832840,-0.217857873432054,1.25934973672012,0.0421713280270592,0.811145691552348,-1.47353337693697,-0.234881134182423,1.67021171413464,-0.299058244088310,-0.308553634829663,-1.25311209296640,-0.366027857887439,-2.13080818985433},
	{0.536307997899194,-0.749377156107344,-0.734670044875642,0.106393749738150,0.901744660517105,0.203007160840657,-0.108226383063066,0.860728929051286,-0.218464089311319,1.01349339463749,0.720041221585862,0.755038056384406,-0.0822400230027839,-0.122268390670763,1.93564941821524,2.53891632876545,0.955924092403561,0.255463435266824,2.77081141652654,0.0494287724362555,0.0988216305082044,0.347056707749493,1.84226735058351,-0.229235459312248},
	{-0.993469645989685,-0.426300023575072,1.67373102188157,2.01869814242771,-0.285045138058528,-1.04263219396190,-1.10352216174090,-0.731965039911537,0.427092699491869,-0.739668588085701,-0.682608211282013,1.52143665542941,0.129453345557286,0.406733831934600,-1.84803713802974,0.467016603233517,-1.29309434590128,1.00037946053560,-0.684585438227675,1.71539491501026,0.103126937860569,-1.00769953118448,0.415356542806697,-1.41673278140927},
	{-0.112932140630300,0.765326741567614,1.01929551719943,1.79712782712661,0.280729483544699,0.956875676470475,0.558981081935650,-0.600229501595922,-0.292837407189488,0.546451450496598,-0.187907776170475,0.576153288166858,-0.621169473159106,0.683008074473245,0.832536911386649,0.534489629583016,0.161923600958334,-0.917372905427040,-0.894124653576171,-1.32508710143214,-0.351220673153917,0.954561320696871,-0.114599339594758,-0.387683943076714},
	{-1.12155613585755,0.462494771935167,0.954803474446476,-1.06037827787215,-0.745997194164934,0.389965086435648,0.776298130640351,-1.12773472626177,-0.519463628917583,-0.419300304912426,0.256751342070679,-0.0787852373282493,1.48492499334652,-0.381981780284025,0.547806726565993,-1.27039566195224,-1.42453254633080,-0.708861393107581,-1.31555748647405,-0.576658129294245,1.29647923704404,-0.690580660830432,0.359747269747110,-0.479641028945968},
	{-1.35010706241370,-0.770916593306605,0.484337226551982,0.263274546156133,1.09373673449635,-0.840166147341665,-0.114124675423158,0.203212154249994,-1.02346488419530,-0.785032691542020,-1.79045067066428,-1.28228901225711,1.90374984938565,-0.344988425508616,-0.0576977672962593,0.437484351349945,-1.81823449306707,-2.19539789922597,0.154993096451806,0.186117866790064,1.47490395848828,0.132873154464977,0.413366759449598,0.920329447876691},
	{2.37539923450931,0.525642677372173,-0.0145858198671627,-0.487116445358948,-1.57873454096020,-1.05416760018684,1.05622112533485,0.448737478893836,-0.910373979238912,0.793190268153784,0.0457497389050604,-1.56042641996371,0.160241597898541,-0.131413143660578,0.143306219673906,0.995173985906412,-0.0232481331159946,1.42146698366501,0.241259047962806,0.366335138400506,-0.209036371146658,-0.485915536129475,-0.216915169179094,-0.0957922408006401},
	{0.664548013613553,0.175311401380841,-0.502741487104248,-2.28303379426226,0.273246386493334,-0.522022732265125,0.454420609207280,0.420028325835326,-0.527374931235184,0.502217107514993,1.86782069630552,-0.637926602077349,0.607555627984905,0.159188062999719,0.766693355143248,1.54159003349449,-1.07951600720527,-0.0933243776807981,-0.0286784148947762,0.174180838913012,-1.27226745907287,1.61716840000929,1.31412708873765,-1.73974261468690},
	{0.769652920780992,-0.377582729229418,0.491378315322452,-1.08236494876239,1.24160814464140,0.237991978559663,1.41338594481547,2.72229142135869,-0.737604566498854,-0.848089491604767,0.861860840796452,-1.02345970766275,-1.94048922445679,0.146210717558694,-0.326160303173113,-0.952294553805809,0.404140829510059,-0.0642786226949029,0.706046633682507,-1.93929289252178,0.0434207503551155,0.674908065076736,-1.18550246427092,0.129019481817469},
	{-0.685753897486466,-0.973123875751535,1.00701365666878,-1.25411725302625,1.61345733059044,-0.0152914914894149,0.753065272610931,-0.384577971126246,1.13824810853378,-0.222708958949949,0.964887843648076,0.613923996383035,0.408831133846182,0.696767675386034,-0.839331041405334,-0.522915993123739,0.840344803835071,0.751585548172865,-1.89451417933699,-0.272584744745318,1.90083082462653,0.370846494345167,0.387857588570094,0.535267979610616},
	{-1.78280257415508,0.426562534085407,-0.395923106872385,2.06539273781685,1.45958213652417,1.61298598747752,-0.274511223063494,-1.37494616496082,-0.0873162640149724,0.176243569067289,1.97583228286430,-0.388597578835724,0.174600152084728,-0.426407177845920,0.434902648202219,1.45340016348509,-0.184550507126133,-0.255061217004782,1.44383303855489,0.678129190745412,-0.919275477999566,1.62399944068847,-0.320107197116252,-0.679523655700665},
	{1.22245999299158,0.121577001910808,1.74685988886942,1.03287831822406,-0.809421557004884,2.38502333887419,-0.228614853876017,-0.171678721408862,-0.108684233502089,1.13637850065157,-0.230447177456435,0.367528901912967,-1.03701844542477,0.156621309829866,0.444221855384122,-1.01028058508665,-1.95459081217965,0.441238555466228,-2.28974454619094,-0.658528725878700,1.89135910735042,1.08472341135705,-1.85619076168970,-1.71643191414614},
	{-0.507629504458605,0.396991969055306,-0.551860383369296,0.492087288311781,0.586343332293028,0.153187541282527,0.719106383892600,-0.284679818700829,0.360366449673823,-1.82787811388317,-1.09457853506337,-2.14485059788348,0.478266971512067,-0.742364019920774,-0.745852796079719,-1.46077532412021,0.451545834774580,0.314653800040232,-0.792682898262468,-1.38590622332429,1.06251373176830,0.746596539600835,-1.12115071495413,0.00552223528521381},
	{0.794342487960414,-1.38527630017591,0.0586363850838527,-2.59377692814066,0.748356661453127,1.19195090805732,0.0753266145222268,-0.453105229285586,0.347548215709872,0.113202287556300,-1.15290031007759,1.22727427416114,0.0821081894402745,-0.132976277377051,-1.79069365494255,-0.251614637732345,0.611333342532735,-1.62237456798478,0.320963619309601,2.00993554190668,0.679360070357851,-0.187106215608276,0.577808620327029,1.40770729896790},
	{-1.53632688496375,1.83795523223071,-0.588337474843178,0.484114909047860,-2.27503434485525,1.76529973059274,-0.374623744593256,1.42665699122710,-0.201908010631905,0.539813141516830,-1.89464324442806,0.167295118609797,0.0557533531731390,-0.854947033460368,1.42996384579288,0.588060323972854,-0.650516761915190,-0.921893354259901,0.0870386542711241,-0.345326354300742,-0.178933108197504,-0.807329980051872,1.10541385296430,1.16806104410907},
	{0.175574865169146,-0.174738860148517,2.22023345719605,1.07285759964189,0.214252602976491,-1.63537192091025,0.706744873061729,-1.35125168347956,0.821222993939731,-0.669229066831906,-0.575814426320018,0.107419079609391,0.213802810062060,1.22500418692724,0.0104992548366143,-0.152909090835808,-1.32950147280936,0.117254789478291,-2.30109627139937,0.437355035753417,-0.831415477857114,0.524585083560462,0.0151331036837943,-0.905345748746506},
	{-0.344973783088570,0.122330479469232,1.32600687378171,0.120441357823197,-0.186709853025648,-0.206262618871980,1.22875251969229,0.0637588818074109,0.932047441345998,1.21012228880495,1.07059825784521,-0.694818753873359,0.0501874695786862,0.783280701376420,0.911655380832105,-0.906225739381669,0.306929046097701,2.01996538882549,1.26168887947753,-0.476425876718719,1.63554369635826,-1.65545079034681,-0.265239787499748,-1.14725630921775},
	{-0.812246303219034,1.43726700526116,-1.53170901914866,0.309212545331379,0.761828761548063,0.573555381340383,-0.819013619225675,1.69193550658016,0.776322853114137,0.143579648963599,-2.26845051448014,1.02908007914421,1.14337357232553,-0.876179925814309,-0.0709093250243774,1.64540580716648,-0.500628211877267,0.288433769479436,-1.09804044546780,0.103836705790810,-0.421808465162733,-0.564600393671728,-0.935395041093883,-0.638098701784178},
	{0.987845825803690,0.932847206396237,-1.52980599179235,-0.421939917506645,-0.00169859545472751,-1.54977742273694,0.668822085581103,0.266576296670854,-2.14895287723124,1.05210440422480,-0.597317136389166,0.0489618813773060,0.901564552255431,0.707797433872612,0.648211945431067,0.504585322341760,-1.28361299679590,-2.15195425534209,1.24302985292620,1.73691827518564,-1.26918170063917,-0.490935096971810,-0.0496250198614186,-0.793711007190200},
	{-0.0511534690116137,-1.07256661488419,1.52986839708309,-0.0876839810601056,-0.385070564464393,-0.0861699389630192,0.120240222060285,-1.39331368624615,-0.808890011572646,0.344071362360313,1.72160103054438,-1.43761846503959,-1.83534956845066,-2.44953226617479,1.03243439699792,2.14436110733400,-0.0338655454390022,0.930011384982936,-0.151907260032266,0.0543430269759337,1.64814852098408,-0.845258772813954,-0.944105437205619,0.804952531974685},
	{1.50682032996462,0.382575972758930,-0.758093158624453,0.503231817884934,1.43220429750477,1.50279674617876,-0.102194787201708,-0.747748287009887,1.47897377627097,-0.473854206262635,1.71690348971225,-0.971964305813420,-0.716950481193986,-0.825012094580071,-0.0644343141418150,1.30485605314538,-0.215921978076583,0.455864508814066,0.712265069476639,-0.818834956004930,-3.05825674447800,-0.0456747601768256,0.866192055736835,-0.633382492164077},
	{-0.776304285512492,1.86490064266902,-0.628246992113092,1.62410704822860,-1.05806213884354,0.416331370851530,-0.130847874281300,1.45387135527991,-0.0850429577006007,-0.247346792580196,-0.784192753995701,-1.92554488275745,0.738345795835208,-2.02402009154658,-0.665289120903516,-0.460794872014850,0.0688678144361791,1.51820278427422,-0.153366227504211,1.12671725098290,0.798525933033871,0.0427101510850172,0.0997563980183512,2.09427015996265},
	{1.60563591947244,0.861817560158565,0.509372052251401,-0.0104716039520101,-0.0206004172167855,2.03239796395272,-1.04197881729954,0.0586039724513216,-1.11562006532462,-0.550320389560133,-0.984636623787108,0.902217151675998,1.02430350816062,0.425411014545802,-0.119619205640304,-0.346613138094493,0.827446140662174,1.02435983436933,-0.552727837407017,0.529201307142038,-0.984431965021811,1.61080939051387,-1.17102416660285,1.32033630780183},
	{-1.08011476529022,0.345666134480873,0.310400044299081,1.25140423116110,-0.311906066277461,0.266371825451243,-2.08386121870470,1.42597096295758,-0.423839623956274,0.754038826376610,0.450144535140438,0.473477101910547,0.0319761886001227,0.689274071238698,0.296843146553465,1.52396204088537,-0.664160344156147,0.932205284697698,0.995504071120819,-1.28871121973960,-0.743039953537099,2.63447292318903,-0.0348787818278838,0.395789456771244},
	{2.27581118173509,2.19925724009071,-1.11142643822231,0.0376670748668850,-0.619966126551986,0.0718718464230848,-0.00953903860874936,-1.06428784143085,-0.380431437102629,0.631597636911222,0.892907862750728,0.00541874626378663,-0.277674074969420,-0.662889409721168,0.381670634614977,0.390874216406597,-1.63455694184253,-0.183941244792336,-0.00647908304064301,0.361166540516714,-0.137336059333389,0.167968857291024,0.260974158421519,-2.08261832948413},
	{-0.155875710187457,-1.57801140015497,-0.628483653360860,-1.39006455362811,0.610199179169367,-0.502609058817823,0.130290720625439,-0.302123235074827,0.0746604483435589,1.72850976432869,0.219302464157317,-1.33464393654272,0.561024407902529,-0.398503533927636,-1.29095520646953,-1.35228983538352,-1.47378339755329,2.10181359924076,0.0404521469205467,0.307214766191715,0.847253159721071,0.0896432200810448,-0.469382822132394,0.454807281088036},
	{-0.0300799455726130,-0.517263632417563,3.49220070724288,0.488000551206569,0.865558326094787,-0.541412582907862,-1.33510092853717,-0.102967962386127,1.46984015034622,0.0544571088199406,-0.00415351702304125,1.55044399783780,1.42590344013294,-0.515973278592756,0.645910595446371,-1.37625324005766,0.519277390839482,0.256389182907752,0.238098427531861,-0.528351484886597,0.561707345549089,0.180563549617944,-1.37015227314913,0.0898113521769497},
	{0.903568108132595,-0.410965250834172,-1.38642631596574,-1.03045855625045,-0.186003818917468,1.52507067952735,1.44013969919854,0.249703813110006,-2.24296896344629,0.312854471398910,-1.62141837343100,0.370514726802487,-0.738134323317332,0.879121266081328,-0.831704828792320,0.0376456486272431,-0.520599745902695,-0.905026875842384,-0.541296905075364,0.519214107526212,-0.400818851569158,0.988410646689552,1.07934431200723,-0.0311949674979855},
	{-1.22262570391591,0.118078162974940,0.414989048715116,0.0324912987373324,1.59875369168518,-1.21302430126332,2.10391934856800,0.281109581396522,1.00210213308351,0.258310497717526,-0.756943411980362,0.908065557328760,-0.936024699053897,1.51335779699018,0.889821527409724,0.136528690105917,-1.17368948298787,0.463117478381338,-0.396481136793295,-1.13614240547571,0.296673837815791,1.60523026205160,-0.712713410894411,-0.587373109317414},
	{0.0473624573747024,0.646026534667352,0.563713005678039,-1.77619979065598,1.65880889416386,0.550726811056961,1.05057424020074,1.58508332624781,0.630109444950973,0.435146854939779,-1.53956632579244,0.937056116258244,-0.789294399325886,-0.275602671635837,-1.11634996519023,-0.0556663014748670,-0.175622134989402,0.390798244515567,-0.595791666023248,0.0615448943436489,0.645430617630498,-0.507744946489467,-1.74203025602995,-0.0161067321868827},
	{0.684423179756939,0.652965615022206,0.0925645866251655,2.28693623370860,-0.967253599608041,0.399831253563445,-0.262192091925390,-0.700161647609985,-0.804289837364997,-0.570435422177661,-1.76843431729383,1.32503798226798,-0.0906668105621564,-0.564807158698928,1.63689182444078,0.856490667282066,1.53326393146486,-0.00944038488746378,1.19631856811741,-0.836974107973678,-0.779716465365210,-1.87416228734196,-1.41934623360165,-1.12401326675343},
	{0.186344162274802,1.27695389440586,0.626568323303201,-0.473505676650878,-0.198671771996030,-1.04613161612516,-1.32421441158740,-1.10646586516331,-0.571929522027778,-0.0435131837481183,-0.588941658806033,0.720636589619816,0.924261936299435,-0.601689493434275,-0.0618986962071262,0.199312687073913,1.30320317562822,-0.813748019398199,1.85715338157330,-0.144776874603052,0.816809393343007,0.0413702791336884,-0.920387292516318,-2.12752440131460},
	{-4.07699512494987,-0.199539971355939,-1.04997148487495,0.0758912065078454,-0.363844269678947,-0.166374977636663,-0.467062913838159,-1.20953386475512,0.872333093562650,0.421050323221523,0.159337814826010,1.33285875858848,1.16613094555819,0.718291999027339,0.179592211182461,-0.847961926656399,-1.12297064249964,-0.945333207716915,-0.385755490784999,-0.479412744600652,-1.83487523453930,-1.59833677852785,-1.66403144102068,0.0921810439207058},
	{0.422486969347235,0.730342220984916,-0.297068099402665,-0.767934244921403,-0.369487617486686,1.03034117351527,0.339371319203566,0.635416085600871,0.246120596883905,1.47213633454743,-0.473743505982800,0.0308447495202982,0.523817074874883,0.925171027710101,0.539450051725683,-0.822167589754318,-0.204149634033917,1.28924342180838,1.87477572699373,1.44095541702830,1.65340689707260,0.000848783368601452,0.403395030273021,0.832859083159692},
	{-0.797851238939800,-1.79520706577580,1.07118827931729,0.119686646914333,-1.74147001701864,-0.424432693837245,0.409436752437947,-0.793750381802396,0.610194931317922,-1.51329951971287,-1.15602456049763,0.612651513940490,1.04419987884773,0.258648805719366,0.556376502456297,-0.300724052207035,-0.310251415834951,0.699721677770548,-1.00786872339116,-1.43624923273835,-0.290367483645936,-0.221493894215082,0.924578373516768,-0.0714334352031677},
	{0.0820279675395156,0.737395470251142,-1.17878897029892,-0.314581231776499,-0.265669020638510,-0.0858328158778426,0.327097373564818,0.403919213701272,-0.0525332002983146,1.62808401307825,1.57249057581396,0.375848042438157,-1.39645138056184,-0.220906389983666,-0.0811396316393244,-0.265625049097871,-2.26913721778952,0.202938259818933,-0.243049196304684,-0.245437453249147,0.285545844164578,0.265374641998290,-0.913972571679840,1.43730732388810},
	{-0.360881640697103,0.477922794879151,0.672065073112371,-0.0517482425877550,0.508775892305627,-0.498072398240863,1.00683629389298,0.729210892750326,-2.14286641753677,-0.171840348881078,1.24265519867666,-0.809743353327966,-1.14112487131567,1.00990078251918,-0.0327908430514131,1.64593889507871,0.223500201731149,0.480919449334389,-1.58123319318694,0.894993376563248,-0.410407508751754,0.0167324071466119,1.08921713540188,0.435557714819234},
	{0.479501597753636,-1.62148432799086,-1.59411298288245,0.513864740965619,0.848163796175026,0.956134083646903,0.404823169944563,0.0186778228173571,1.26142665007600,0.250672180510012,-0.733286060187120,-0.564680545666118,-0.0594299218089515,1.24949961601395,0.443582538059507,0.0169570261933445,1.11052963965018,-0.414939502091411,-0.145577926400629,-1.51548603294568,-0.134107642801810,-1.99997042988876,0.542498408754809,-0.162591619426783},
	{0.0598299605703813,1.56815439010314,-0.533201044851298,0.481028885137308,0.539167875934646,0.869083602907459,-0.278017531102946,1.77322413041092,0.0365340297007513,0.367851397255997,1.44847005004355,2.42374619923065,0.496114035098842,0.652801295491830,0.591251430993131,1.09227871576004,-0.886408381471373,-2.09740755956409,2.11310664186845,-0.204055411416867,-2.11088414817611,0.581122515409875,-0.649639885593960,-0.789066819316458},
	{-1.92257104712739,-1.25740491386321,0.114253033264056,0.134017600164178,0.424903879655202,-1.20558196247149,1.44715515408329,-0.942871465516459,-1.07306929314375,1.45064392102450,1.71708988230881,-0.348591118808203,-0.731245317943481,0.807622763345278,0.0286237051383100,-1.50666813422860,1.47670148169474,0.634746557582411,-0.310157581260168,0.764304554515254,-1.45083439539740,-0.517902141186020,-1.08914763724776,0.451274547912546},
	{1.60979940963047,-1.01037465882375,0.988334254549115,-0.982554830512053,0.438571250997918,-1.26862584758939,-0.0575310448045723,0.418335349285835,-0.208437257290739,-0.412640356855140,-1.27565735513778,1.30716075683257,-1.35048782532477,2.25538521830474,-1.54385168179172,0.0720114849608815,0.844014095222740,-0.732366427982917,-0.454511099512185,-1.43644245727072,0.447444798769713,-1.09741045222374,-1.28846798580154,1.27463927475803},
	{-1.13419101466737,0.732344263837403,-0.677152311398676,1.58918161066707,-0.453363882120400,-0.0617744387494238,0.155510051849267,-0.0476447117767352,0.993135606453466,-1.30374947004775,-1.29812702934762,1.70221686946014,-0.354624277336747,0.538621190682650,-0.577980892222709,0.738962593396019,0.0663149949036980,-0.0983720265149514,0.548997891170788,1.86881141564334,-0.517809566458265,0.294913479555977,-1.47056564891044,-0.157403870483665},
	{-1.37508572516979,-0.678379918823476,-0.215330356013218,-1.71468503352804,-0.540467109833463,-1.12172428578179,-0.0632143338732392,-0.469678096274687,0.763064926084064,0.489835763957438,1.55452124975671,-0.762864827163749,-0.389425681808669,-0.424459399300303,-1.42903587866420,1.58743515057001,-0.903131839846285,-0.478039675619570,-1.78513707082032,0.986279761638426,0.484560924311359,-2.54304811129057,0.560170341406441,0.700973798754054},
	{0.112013292431250,1.43952140160808,-1.48430217808044,1.21956976659817,0.157852030973774,0.682858023908722,-1.21382869863523,1.46326213706476,1.18992674640395,-0.114855088755211,0.00414707674837988,1.29338593771468,1.11463389888558,-1.64930428690182,-0.750055027152907,0.397027832746890,1.42780401449370,0.0580472979539229,0.240239426323221,-0.669032562428772,-0.379957989510626,-1.35326279866145,0.706115774111077,-0.727003233774027},
	{-0.398528036198246,0.318818093587330,0.339423831495891,0.398709781668961,-0.895274362167984,0.651057856113478,0.618506158968688,1.75470621947386,0.387347206746383,0.295239100120406,-0.585542915630168,-0.626433052659382,-1.18759800635207,0.678167563779455,0.759114638185382,-1.47643215283194,-0.403858706746360,-1.25952638322988,0.224410990474835,-0.188134926017481,-1.60297166426305,-0.311058878052347,0.621340477320975,0.840437244371388},
	{-2.18394781673725,0.614889448187194,-1.14118600789891,-0.905791077895300,-0.908074250226040,-0.0874780414913484,0.434985870235792,-0.965408273375302,0.188800522004388,-1.00665351957615,0.287043567980510,1.26160967010578,-1.17441468453099,0.834870144596407,-0.309386247180123,-1.05315062516298,-0.810409931079512,1.07376171738044,-1.16121020912011,0.350443807116724,0.0802110149441741,0.763757033307076,-0.699693923731853,-0.790812249723803},
	{-1.60260729540218,0.891298223797845,-0.0247503089389212,1.43840288022646,-0.464373494434324,-0.0246189680482669,-0.130528240429262,0.690216000861491,-2.30912257877237,-2.07600758364237,-0.226534368724314,0.927590933302561,1.51144684371008,-0.381695247546342,1.28009550254097,-1.72739847400840,0.556820622223989,0.147945467309147,-1.36041068177913,-0.689643132906514,0.584055206054688,0.0661744326875803,1.27813013809510,-0.0806575524672571},
	{0.763447423023328,0.166593721309523,-0.363831152751356,0.331181418505198,0.397705170015655,-1.18449027869102,1.22931847127729,-0.267373450267696,-0.217747906292195,1.24972979352454,-0.789848346290876,0.283844297265974,0.106641049988105,0.545676287153280,1.85676360293783,-0.719602054137489,1.18140036069124,-0.757130281467774,-0.0544235921441530,-0.165267906684795,0.113954642841579,-1.76020028730912,-1.38520830429150,-0.319776671069157},
	{-0.493040918151935,0.162699519578078,0.517215427804643,-0.103647256137176,1.73078278077208,-0.420071058727275,-0.904475059984688,-1.57851540174592,-0.0464528621675749,-0.520080180947218,-0.608940562751477,-0.876035842470343,1.72042462655653,-0.429910560186902,0.0403933391059549,-0.191922086316455,-1.38089355054997,0.450974680564901,-0.465500466960386,0.658000180444619,-1.58027526849082,-0.783242682857892,0.978309653037020,-0.885103199408005},
	{-0.197045786031667,2.08818909014888,1.24753218649042,-0.840466054977704,1.67201069931102,-0.267991339299716,0.947328132176329,-0.422247275455584,-0.523389011111032,-0.126923951199319,1.35336380174083,0.450415229663361,0.581218323557162,-0.549434660636509,0.0344992705660230,0.115791485687123,1.44777334761295,-1.32702908088868,0.145533307208870,-0.815983861920801,-1.38422326315255,0.782408475948263,0.233603467296499,1.03111452261894},
	{-0.195198049113922,-0.973139337660239,0.223605436202477,-0.793331698111117,-0.523325169383793,-0.107858191906395,0.617550321810968,0.254940704780212,-1.31211944737540,0.165551944838820,1.04885913978033,-0.515238312831519,-1.05217971417176,-0.00948413006532211,-0.615196735793927,0.555008956085967,-0.271335749376562,-0.374937784424164,0.819491025350671,0.837467207265159,0.00156427166018958,-0.285680521696559,-1.90024973987229,-1.02055179988196},
	{0.849741461092727,0.747957041233402,-0.808847698583033,0.0822375692891091,-0.230255167334739,0.685717754611076,-0.654305971150903,-1.04584112209504,1.49458076427269,-0.0458648788437946,-0.285719474208666,-0.634464587617404,0.275991502143786,0.405676791412762,0.761116065225759,-0.174855368143465,-0.341421028230980,0.298212099198867,-0.484170673931354,0.699105919181278,0.228557843957781,-2.16857507943758,0.588401822301138,-0.186878488823898},
	{-0.771021898455584,-0.0190240544783830,0.869930532669683,-1.59427906503653,0.905352886489850,-0.346366140170173,1.53354033533607,2.04726740126541,0.231335256069588,1.14034425982966,-0.00154168538938650,-2.16727994540289,-1.16358108543165,-0.514298252037330,-0.597971894403827,-0.377624363097381,2.34173173214643,-0.632156583360998,0.234360891814496,0.950209863493195,1.33451569428940,1.28851253081854,0.459413958573510,1.73986422023373},
	{-0.552071438777938,-0.0312723854044835,-0.374841494932729,-0.0888772275042983,0.490655730657015,1.30807664748035,1.87799459774292,-1.02336514431941,0.131594251008469,1.14652776315797,-2.20031048200270,0.886860664004933,-0.385876108521342,1.41221351544501,-0.0236500966783930,-0.0553843511921105,-0.268718235163645,-0.781047024619626,-0.0878030867714103,-0.887357872273826,-0.593046181096616,0.577208425297092,0.859467412236959,-2.07786916624008},
	{1.62725826121031,-1.08220502546787,-0.170651526630506,-1.11618305616896,-0.491325156434001,1.12343395440431,-1.95346236584806,0.746822062967203,-0.738235349047029,-1.86243912542025,0.517580803075274,0.00190988198210849,-1.39322792468810,0.0749521592139623,0.0929647386303734,1.92422766502870,0.504186452119306,-0.155937815475064,1.22817756503699,0.734043548421217,0.746720505877355,0.605394652108829,-1.35870497283961,-0.00133824655963270},
	{-0.256071441365385,0.285253697344434,1.53606707694561,-2.75562947984752,0.0539172374081219,-0.0878024273449117,-0.252301720209410,-0.737524350168968,0.440705567821317,-0.817670190457167,-1.08700197235077,-0.963150447229178,-2.37235693315503,-1.16491280530493,-0.557719369449325,1.11703854502427,-0.760045155231384,-1.40117423590461,0.554749880613222,-0.867792785848276,0.444233286442726,-1.71210637894112,-0.0794665911401295,0.188776635943408},
	{-0.00975224154536409,0.152007554158434,-1.66782376739565,-0.0366966520339278,-1.00818738997502,-0.310458665764006,-0.468126292104870,-0.184149553555113,0.676762639687214,0.116386873251769,0.570652635206832,0.336774869021562,0.537754521395362,0.576219860864765,0.632947226887544,0.206450779682688,0.797245181266714,-0.228239548133536,-0.0933659776579305,0.954887503100139,1.04196060097032,1.48130520456934,0.665319969855132,-0.664478675953219},
	{-0.0890328210688193,1.19062864576168,0.564722133498721,2.04083222657578,0.0718003452304739,1.03846469684455,0.195386902322096,-1.75571004649286,-1.18542037978642,0.170648805515835,0.880326703492757,-0.165244827909904,0.750614873778013,-0.730729476766852,-0.199896119463026,-1.46577980138075,-0.826679500189660,0.815863913849070,0.313601127450072,1.68037597687831,-0.145352140398983,-0.865338591805288,-0.327293084043851,0.873247133101855},
	{-0.253031830796347,-0.0432823070054892,-1.76017638556308,-0.111213881835907,2.20529178060913,0.990580356527081,-1.24445394787593,-1.19529091135521,-0.833223988604018,-1.47072753994460,0.735857560866620,-1.93290951019014,-0.0421269649517526,-0.181930963350030,-0.557437405562968,-0.202451665478862,0.0910791086567864,-0.510853601636272,-0.474455029283338,0.175230118901645,-1.56797985709290,0.682450534831625,0.795741373186263,0.0329791600483288},
	{-0.602144778483216,0.560694924695621,0.707713694518532,0.263362980618487,-0.791795942842452,-0.991912827972611,1.45444729525007,0.173759573408724,-0.451912028760888,-0.800350068362567,0.845210872138216,0.667576517843997,0.941153826030027,0.644502202931160,-0.0803884112911577,-1.00262047780749,0.589970815193387,-0.386292869114758,0.833104990771414,0.708500308432996,0.979407435840793,1.21345507120404,1.45942520331643,-0.584889965150274},
	{-2.59804341534622,1.11449019711531,-1.24945764728102,0.257097133004388,-1.52981302645951,-0.692513551931591,-0.0227697309060976,0.110309061489554,0.520455688902990,1.00494157517427,0.111156670320751,0.681273966344985,1.16833501393904,-1.12755236793352,0.842483428780742,-1.03488085959023,-0.248278767467552,-0.136571259365730,-1.43527371568660,-1.87294365956660,1.61245797171117,1.45332950653184,0.693143685084249,1.68855364690407},
	{-0.482003463716007,1.17219892861130,1.24732967015627,0.229838749502595,0.485156353947951,-0.128036037112998,1.16359630404499,1.39366168244794,0.108612439561021,0.110629437571750,-1.27561258767001,-0.208721533966959,-0.456290758681933,-1.36214778442133,1.45761696486630,-1.62566158493779,0.776252245747498,0.957253214828118,1.49795943161275,-1.34171348191339,0.946211320933155,-1.24323851683213,0.149951548296247,0.552507471014848},
	{1.98244533732847,-0.531888419008010,1.29693996540466,1.95932544696113,-0.488497353202091,-0.181293433930752,-0.695431512737363,0.453075376615187,0.176594402183326,0.266843502631479,1.48949133663272,-0.490081221367972,-0.0930158040727547,-1.92396728845874,0.0805619618012442,-0.0443619426328385,0.419955681441209,1.48346840785599,0.201240813205644,-0.155671159742988,-1.08946641291592,-0.754319903098277,-0.451381729022366,-0.894949022848616},
	{-1.04252714225172,1.56145808167970,-1.90402534879423,0.989481391740712,0.271545759828831,0.0854037907914543,-0.150064983152471,-0.520926648574114,0.579613506339982,0.939537440071171,0.923358303546441,2.05800348129245,1.10125106150552,0.193030609871507,-0.486722272061096,0.333053749502188,0.695536269399759,-0.184034286977024,0.466945862504615,1.23911877960971,-0.853793879544497,-0.285255914422323,-0.653121309924875,-0.642266210826346},
	{-0.607067190308025,-1.20926810747138,0.448052756911526,1.27159881353894,-0.185067626303819,-0.133999494655090,-0.286168320923557,0.746304373157641,-1.50067663832965,-0.213848221251179,0.221125244947566,0.246547596762005,-1.69615455439767,-0.0610461186950092,-0.127013924533363,1.68206843623187,-1.18037005626665,-1.68286273185886,-1.31303007373973,-0.931260540791244,-0.101130640700118,-2.51596009949814,-0.110419966171882,-2.11441657602343},
	{0.0172600141166906,0.941985472425641,1.45437820530438,-0.113339311905283,1.23889336284069,-1.17436773558254,-0.782256826458725,-1.00820690841191,-1.29839351839562,-0.401054338683538,1.84437851260292,0.203211638525226,0.156961080106094,-0.164953853643573,0.564218760257263,-2.50864253641162,2.78126597750787,1.14716573636358,-0.558507436174251,-0.182568121602491,-0.421853653180444,-1.05869183397069,0.476382115660022,-0.573963994343908},
	{-0.191689029835089,0.0259501976168591,0.522571127759891,0.965282491772080,-0.763687823498470,-2.30091381203878,0.111474282540727,0.208914104395434,-0.986508983573772,-0.392064509535661,-0.271850056960253,-0.451035670945705,-0.133960827410961,-2.00064629695183,-0.666689152293539,-0.347882851521771,1.17706359059757,-0.783193566832842,-2.05859372506424,-1.52821138716512,-1.10738379992459,0.0853155185878645,-0.0893523458643567,0.938452932085466},
	{-0.803821276805572,0.796167339016136,0.106698905997091,-0.376393355054453,0.460258444648207,1.85004258132891,1.12265495080732,-0.800995288061436,0.603621128443420,0.497061179758873,1.30350788125561,0.0725470862299833,-0.495246150904452,-0.157843913116725,1.56555923665528,0.359229179031527,-0.914496147219641,-0.382399026221078,0.189191675418106,-0.552554489025429,1.04687992682986,0.506068550970592,0.804330817392400,0.534834568402070},
	{-1.03014365319384,0.928583989694060,-0.262935104749409,2.98302481856233,0.858603423476162,0.0537478078391361,-0.221645023892920,0.482191763211978,-0.239444205551462,1.24471339836816,0.414849003858165,0.810354884671000,0.195046080530904,0.926577505556496,-1.06745359497663,0.887836608576284,-0.143449665209454,1.59286585859780,0.141153329352865,-0.370475440681723,-0.696940579440067,0.343578014082800,-0.660154862740562,-0.323958298485766},
	{-1.63190082033356,1.48722718116964,-1.07639554546392,0.788717270215875,-0.367752647011502,0.427571060988359,0.0328408716721153,-1.61804817152551,-1.16677598441863,0.743397321527028,-0.351511704921228,-0.788462624660563,0.221598969847751,-0.125991908413824,-2.05153194633341,-0.165361567410440,-0.432715619890767,-0.491674983749841,0.0837665111620551,1.39391081771283,0.841849023210088,0.321134325189825,0.200623499156199,0.735001499966098},
	{0.818464477830614,-0.352173786073438,0.771780276007430,1.62453333892716,1.15545974011977,1.56129415801711,-0.187746467971444,0.632546370893337,-0.952015184264989,-1.08077642624666,-0.340589844297271,-0.319148681707030,-1.30601529263272,0.302996689420109,-0.138935250662813,1.41165336380366,0.704168230618671,2.12356319154217,0.634501052065947,0.236720773169290,-0.461779281373751,1.02972291438492,-1.44621250884143,1.64360155888455},
	{-0.237764369739487,0.172210937033716,-0.955831235289486,-0.492650509978848,-0.792479643936448,0.0432975089417746,-1.75852720118990,-0.692651316429061,0.170570488912167,2.11547573428494,0.756996507914548,-0.453778458043606,-0.195658641846687,-1.00391766105248,-0.637521496183551,0.357620169217373,-0.994590060874193,0.630976118318590,-1.13110094984795,1.59003392992722,-0.231101504565035,-0.952632356975216,-0.176724675855216,1.77477769416481},
	{-0.527938217975006,0.0731454310945189,-1.07409318319271,-0.0789637702177074,-0.000184077885788317,0.656971804742227,-0.206002558474083,1.37993001861129,1.37600789959397,-0.468382353845089,-0.491105154368700,0.324086854045385,1.26847243292760,1.65709121473503,0.132110406433675,2.28903232698865,1.29728195510797,-0.533652228428092,0.978008438667210,0.993139988542521,-0.243035022907516,0.303018316160168,0.499215863396374,1.05791150067929},
	{-0.753969091829757,0.186825581632246,-0.602258239030251,-1.21314896142482,2.07607880624820,-0.594237344978913,-1.74212789660902,-1.35113415358425,0.282720911981526,2.75031835473174,0.861946788304281,0.224662076230767,-0.0816357512293664,-0.632021864256135,-2.63748407881842,1.04214782077890,0.984029820994780,-1.12449643993705,1.03711884862416,-0.112778470562496,-0.575633229194468,0.459118101241723,-0.435643603904769,-0.583828760009754},
	{1.89785784717827,0.0437297152173576,1.91354543064400,-0.445025384379686,-0.767450166349800,-0.0505962234456624,-0.893919609034713,-0.677249710619573,-1.16214398495907,1.45733644720541,0.307966019868609,0.861397008712542,0.817294625049462,0.885864649074156,-0.530673159082466,-1.20323907502399,-0.109215290624266,-0.904546287387856,-0.585654083985337,0.0320143609509980,-0.513361090120445,0.636697269313779,0.804106672249521,-0.315069951492207},
	{-0.239046291045809,1.73667783975749,0.423275517144346,0.762652281988033,-0.677686552887116,-1.45407581514139,-1.15036008841161,0.318989970031678,-0.751877975102016,-0.756067093324920,2.67954762810620,-0.622701945088402,0.182873626110389,0.318034821776748,0.521137492999971,0.619936474072270,0.0401371306075317,0.0141366847096642,0.737558772801093,0.289693922806200,-0.692072738366894,-0.446771767862472,0.206323766774077,2.39907502777709},
	{-0.149960344443639,-0.964173808006758,-0.151830402197604,1.24580991991302,-1.05677971012053,-0.647638383459488,0.576934380889039,0.407496836128920,-0.0470927437651771,-1.12896399872146,-0.864745437406034,-0.337882892733436,-0.420323502959440,-0.735991256392365,-0.536058970968193,0.483397443715226,0.880705568922771,-0.286129095093796,-0.696967089806809,0.828266448011194,-2.15426349899283,-1.10151188241016,-1.66692714233801,-0.896103210016143},
	{1.87381030636539,0.710645174586664,-0.191776059409353,-0.0653325692014296,0.382603590609612,-0.585917186659050,0.386113757872177,-1.20368857765715,-0.758259785291405,0.264050694446180,0.256060256926844,-2.08811465570370,1.09952661984370,0.191350305996810,-2.04617076744415,1.58088810553949,0.919467548727476,-0.747450389392838,1.60198748263699,1.05659589558463,0.204285047201812,0.113403970440888,-2.35767347725228,0.429396332619861},
	{0.347924380475745,-0.228760938209486,-1.91637728673049,0.523915026495962,-0.0880749916337710,-0.562025352762822,0.213549755484510,-1.88440127080454,-0.563366876283161,1.60426958086772,-0.945442456523109,0.311809716470132,-0.374170149066070,0.284428633991557,0.428264767612510,0.0646862353990430,0.443670883404149,2.06802680636264,1.36815420183567,1.14830525424872,-0.123661015492250,1.25716897822406,-0.524994744148564,-0.283881963708035},
	{-1.04861102463947,-1.13328685122430,-0.463113232217315,-2.07971627396504,-1.20380259677213,-1.10738858796489,-0.619459427861560,0.333623267279377,0.179218119773686,0.817272898078654,0.501285967998447,-0.880730203064171,-0.0491997697691545,0.0792418412779821,0.795305056854969,-0.662392258157995,0.00111299475784976,-1.95449784251471,-0.265645109445786,1.07065194953497,-1.55574116565743,1.86925148981449,1.11342770603012,1.43630456328409},
	{-1.66425173115521,0.245902715396380,0.620590796165164,-2.00678666894429,0.0189215779861350,0.860073549395246,-1.29162977967823,0.750309061063994,-0.0391522101114201,-0.865561468076771,-2.21018318782426,1.17831728920931,0.658919429311125,-0.460599347876027,0.481111888397783,-0.483640840410690,-0.420092504468772,-0.0621920206817388,-0.00702526360062566,0.513108611775896,-1.08766864738605,-0.292566343479216,0.592687015329292,0.801027946599089},
	{0.996516567588262,2.41110710177467,0.279799890003982,0.498005705507246,-1.75951590475556,-0.794032053939226,0.824005572295832,0.0873145997371543,0.577170889410161,-1.06169265016532,0.330244264815411,1.82670708593764,-2.55719993223786,1.01922129761159,0.511144894133201,0.592113038998543,0.445591149966789,1.82268090825684,1.13106306694168,-0.605427455498472,-0.324206346602358,0.774737332684698,-1.13208530227956,-0.0982051470944661},
	{-0.540244408771605,-1.52894828735577,-0.947663093758001,-1.69167385415260,-0.971267073496067,-0.767076376985771,0.350652805410303,0.482841635674424,1.98044939030755,-0.899036857806645,0.702806216753155,1.16644743391427,-1.53220274295373,-0.857867355893563,-1.94027808109486,-1.10395807983966,-0.646748699565438,0.535442329023672,-0.685383919665144,-0.0821376691083444,-0.451871687561722,0.157545486499875,-1.23122491241440,-0.845758798108061},
	{0.0405273543180134,1.42736335376826,0.510477720390989,-0.388593842924889,0.0910803147635249,0.0883443655629668,0.0601374150082970,0.720238085685911,1.56433167182852,-0.480670452323563,-0.856225694277046,-0.675217570021395,-1.27925347841170,1.03144274580307,-0.242515580808117,0.408510155825143,0.870485757212610,-0.438495074723388,-1.75216380405323,0.412340779033471,1.14811915577487,0.183925719653485,-0.652291047283871,-0.557775648588566},
	{-1.04349729869742,0.769290793941629,-0.517530913923508,-2.44615628359906,-0.0314686083230218,0.735939658656450,-1.08846304091002,-1.02255149204440,0.401022399227524,-0.344130337492974,0.289885264151814,0.591940281893382,-0.218584881799020,-2.10012092615777,0.371934093841146,-1.36234341626914,2.10984420942756,-0.318186642465987,0.446806232050408,-0.752341191135471,0.612909696245055,-0.240445544101311,-1.36662925235820,0.0598108801749460},
	{-0.112149847739405,1.10813269462100,2.64544470956642,0.145899672096729,0.416716703520623,0.968286806602118,-1.11640692077613,-1.08284342701135,0.775950852914799,1.49989542165748,-0.435770541796737,-0.671610937798014,-0.349488107531356,1.19417378125927,-0.318870042427177,-1.22370810206847,-1.42448613034721,3.88812511668742,-0.746268805354223,-0.895648989686884,-0.998527611349499,1.01819528870187,-0.249480003167034,-2.03887999510050},
	{0.471218850109274,-0.137297672449365,-0.565013804701433,-0.0837573657023852,-0.241244308150525,-0.417797305033591,0.778708610735641,-1.57073084573799,1.84697052986669,-0.493827010907262,0.256471024862001,1.53269143233297,-0.0913714762449415,0.403318907576115,1.06529655629682,1.41122016175938,1.24559371802110,1.55586614568502,-0.519859793581081,0.0629144537597272,-2.37067542005425,-1.24990371643928,0.364270316349730,-0.542909010614445},
	{-0.631498646180343,-0.188177440170621,0.683009542006082,-0.548925387558707,-0.558460559778417,-1.24339035230082,3.01210161784596,-0.602277310528432,0.586149344483681,1.01200941799290,-0.357290829634042,-0.128525588668394,0.0945001916358775,-1.22165049235666,1.37152760025929,0.296836567777246,1.55462587980880,-0.821938835777871,0.820166140837242,0.161780920179785,-0.700850646807829,1.64304541456126,-0.297234281021367,-0.758845213308216},
	{-0.718976367155497,0.498628725488645,-0.0404950351646700,1.13803542154589,-0.0617348634987263,-0.209482700637200,2.34404828008436,-0.533792764707879,-0.264518818256673,-0.318927221097703,-1.16885894402858,-0.0459400679586751,0.172415314582979,-0.316810533936078,-0.490317387690579,0.790583044830830,0.153657390841468,0.822225561852847,2.40822094291069,-0.287952630781110,0.891994462291440,-0.139746136100228,1.85461818713035,-0.936766931569760},
	{0.422784264543279,1.23963684372011,-0.680410293253213,0.265316711768481,-0.678325650219074,-1.29934229187226,0.380825764111985,-1.11675078443716,-0.630923187893816,-0.149583788350913,-0.905611652448027,-0.0940849826540450,0.156026867702705,1.68490922477949,-1.61984037237016,-1.17279459674033,-0.0811380104328176,0.797536578715360,0.0639823878375549,0.456156202235182,0.285776390790144,0.0775785689557176,0.495775257143835,1.95165626111570},
	{0.471521169275581,0.430909381622866,0.824146822861091,-1.02790792598260,-1.05657383858508,0.341696943159045,-0.491452375062114,-1.05551628758562,0.0127072332262440,2.57679831160785,0.836739374645179,-1.49699568002224,0.496704972948619,-2.67501595975973,1.11256560863008,0.688930781226225,0.418454935978113,-0.732590445669078,0.735240754486003,-0.924811132236141,0.275054845015290,-1.53018436849861,-1.12424586141192,1.96524395573749},
	{-1.86446415741065,1.11654056191262,-1.07929727577137,0.408431605203930,0.710028818881947,0.883359841454781,0.558475350348586,0.165109056647670,0.533306925419400,0.733433205856782,-0.247750659499587,-1.22292455534358,0.00479016320059589,-1.41804376865060,-0.879387657896175,-1.09564078530898,0.410813479988745,0.631288968009487,-0.217163581290440,-1.62649469363102,1.45788115841551,0.137533316510159,1.56199750320915,-1.08856580680673},
	{0.898249215131660,-1.05933466690006,1.71194108698346,-0.740450114834359,-0.704624790535185,-0.456504174477882,-0.902717351755816,0.635018407440857,-0.795160046521389,0.368366934340873,0.395271503529733,-2.99153053126754,-0.0924275064704970,0.581814281334955,-1.74479270900051,-1.02144398419081,-1.01126969629654,-1.19291725839777,1.38480758599329,0.391869056925819,0.763573937752645,1.00257887307231,-2.69938703481175,0.411286314409065},
	{1.74823964405300,-0.115071016087092,0.227258917334896,-1.51382879327256,-1.16115730762354,-0.0121817892062762,-1.36772967770370,1.68997470422910,-1.18331281533818,-1.39812666728389,0.470972049749370,1.33311649023912,0.595257147189528,0.670476019479205,-1.68775902264407,0.943978538711796,1.21949557753594,-0.287379099362164,-1.01621432842993,-0.125480623274476,-0.187580649063122,0.498040647646204,0.638059663084244,-0.195704066288518},
	{0.139280610961753,0.0272364947129974,1.03811622293223,2.11850863627744,1.32441051283053,0.411895698372654,1.56838208128408,0.330885718271676,0.396990840857338,0.680949366437153,1.78301307915023,-0.455873936399887,0.278822725588264,-0.296205618094703,2.07252867903555,0.0272756801933134,-0.0836327497315328,-1.03664389619669,-0.0393721211994638,-0.667678811421864,-0.622432164085796,-0.738540632924388,-0.460629875429765,1.31089221167195},
	{1.04208469717899,0.496880262997129,0.309319046571804,0.907707591145350,-1.42336534110703,0.912473052876652,1.25537973961853,-0.293209931399049,1.68291287487212,-2.27294459256511,-1.01906339709233,-1.49880115151008,-0.804786563753916,-0.941014372348657,-1.11435142639237,0.0268111668304657,1.79768458243566,-1.31779615312739,0.488223760471370,0.759288014046342,-0.894279822634519,0.678497240041848,0.532325547739696,0.839203174425732},
	{-0.966779468964684,-0.936278989209861,-2.70311186618505,-1.07590474761338,0.149870823284694,0.0705749471577485,1.43174018274854,-0.481206985742552,0.208861174558331,-0.0317756611304122,-1.27788187132914,-0.845938576887895,0.734251339745602,-1.29726322277734,-0.683133208357635,0.538825035786424,-1.02956333521347,0.209959383088360,-0.858321164602033,-1.64950298848461,-0.179015434828992,3.02938612054997,-1.68816655791961,1.51592143568873},
	{-1.17021115841747,-0.738981781279951,0.804333140853405,-0.496475143538884,0.553303791490096,-0.0576054829502023,-1.55614946122009,-0.578508043977268,-0.757151565462479,-0.620827355101001,-0.115415508646346,1.17881982589139,0.275723468571523,2.28978080271954,-1.22700986935416,0.516897414420401,-1.06532996220563,-1.33220316089996,0.558363183943993,0.460646710746840,0.744248041480742,0.429844888212790,1.21820490576960,0.197980212945889},
	{0.152147724894039,-0.718350180047896,0.147436892369027,-0.941341548451954,0.0216501106104796,0.293058974023871,-0.348396503552913,-0.837432248401138,-0.401426006290991,-0.411677292935263,-1.88242529775852,-0.208832870823385,0.328365996174444,1.06130540679091,-0.518562376255646,-0.336771705124007,-0.722872692138888,-1.00891728065641,0.0830252455508460,2.25225844785010,-0.207579034916562,0.412987742510667,-0.180499235602100,0.734840806030636},
	{-0.727120049913110,-1.14111156813960,0.248183415880235,-0.0140148752500180,2.12661245142572,1.77290311151699,-0.644727657073025,0.339677399741839,-0.0290119656339345,0.949138767313346,0.572838173738318,-0.346592726152042,0.556040727429883,0.456251652020446,0.851913972006328,0.338282937130089,-0.405029130219842,0.302870698395184,-0.0260478557096155,0.629685527739062,0.478947128225804,1.32270923201282,0.448738285458479,0.939905930017302},
	{0.279828218852368,-1.22909460761528,-1.13553107056444,1.65002490399328,1.10062040824078,-0.933608589962095,0.709650702609427,1.04528534419670,1.39738025931011,0.938851048733231,2.24727267505296,1.07538210401891,0.490394575420711,-0.0535279247742045,0.594131142754785,-0.167589099283039,0.439476262022704,0.995463996345053,-0.249861099189942,-1.74871714904075,-2.48881729973104,0.586485409877567,0.553895375438516,-0.577430407790352},
	{-2.21968742015556,1.56408181510596,1.19985965211752,2.30528338268355,0.553716322546408,1.89055488133052,0.387113350332861,0.249165828134269,0.564465332269605,0.200738887368400,1.45221675321711,-0.463754088488483,-0.208435178881801,-1.38230231960381,-1.38867353870091,-0.835044395673382,-2.28576110167147,0.568888054954983,-0.170837761829420,0.471865982346709,-0.643667887609328,0.269027130863612,-0.277262466160631,-1.24117538156883},
	{0.0258436809558009,1.22938806040556,-1.66922278892897,0.156768861370958,0.544570866970746,1.28786578097819,-1.34900332831885,1.77025404986892,1.18403799654191,0.478582067337950,-2.15156275640700,0.588919048403769,1.10038176214258,1.08098148679917,-1.91866059106671,0.179484009405618,0.215422068348512,0.497423050857648,0.911838640516237,0.516081463653133,0.574578860184530,-0.0226932081497337,0.315689611468690,-1.92370591380625},
	{0.466561217998852,1.47245972362920,1.20246387972600,-0.0774473037579185,0.116602827383011,-0.00275252958128078,-1.94099158163313,-1.05057742411611,0.838602271533838,1.23259039077238,-0.457892471137671,0.409797559159615,0.649698394888538,0.0542399644124316,-0.110887354334255,-1.33938322043893,0.503242025942124,-0.102649057707467,0.171584096513617,-1.07702431889472,-0.921143477167801,1.46998633776697,0.952900636743435,1.36661580366336},
	{0.912898219827643,0.277062685167280,-0.933094653688998,0.611388164174402,-2.09393031263130,1.12388275880651,-0.371915054543583,-1.00591882642900,-0.766375705380730,-1.11549849915059,0.617405606324177,-2.09979045824015,0.409787183094556,-1.66023448438101,0.426356037888405,-0.762348933248074,-0.333580395373629,0.263864886163052,1.22651630800461,1.06049560219830,0.373339475012331,-1.04414670834972,-0.480516470662737,-0.220839793132559},
	{-2.96268168685464,0.937703939445544,0.111049579539847,-0.906395018872908,-1.17277694155214,0.623264087962451,-0.744214056803026,-1.21725543493371,-1.82762119139686,0.969672353290433,-0.490699886069653,0.722816394993259,0.0233854431740169,-1.17087296015799,-0.729229351710134,-0.520297621055037,-0.878144227736169,-0.289261828233581,1.08580286740659,-0.561238753204579,-0.0149620678108743,-1.72317477344337,1.03484768953556,2.10578810020024},
	{1.53243573710436,-1.07866729234243,-2.10600988424228,-1.52041212719388,1.61362349261528,0.207755317110752,0.494715744714623,0.189989958210230,-1.03116993188783,1.37863991137938,-1.70653560235451,0.742543158688992,0.846514488219956,-0.131921945518553,-0.737388953925586,-2.02434302490038,-0.843724715976925,-2.02166251805883,0.203069434431327,-0.586852886423951,-0.392352578127983,0.670318122380927,0.826915368679245,-1.04209454190523},
	{-0.158685034153394,-0.717838564529569,-1.48273963545390,1.46937854967288,-0.317279021824546,-1.24229244137967,2.13081753823623,0.200014197152659,0.956632972957174,-0.528977641733336,-0.628493024034144,-0.212489109607905,-1.81260870297036,0.548437072608852,1.79854153130275,-0.133175748328014,0.267103858663523,0.146151595770376,0.313560222166588,0.236974803418584,0.562574077931339,0.609894790515891,0.184400946388203,-0.0693163136465529},
	{-0.352749676057416,0.927889038656012,-0.570026443102600,0.888314166692033,-0.919106694929573,-0.0230364453364833,2.06200537456897,-0.285351470601411,0.377510548310856,1.12870887488724,0.406657079755107,0.760220045064315,-0.0427756497241512,0.295152809540462,-2.16070679640406,-0.382030161103700,0.106902915151489,0.355455141240620,-2.17236757190160,0.823291587198330,-0.166960270203276,-0.722668550798948,2.12848373680900,1.22186498046276},
	{1.24934647131753,-0.773575146563958,-0.182641187226291,-2.00586061853225,-0.179560691729788,-0.940846101849369,0.178182208805847,-0.505485185006109,-0.100351576728855,0.337819652890640,-1.03134959187881,1.94953262075339,-2.06050944392276,0.259829094028788,1.31956482280326,1.13511142394500,-1.48311514283863,1.14850740411352,-1.79924180102759,-0.777275374601728,0.0808073403263017,-1.24355175864041,0.275478439884600,0.270960523156279},
	{-0.660645734034078,0.982119828222592,0.971402688695758,-0.534682825223000,1.13462964489315,-1.81192968111160,-0.602741036119423,1.27601559523779,0.667868038410480,1.02764753596276,0.365249636647505,-0.387000008882318,0.193920694145068,-0.117050114301544,-0.302029621334500,-1.34130037668989,-1.54277202660100,1.38147859500084,2.79940744495603,-0.834233851210334,1.18236425471658,-0.725045157879287,-0.192607173149444,-1.33348391687542},
	{0.490259098364943,-1.43208835423808,-0.263539690123526,-0.147151986178827,-0.115551780488359,1.04141597986381,2.20599801984345,-0.703315009907364,-1.05974447257661,0.0974703954649332,-0.596302826128545,0.131448995920816,0.996380282055378,0.878997721245474,1.16473117417418,1.68212999002546,-0.869291107016295,0.0419421845909851,-0.214189348501912,-0.543798945665345,-0.871714010876479,0.508758505691087,0.470333983542987,-0.504129434004286},
	{-1.49705813635359,-1.49579846238297,-1.17594302103516,0.712370207179977,-1.67518058136179,-0.912805961545164,-0.0680330011821688,0.828782816113367,0.398244135179635,0.228368536202017,1.60971425661816,1.91413089431895,-0.364617692885981,-0.534450441318381,1.83745246738859,1.42631777867388,-0.938744576421129,1.56516867597320,-0.635863845410497,-0.423825697157748,-0.209142682378329,-0.449267367844496,-1.29751716786138,-0.389582177098444},
	{0.971707433110159,-0.194147875777881,-0.792935810743710,-1.15545773954057,0.456223216941779,0.0128374835940434,0.125883832497280,2.00451142388331,0.497950966968385,-0.520083492928985,0.819201589400047,0.760215149260976,-0.405393177942282,0.00359968970863027,-0.418774590560409,-0.487224437380868,1.97843521947329,-0.481517249709756,-0.723229345966666,0.241555517997830,0.425309657684254,-0.672317559347068,2.35636418689011,-0.698280532551586},
	{1.40061130045553,-1.11984305637992,0.587646205742020,0.299760629469326,-0.765912459021403,-0.510153549193950,-1.26260101229506,-1.26470482766669,-0.418208472087418,0.419951516504347,-0.372634567484091,-1.43312529292159,1.27718662974236,0.190149973529156,0.607743311632120,-2.19108076736960,-0.200135661064803,0.372349207058386,-0.244853984556080,-0.377413178158053,0.545555649083472,-0.102156668436483,0.0652737987515406,-0.708417527858150},
	{-0.546174115035606,0.480676229390980,0.709211685270314,-0.0915971677873480,-0.275968785817862,0.0397212360644040,-0.551487741926024,0.405968188079462,-1.26327087399189,0.300480341188969,1.53602760034306,0.458606700002069,-0.684831665218411,1.15762774188430,1.39359084635326,-0.204774201655708,0.589203550729413,-0.903862325122263,-0.241860560330794,-2.50088798691230,2.06290071052421,0.841665925849989,-0.605778915014272,0.603131572501430}};
double  w2[30][160] = {
	{-0.923577202252696,0.652703486046068,-2.28294655919822,0.954336998405214,-0.834264129592693,0.254570323840824,0.165823281647638,0.940885426386987,-1.57662691195585,0.488522212742686,1.07020162861530,0.0600689301321467,-0.836324450183467,0.375837762461497,0.630001974672985,-1.04891561768554,1.20580565742450,-1.05161098309829,-0.586523820156264,-1.03316968646264,0.450631220274438,-1.75382536692669,-0.123805674953638,1.40150648056583,-0.612354616555629,0.198234279986500,-1.22308681627428,0.350810783584392,0.145793011792567,0.284004814376379,0.956661430842302,0.201355790648388,0.320233964927799,0.256432961603937,0.380274999257801,0.401026543938530,-1.23945012442826,-0.519768795788797,1.01890057530206,-0.656885184577448,-0.997241668431084,1.06671937313788,1.33016891568799,-0.257369290260569,-0.422769626368291,1.23774884198349,-0.144843092422908,0.0358725184920479,-0.180795646468019,-0.0521644376824825,-1.73581286294655,1.20603378566585,0.193631017387368,-0.245043825761284,1.79358538866321,-1.65404640581355,-0.489177170836565,0.176598086605066,-0.0827559361567027,0.458027615505755,-0.495040548481980,0.661996733423119,0.738805031246099,-0.0324970533044995,-0.177643416955151,-0.0567628040367859,1.64195113312073,-0.140431652325102,-0.206709856348340,-0.539672523629714,-0.643302087482980,0.177003440546992,0.751448006646317,-1.35424413230308,1.40926396538128,0.344652462343459,-0.897351901159087,0.498875597856516,0.652828546293696,-0.308948242754666,-0.286339794602447,-0.639290577924548,-0.481072374868381,0.0651664946186403,0.964879719210104,0.806439990924335,0.835479648534830,-1.24880145496182,0.221139343417658,0.936386139416658,-0.655381592008140,0.425130184493412,-0.180799430964201,0.555624735620006,-0.923109211154672,-0.610225929763917,-0.231153710373694,-0.548562041972542,-2.24169453485562,1.86441049353066,-0.521443398115935,1.16183692507867,-0.223781735225696,1.33172732583282,-0.180516955086500,-1.23889606809222,1.01299892579878,-0.114775851525327,0.871865680007874,-0.429766345101345,0.166686284984162,-1.59836329320219,0.636292053459857,-0.551908293832434,-0.966429069133975,-0.127425642097934,-1.10518588187990,-0.195478216702161,0.0262894563256954,-0.430265927906461,0.167912062587925,-0.927624551970904,0.00491443482247643,-0.544389972203032,1.27470479790930,-0.854815955513675,0.732494272781331,0.231767937446867,1.08993543406100,0.453426747096985,-0.00880263373440156,0.774088774406922,0.168817336821598,-0.261036948625065,-0.682758614223646,-0.253646261447016,-1.07129867575905,0.170465026601445,-0.930840802708916,0.0293915247669037,-0.922202441245493,-1.00628600687283,-1.40847556228942,0.474853328334957,-0.191925187504054,1.91574891297857,0.0347543564899211,0.335515707176548,-0.195648206144270,0.698860940575990,-0.366937479488087,0.156964019208871,-0.679887891742497,0.823613944626358,-2.10665290097961,0.747677632785627,-0.370582244017755,1.36575422229850,-0.904996374983512,-0.784814111285333},
	{1.65141185915241,-0.316952438937669,-0.866647343118229,0.479840704717166,-0.284898821327575,-1.05925755492750,0.0772344521054693,0.478195732559754,-0.317651150129527,0.441534906545475,-0.925204091579635,-0.706803220323034,-0.748711219814421,0.438109605697802,0.618475175459935,0.0722627361781434,0.176632851548834,0.0919841409181437,-0.658094352585148,-1.94441539793122,-0.249973409846405,-0.514657246639931,0.982149518065752,1.33783378431994,0.374016966126568,-0.452072462642588,1.02453675479891,0.701471229434687,0.924856932842768,-0.0650342640506141,-0.0397193412875849,0.990473806236160,-0.126287647567263,2.51626394897783,1.22202215935560,0.0350590663695982,-1.88696584582219,-0.353234321074250,-0.591940575267320,0.431160786749197,1.20558796675340,0.246763698625295,0.235130688760772,-0.241634050926855,-0.219099423253229,1.23871745159916,-0.410214489133325,-0.250694765973738,0.164618844392230,-0.483261728462282,-0.100002608872799,-1.08151429975017,-0.786133544494606,0.471376003448336,-0.742711443830499,-1.35573394208615,0.325529974451001,-0.0972150263340461,0.433790858254892,-2.33645163488124,-1.57098631620486,-1.05104084347265,0.844025099620059,0.996575682946659,1.00678814606713,2.59438867450915,1.64632395160620,-0.0915980730641102,0.282951634376862,0.422209729109215,7.48808099167499e-05,-0.756554669351730,-1.47377005948186,-0.262378162640440,-1.26040272001342,1.72268356819602,-1.60510131868229,0.710537193171592,0.345818440828436,-1.09271136164236,1.62845000072566,0.405529217416605,-0.0492994500901615,1.39904504870363,-1.09906303770330,-1.16510537524736,-0.0536888151013426,-0.399739383645979,-0.454021042260325,1.37937154426625,0.363811657919653,-0.878800206519633,-1.27745888234890,0.0876908160742953,-0.0349433012261032,-0.0737439141333283,0.822091943467578,-0.600506222826843,-0.343665155410346,-0.576971190730353,-0.264542213182452,-0.553350717023765,0.115861202589287,-1.11241792860886,-1.07140437407572,0.884156335500526,-0.280424207779628,0.683572580562941,-0.882012581168378,-0.358789178852970,0.728951682636115,-2.56548786020790,-1.80268312467931,-0.432203561980384,0.364467697580585,-1.86062754086733,2.76955992624049,-1.32402941215409,-0.385238066164952,-1.13407629181279,-0.447705122207661,0.992263867946079,1.42247022187457,0.145027864176315,0.176344846701776,0.381456597475202,0.953950523559481,-0.223352846967851,0.282238443963950,-0.796335603769989,0.0153797943906213,1.71149329774737,0.733984370341496,0.0707577899735196,1.09438461461343,-0.652253147013509,-0.418242146028354,0.562994308064131,1.08418267549727,0.0358883775132642,0.922404325537003,-1.14768883498664,0.208963236854806,0.389782865422626,-0.467989022937162,-2.73043003764694,1.92393878247222,-0.336762716915442,-1.16889860166992,-0.968312963826385,0.207225519867268,0.529238462413292,-0.927570905951950,0.914061450179783,-0.224984181484705,0.670622581900997,0.732555497971029,0.0577458755456286,-1.46450237745504,0.473950544177762},
	{0.248577457611360,0.372647088376951,-0.187116178806554,-1.08600094276726,-0.0770194581311040,-0.134931161106136,0.488360584035253,-2.99401321595928,0.862747049176979,0.116007502489661,-1.55139521066558,-0.837248131205279,0.555703155728679,-0.570080210670177,-0.911199132103813,-0.877404774493481,-0.0885564774057121,0.382675105715252,2.31439036304765,-0.738410879677794,0.169224582769129,0.104851866829460,1.27813021702419,-0.459385566883683,-0.554341486417279,0.195809579839453,0.130865973322836,-0.582810610724176,0.141812620572245,0.719355853113354,-0.802372895184147,-1.33320535829010,0.523216747724310,-0.0644884358378545,-1.35441296775556,-0.414927021687215,-0.277175567069692,-1.00665704808148,-0.528695674116283,-1.69427107716339,-0.0778144575028519,1.79988549955366,1.44645084215158,-1.10358787808293,0.373968781754914,-0.264101410272133,-1.76074201925018,1.61430757105006,-0.653081288050981,0.148644454966878,-1.02869836422902,1.34359681954972,0.934459518970653,0.319903771001715,0.188765903700572,-0.448207567205324,0.825337083523555,-0.579796438768918,0.352691464935591,0.269758200599942,-0.289238368545049,-0.909163775106607,0.614970181783434,0.799132955550965,-0.394264674709303,-1.05063429899735,-0.545554517442706,1.79085451691008,-0.0357577353656631,-0.502472278300393,-0.331507098308980,0.123067869081468,-1.13206199240495,-0.851498981666521,0.734622115463323,0.368093883710127,0.311887021547656,2.55206986897701,0.374169609582885,0.635301189754639,1.10438080017881,-0.324723862181095,-0.0120429078011923,-0.279807518935240,-0.224899218131528,-1.16444031253271,-0.769792402080511,-0.827419237241445,-1.29487022914986,-0.539197605956303,-1.84096988627812,-1.01390049949676,-0.332292003584833,-1.80497547477974,-0.791211181781282,-0.388981853486428,1.44169761095483,1.22546966992068,-0.195972836287062,-0.342475479343958,0.381972703029624,-0.674098878769282,-0.254986443789629,-0.249268744776156,-1.01916184540611,-0.914424559970440,-0.546920401083343,1.61815254570199,-0.738329159392646,0.876295558954162,-0.584211912892135,-0.420668765049913,0.130879530221603,-0.550804422686331,1.05727095594933,-0.670574519731568,-0.628322250475448,-2.20159504589121,-0.368598424201019,-0.430040324079861,-1.04531964004251,-2.02683279152801,-1.33693822119059,0.285679586197478,-1.90309169212835,-0.837655166973417,-0.693374627072463,-1.50471532392339,0.805155290922998,0.882831609288825,-2.56114439975464,-0.0430371961354197,0.706412218564479,0.0475119217889143,-0.580858588493536,-0.647526070812636,1.30789440106928,-0.809327813640134,0.659363843118263,1.54037989120867,0.259159187760860,-0.947405212788121,-0.273888963407366,0.323311013790863,-0.224104351123212,-1.36337401131386,0.262576718408160,-0.267957047629198,-1.19803390599564,-0.481940282320970,0.932575810248718,1.53582333371560,-0.706707350262804,-0.981244550388994,-0.212462039483310,0.590068562952989,-0.181483231563513,-0.311852961306581,0.431146614596506,-1.00078608176693},
	{0.747807818213204,0.0132832707959262,-0.489351129341294,-0.490203757630084,0.663595623431864,-0.387351469351335,-0.883591205305569,0.915864954557780,-1.59868850183813,-1.28594210557301,-0.338355092716460,0.926894446083651,-1.19498019761129,0.758980813226549,0.979000516099365,0.618768353126556,-0.174374518151296,0.396823563711688,1.13576232823423,0.534855064689822,0.654828531576551,3.13775119543507,-1.56674729968853,-0.474966834237755,0.0828445285445860,1.40797501547987,0.512778943328829,0.787284783239283,0.293373271367465,-0.641282416413664,1.14264601540677,-0.0957233248727047,0.316384037000911,-0.0242554129724981,-1.33582522279683,0.477754930698948,1.06356838123770,-0.961467240579021,0.452443257863387,0.0388347329780245,0.184402549012297,-0.0450181106818201,0.312997698486023,0.0267683957085143,1.47577149801135,-1.42032621534458,-0.592179041125810,1.12123769472015,1.07692230459532,-0.652278837841244,0.416079758542488,-1.48783784100481,0.578290531146632,0.0263767023294860,0.518018220674873,-0.00654788299818301,-0.622442560802187,-0.982595222307287,-0.539447299647177,1.16271885314453,-0.577516840057752,-1.08615224184124,-2.58278361675177,0.736758216355933,0.413197871639831,0.310226437994138,0.747133801128237,0.509607017695283,1.50635931125423,-1.19683246663093,1.95355226751912,-0.332660862860836,-1.91298154298701,0.437097336673021,-0.487373196610067,-0.960315689867709,-0.530573885665700,-0.556892584754874,0.426694310301964,0.448509955805283,-0.179315984992199,-0.0735372392568626,2.67870652754680,1.46494373700750,-0.00133414296912337,0.937951787063525,-0.732951083746640,0.385197881997881,0.734992056375936,-0.772721647008930,0.884130050563260,0.244939087083290,1.97353084764780,-0.712957567247279,-0.516142299249296,-1.52711990544128,-0.757090774243251,1.39312978070739,-0.0819985123633552,0.854389544997466,0.340897246995300,-0.558460327568134,-0.0311452373003950,-1.05674782290910,-1.32717318132079,-0.477616323571193,0.436426644120413,2.28937344088354,-0.0297910727623036,-0.604717755906605,-0.891038321653496,0.723682746952077,0.245189629245281,-1.28389130020891,-0.803192837808609,0.931575386962287,-0.0232594407072775,-1.77257202283129,0.500438751931008,-1.00805596562172,0.136311800193868,-1.51396525573181,-0.775214826723092,1.25040323595118,-0.184567876186603,-0.435435632312332,-0.854850681741010,-0.962463032015696,-1.99197060131233,0.192722812583710,0.478388527299203,1.32620498507465,1.24791899787687,0.338762896450082,0.640900345254799,-1.51954635907432,-1.05963783971321,-0.137184959768641,-0.410249861356061,-1.43481739913293,0.451218952478170,0.144241546507447,0.0819626397961217,0.0858678554057035,1.20578076147742,-0.460567840473229,0.719708090026580,-0.723969692709272,1.31046884421901,-1.18391841198534,-0.105854993906072,-0.490534777579064,-2.13178302549833,-1.54623885058508,0.809469606482350,0.118323667757577,-1.20546281350175,-1.38943219416997,-1.14949978506523,-0.587261492109085},
	{1.21453198465892,0.419528840548691,-0.0572157066595354,2.04581366006572,0.403820803631215,-0.118453861049969,-0.384506424548602,0.315775787020076,-0.286284396926251,0.0660209222282686,0.309550201035764,-0.159047102442858,-0.203297960107915,1.60565897537520,0.642604388257847,-1.59773730601565,-0.986305484602391,0.837741187676986,1.45027539437901,-0.0711283522343728,0.430614387007729,-0.353398395225711,1.58967398043780,0.293369627657203,-0.285757606337904,0.136324911368682,-1.09177979298787,-0.660519967406032,2.38852284879321,0.827330263988315,2.46901130268996,-1.12468190402665,1.19879681165369,-0.632825186289313,0.939964840474173,-0.397153481864469,1.91781717886148,-1.24981315608625,-0.668633184415259,-0.161642090848311,0.966112167180552,-1.11664766817434,-1.39970574768836,1.69579376908749,0.237283170851902,-0.0998458679667118,0.0914841307548643,-0.535867656141978,0.904367657751166,0.904462405732548,-0.945850022115791,1.78699021726360,-0.805419030113274,0.233167218488714,-0.395860994391877,0.340850789359695,-0.484630705814690,-0.657105808555099,-0.781811906872264,1.16535422899313,-0.0997873639186242,-0.787641800261344,1.46663001207140,-2.58274036224679,-1.19847059793966,0.609881402411027,1.27778357053074,0.809396846472596,-1.35102011210859,0.532007644281526,-0.429004689924799,-1.11391518160561,0.280827356953896,0.0783948269317890,0.127557160011178,-0.427325248944278,-0.594430639722996,-0.585935722023787,0.616821277298850,1.14842717526427,-1.23474409948681,-0.919050895642033,0.700801173198852,-1.40882200986251,0.0433321204474218,-0.723929242282211,-1.52176978390562,-0.471331248464483,0.0172630902671462,1.35928950804002,-0.753491964664161,-0.208639105574392,1.17927860441596,-0.283669057257595,0.659727006099584,-0.0541630415872000,0.764527476191532,0.505318539226793,-1.21400360363624,0.723813579710119,0.495718576838993,0.0751893050137788,-1.22039463276133,0.791815053624144,0.00127796305106550,-0.354598847552111,-1.01873715097466,-3.20593437344004,0.675594907972458,-0.948513150885233,-1.35278525859533,0.799175109060575,-0.740362559331712,-0.143691934509387,0.563680244425435,-0.269690617458037,1.30388803957072,-0.707686309850711,-1.94458610589135,0.270992855663552,-0.894066405260467,-1.31287663131236,0.337147987496231,0.237942825393949,0.142459077023482,-0.0147339110930122,-0.115645207566147,0.619129547656267,0.718307893604359,0.00813999413360077,-1.84585108026099,-0.781943159863581,-1.27772806166164,-0.583570828742944,1.32730480695129,-0.979687338556361,-0.0698152361838309,-0.632089739641129,0.305982299337311,0.341376140686399,-0.403068568690084,-1.56882188815496,0.490436910814873,-0.784936116190749,-1.26970540475974,0.120606064700206,0.648956614543456,-0.760845738319814,-0.757234861494460,0.418922995441869,0.665951300357826,-0.426282574699493,0.0643748114644914,0.932711870521927,0.556713865412803,-0.477495985396015,0.759016489331958,0.246164252940979,0.328154489904342,0.800793030047469},
	{0.0220971593405576,-0.967720293080587,0.203572117669698,-0.993391835486953,1.04314272026314,1.55782840777351,-1.30267006873628,-1.88359126055275,0.322217456109505,0.337514356259432,-0.756181382281322,0.379001705433606,-0.217877928344254,-1.11699386928125,-0.154261779676707,-1.02859507845252,0.347065985672639,0.298007977907093,-1.08389381169823,-0.538623708987889,-0.197914504537199,1.29855881962710,0.129218650977664,0.954066488683512,0.326658757636838,-0.593911371273049,-0.190554301505894,0.758848381143255,0.184930398440694,2.08584147994659,-0.0712722481393407,1.09573986959870,1.26665725002947,0.839287056519973,-0.734494290160728,-1.97648594231023,-0.907098921300196,-1.46285229124176,-0.162886284454905,-1.15993881088183,-0.123490646788005,1.14414233209085,0.806954022989380,1.26962030203461,-0.810391033899244,0.928183302916409,-0.185259390620175,-2.54086796288176,1.05877432674869,0.465034627984594,-0.419875847899848,1.69760472342801,0.215844788083946,-1.48135770401987,-0.148009211896171,-0.575937064385324,-0.568899209027231,0.172122336128909,0.394759589942057,1.02438240320847,1.25766567958448,0.333989087349046,1.77576083651275,-0.398328700821098,1.29932165905982,1.42303691778865,1.15937784248913,0.121602859027547,-1.46073704290682,-0.805525040131228,0.0589368365248620,1.29940622063426,0.305545116018190,-0.561495419861225,-0.803862758263860,0.608284831044349,0.0860824751991087,0.235640816436204,0.222709805025168,1.60725272886460,-0.499636626396082,1.70979850103674,-0.345546406049645,-0.461939409417407,0.791352224806329,0.0291590962075859,-0.840346405186682,0.938994747493971,-0.737848702456900,-0.0597425126836210,-0.719360496643869,-1.28009623220938,-0.130553487821999,-0.141022163105268,1.16535622296850,0.624960268329700,-0.0671983743484049,0.785520105775525,-2.09706780100118,-1.68369787892999,1.13351049800970,1.18001738006534,0.484626523975539,0.504992382648582,0.848799783458859,0.165535851303600,1.76995664355018,-1.67061307354063,1.04120824027558,1.12567026939060,1.13716219036383,-1.18125295538348,1.10869086850465,1.08802331477585,-0.520941758851417,0.426308728096077,-1.20140451383003,0.386838811923194,-1.24863974324784,-0.410418308173181,-0.494001760935622,0.507721931424249,0.473887817186277,-0.563424530712312,-0.437442043416049,0.183129816960542,-1.97766649060338,0.667518816156582,0.892423797944848,-1.12908802147564,0.669159833287454,-0.195248268927621,0.667797197761788,1.16599884417463,-0.331646146886001,0.483071476510059,0.279532037498514,-1.31752762808151,-0.561560672358477,-0.639776341143273,-1.05433967902930,0.174999277568814,-1.34427872539188,-1.10959278373300,-0.529964527651187,0.140419860123965,1.15583271616572,-0.736059844707120,2.10388964760439,-0.370647854745556,0.613496842548406,1.35568089890674,-0.868327290728529,1.09866773200228,0.179794849864045,-1.33502287223780,0.541703051967309,1.07413574839280,0.883735881626534,-1.49666688469638},
	{0.0346222493732542,0.331295958910715,-0.509143682201889,2.05237972326715,0.364775401562255,-0.576520174573244,-0.698286917914528,-0.852073476383948,0.714329587241712,-0.481539234503978,0.492684886885625,0.461473928607715,-0.924872240170541,-0.0788972165864249,0.424409520338929,-0.717441577374894,0.452621728953318,-0.127999719207466,0.907728996561814,0.0967803021496768,-1.42456215695916,-0.998240552327164,0.184686077482379,0.463580824742339,-0.107469554779305,1.10792506098933,-0.537695673696283,0.0846149868774652,-0.763172492589635,0.877235702969695,1.18490721271539,-0.320778094779378,0.707566020139158,0.524518693045514,0.327977244332510,0.425415316897829,-0.689639391320388,-1.16419976789370,-0.828400292580609,0.0715426986512612,0.0616684890114016,-0.343856809272251,-0.307622335705576,-0.0773969117347102,-0.546959660834029,-0.903465349801817,-1.06183693840722,-0.0952476674373770,-0.0729833618796886,1.04642847225932,0.539925946386217,0.376823383840305,-0.0979415177765571,1.30177049903374,-0.771970877425835,-0.764098660941100,0.490010598062684,-0.0524696546028018,-0.347124987223017,1.26440274351488,2.37283245839989,-0.271723050366143,-0.370222153267148,0.813658564069419,0.0583739810287751,2.15394226180814,-0.0348985114991839,1.16205839050746,0.720099427040152,2.22174412188286,0.190975553068768,1.12274344069001,0.0204396043075306,-0.0136250237800017,-1.04923738246844,-0.287339451862908,0.387524306955403,-1.06837392164746,-0.606605734069987,1.02212380535241,1.66860451231368,0.100932052791476,-0.360681972849186,1.64938982272142,-0.803326654098871,-1.34956675116255,-1.14829311281754,1.46981392162595,-0.506961110467796,0.0449022089348189,1.38309372899725,-0.112402514903052,2.34430364079649,-2.47541402486378,0.373707247195510,0.00716968425909213,0.251371297747865,-1.17736593872567,-1.01079784710855,0.308554437603794,1.15046241611587,0.429281809500008,1.72442771874869,1.33086151417822,-0.0925304985091530,-0.435928137796042,1.19406094653308,-1.43539217023684,1.25788572068175,0.154526653539885,0.465548324703624,0.0906403869946287,-1.70711152604915,1.44990819327250,0.220526522224947,-0.719925808648662,0.361134393231700,1.71906672910366,0.883615356778408,-1.64256285884902,-0.803141197497289,0.388661853967136,-0.0701675831011879,-0.545220188851587,0.666820561333689,0.512801512474346,-1.50966772459876,-0.0988507381731149,0.993772344578638,-0.225537822286797,0.350641825027352,-1.37339717715223,-0.907185825603704,-1.35965370197926,-1.67041914854314,-0.356426301048111,-0.260293749084831,-0.667036429730469,-2.33968446863387,1.42324250947513,-1.81802549216324,1.37945478191404,-0.923924156529321,0.438361369199556,-0.0575485600897782,-0.523633346418085,-1.01277197643324,0.260489517529840,-0.129063852107564,1.20459546117637,-1.06823861789491,0.258832822755491,-0.802005821592572,-1.54431041806074,1.32050709381234,-0.421432654460541,0.160948104323528,-0.584801039286062,-0.815836034836001,-1.91195864058678},
	{-1.33969154744136,0.305485835244953,-0.496363858192120,-0.326233285821436,0.101541814862565,-0.360461920359701,-1.09516631164683,0.293054872699381,1.55131237042514,0.796541025601806,-1.05074963980438,-0.242611766772698,1.13259346817030,0.397404741994641,-0.554443091276009,0.141172295050728,1.17532024904189,1.24494471259650,0.826110038918781,-1.02732278069163,1.63471469291909,0.187705839361190,0.436462940256233,1.19075276889452,-1.81875455803725,0.129474884107952,0.235322342608695,1.25153786170670,-0.538427998671201,0.440204396575305,-1.49441419605077,-1.02310048732623,-0.120134079350638,1.83761063204917,0.735916502691067,1.01017897440188,0.227710754043370,-1.63313695674285,-0.356245086589080,-0.379247961768110,0.100861672003457,-0.250148677889500,0.546629819068176,-0.409390653978393,-0.294129611957284,-0.434232532655454,-0.0992410324739612,-1.21557723284621,0.0939073753934619,0.646230897223807,-0.267658063077164,-1.44702032016064,-0.838128364793867,-0.848921019286867,0.596629378316146,0.302742747398237,-0.335961036844173,-0.905571368996457,0.498801764389793,0.238063071736315,-0.830645399650197,0.879992293102367,0.323887177229921,-1.01592316704300,0.0541389002291898,-0.730691440824158,1.67933858930975,1.81998794220849,-0.452768580371487,-0.917360272097015,-0.638079204570420,-0.191516882627138,-0.123189735936352,0.435639232988038,0.581264828636460,0.914054325595249,-0.578610439234069,-1.41606042841994,1.28528466095077,-0.821626960708446,0.0710262701176080,0.590973185781810,0.682310980413848,0.978914183406061,0.519246909668737,-0.961822322879949,-0.0571962707924643,0.583694760262016,-1.66857559720386,0.496160048238018,-1.86839710118687,-1.09227984997595,0.810250335121621,0.355890917438345,0.249899872418717,-0.366440065313427,-0.0410478328043561,0.869334635178416,1.01873559133690,-0.543054243414650,-1.09138759465954,1.47509994677806,-0.925807269279126,0.0577880168706663,-1.15936265264227,0.648656241859312,-0.288841563427309,-0.499643459575180,0.565275900783947,0.535558960341711,-0.131274658069055,1.16725570670067,0.210276195891022,-1.33166397497862,1.32000996775682,1.62867582178349,-0.444847389714335,-0.622253994635741,0.541461726887010,0.480893672135788,-1.25593040982392,0.670407992087499,-1.05951755996816,0.822149299164240,0.526087687700541,-0.667474113957973,-0.552228675080591,1.70880043093807,0.465210154712897,1.12347731710607,0.379238201440507,0.304503009907596,0.0140524488763136,-1.69564700758335,1.17884671075814,-0.727753169829497,0.131912910249957,-0.981425185735505,-0.931172221822383,1.46415556501281,-0.835182073076314,-1.24446743152553,1.27533763771022,0.345187372520684,1.12415081207542,-1.40068085381214,-0.740637751717250,-1.03633509794821,0.230366550629587,0.292928007082016,0.842455340607184,-2.81951567201194,-0.790842731315949,0.870197848123332,0.737732543722078,-0.788413875942549,-1.39257150009326,-1.68335645774983,-0.135472269381173,-0.159149727367858},
	{0.672662251513286,-1.06020534681420,-0.206874253386170,-0.208784063140567,-0.398619932085924,-0.368815370554747,1.09988841467784,1.34211842628562,0.550379422947993,0.954898249397627,1.45879577266684,1.75733189809722,2.00056951325848,0.414748426559282,0.581670166825077,0.508497088487855,0.818130596630374,0.322073746205110,-0.945666379927018,0.850893943396944,1.96769081255774,0.169256011086332,1.25702374192607,0.407720941341704,0.732661123583495,-0.0443728460922444,-0.992661677792635,-0.644681965497734,-2.28375822311668,1.45939284805495,0.158475284117227,0.0554533023358728,0.508603127490194,1.23115450536788,1.07339942639869,0.275820842628252,1.34682096799175,-0.0206159356645970,-0.572801016429761,0.802492260598848,-0.640817812087040,0.947501155195909,-0.618590964688451,0.0328757227700810,0.201326024144346,0.0543743485086355,-1.04849682315544,0.0986789538023569,1.79568876180487,-0.0903570856447442,0.163313304020060,1.39906734129225,-0.686742766323423,0.239824615551023,-0.336291662189266,-2.10681260735376,0.454180800115942,-2.02490010239797,-1.24464578490868,0.754952924991642,-0.127234968698387,0.395567414999391,0.231490296627023,-0.107923502247964,0.544275020002126,0.697472124985364,-0.0306810883979630,-0.726668545308516,0.493584486811034,0.979077211766956,0.888889004604026,-1.52063414089823,-0.0148829666056765,2.01839545110759,-0.583660622111977,1.29049175259508,0.886314013699357,-0.360833463384617,-0.840227480936926,-0.283075960280708,-1.60050481360161,0.835292552179509,0.155250068216358,-0.0548176448849621,0.478503589823017,-0.286147198507438,2.28125901318352,0.0769242998137293,-0.138703077640581,-1.98221846346899,-0.0945305351971163,-0.468599866986562,0.522789170647564,-1.34123197898974,-0.329122502181379,-1.04333743363935,-1.09957896258541,0.0973876513989277,0.426648086199400,2.09279586153118,0.541974837590864,-0.814943972799386,-0.609569856617435,0.392813262877799,0.873624859131234,1.79101801624146,0.218892288488850,-0.335780835262280,-1.14186182648869,0.930320414275623,-1.22150597355465,-2.45723919088176,-0.339567345361025,-1.34886638204866,0.0693855442933371,-0.0408699695419400,1.52883996860434,-1.26671598867507,-0.627616963667039,-0.976774937685265,-0.516443427237987,0.00621766159553888,0.337609708408265,-0.635255912089890,0.923797996801643,0.930904421598294,-1.17917947526743,-1.73922610280167,3.98110150293612,-0.572696211893133,-1.04505711178618,0.217479309169114,-2.12670490345723,-0.891672093682856,0.691085580230966,-0.215577198462722,0.247076746888544,0.0757682469334421,-0.368152025255971,-0.701774314500403,0.195010037909492,0.436135483979153,1.29106722006525,0.774557420683895,-0.343365190439216,0.447891549947320,-0.491100735253866,-1.47348111574497,-0.466140364376852,1.13526311131345,-0.904388461296573,-0.934721448618380,1.26259111746547,0.646654730676129,-2.23156831367258,0.782425992778326,0.900387499176193,-1.03369022543187,-1.64222082936104,-0.807333603544154},
