{-2.30218592852364,0.596065434634614,-1.69531184265836,-2.41735102275185,-0.977173963361709,-0.288659347980310,-0.130399098238212,0.251410546806799,0.459843991085512,-0.950352675723268,-3.29692388180403,0.831019915827949,2.99595529443744,-0.173113763826654,-0.897169467764547,-0.702310096724073,0.0597067594254608,-0.259199697313599,0.741182647774101,-0.963191566489921,0.400687286711034,-2.48905982863403,1.64055674017588,-0.644033255408983,-2.26595483132611,0.295477765707889,-0.0555612454725349,-0.294807705528419,2.51131450814253,1.50144371818827,0.274393066425538,-0.718235927912184,1.97951056752495,1.30484971858207,4.51062048855401,-0.757499952722347,0.760068786653190,0.247745218634757,-0.284803967205501,-1.29593296633951},
{-0.453816254560524,1.59601685916235,0.552743750379699,-0.905174437944342,-1.17686089186109,-0.407599454946065,1.43759011497738,1.07909168064664,-0.898104744016308,0.545295311742265,-0.239908996885434,0.542462982607120,3.30243541701008,1.79248939797436,1.27405286982093,0.675745167170557,-0.534211820562676,0.958874031438824,0.702511868634043,-1.52354380518740,0.527957855001585,0.0354799725563983,-0.404241042232159,-1.00760806223239,-0.705222454420398,-0.982349029001017,1.11195026916558,0.380291988768818,-2.04665622029718,-1.48800723354150,-0.927325791348635,0.438761244730797,-2.43190232439776,-0.930131393543046,-0.0583966191788384,-2.63161006800293,1.87480789736316,0.917719313551281,-1.36333774120700,-1.03226220721609}};